svm_type c_svc
kernel_type rbf
gamma 0.00833333
nr_class 19
total_sv 951
rho 0.171794 -0.00973114 0.163594 -0.0327909 -0.041823 0.207476 -0.100692 0.00148499 -0.386672 -0.0778778 0.0150277 0.171345 -0.0572443 -0.0226207 -0.193359 0.195906 -0.0372795 0.0137136 -0.185284 0.104297 -0.118568 -0.358071 0.104936 -0.281369 -0.403465 -0.332405 -0.279242 -0.125309 0.00303254 -0.263167 -0.240094 -0.414463 0.0686669 -0.175041 -0.179177 0.224048 -0.0071208 -0.0339619 0.253389 -0.0728162 0.0261628 -0.150338 -0.0250751 -0.0036776 0.149313 -0.11851 -0.0236901 -0.184375 0.196453 -0.0452727 0.00301607 -0.138418 -0.296286 -0.06245 -0.294194 -0.24398 -0.258078 -0.224722 -0.200733 -0.0352521 -0.279544 -0.258276 -0.337265 0.0258305 -0.24307 -0.244347 -0.0343995 0.185325 -0.0473641 0.000648221 -0.26546 -0.0924589 0.0963061 0.149051 -0.0312722 0.00418542 -0.154344 0.206039 -0.0623353 0.00757983 0.301617 -0.0577971 -0.0798055 -0.152973 -0.0232604 0.110123 0.149523 -0.0544957 0.0277246 -0.171712 0.203726 -0.0134445 0.0102162 -0.271708 -0.28645 -0.315077 -0.202146 -0.254883 -0.0517811 -0.307727 -0.260127 -0.30659 0.0188875 -0.221417 -0.191127 0.100196 -0.140206 0.0425267 0.12797 0.484341 -0.00123446 0.129846 -0.0941154 0.62328 0.0616998 0.0562195 -0.183333 -0.0449329 0.0776916 0.0806878 -0.125904 -0.0385253 -0.27975 0.169441 -0.042884 -0.00244037 0.152337 0.221763 0.360845 0.109827 0.229002 -0.0107434 0.354998 0.0837683 0.319765 0.0443 0.162482 -0.0338899 0.0281545 -0.154287 0.200662 -0.0147161 0.0231894 0.145919 -0.169911 -0.054241 -0.241933 0.293364 -0.0803514 -0.054544 -0.24472 -0.213856 -0.329232 0.053189 -0.160273 -0.204061 0.0503559 -0.105536 0.316081 -0.0183199 0.0486738 -0.240074 0.266465 -0.0781507 -0.013564 0.34154 0.13503 0.17812 -0.308493 -0.176924 0.0294972
label 0 6 17 9 18 3 7 8 4 5 11 14 12 16 10 2 15 13 1
nr_sv 46 52 40 52 58 46 45 52 53 34 48 75 58 53 49 33 60 42 55
SV
0.8925765631787309 0.4355460360732638 0.0652748393341204 1 0.6404391823639013 0 0.3033833725844746 0.3358158328544691 0.9942387221833151 1 0 0.3868363682788175 0 0.01016424396375338 0 0 0 1 1:0.001 2:0.001 3:0.001 4:0.001 5:0.001 6:0.001 7:0.001 8:0.001 9:0.001 10:0.999 11:0.999 12:0.001 13:0.001 14:0.001 15:0.001 16:0.001 17:0.001 18:0.001 19:0.001 20:0.999 21:0.999 22:0.999 23:0.001 24:0.001 25:0.001 26:0.001 27:0.999 28:0.999 29:0.001 30:0.001 31:0.001 32:0.001 33:0.999 34:0.999 35:0.999 36:0.001 37:0.999 38:0.999 39:0.999 40:0.001 41:0.001 42:0.001 43:0.001 44:0.999 45:0.999 46:0.999 47:0.001 48:0.001 49:0.999 50:0.999 51:0.001 52:0.001 53:0.001 54:0.001 55:0.999 56:0.001 57:0.999 58:0.999 59:0.001 60:0.001 61:0.999 62:0.001 63:0.001 64:0.001 65:0.001 66:0.999 67:0.999 68:0.001 69:0.999 70:0.999 71:0.001 72:0.001 73:0.999 74:0.001 75:0.001 76:0.001 77:0.999 78:0.999 79:0.001 80:0.999 81:0.999 82:0.999 83:0.001 84:0.001 85:0.999 86:0.999 87:0.001 88:0.999 89:0.999 90:0.001 91:0.001 92:0.001 93:0.001 94:0.001 95:0.001 96:0.001 97:0.999 98:0.999 99:0.999 100:0.001 101:0.001 102:0.001 103:0.001 104:0.001 105:0.001 106:0.001 107:0.001 108:0.001 109:0.001 110:0.001 111:0.001 112:0.001 113:0.001 114:0.001 115:0.001 116:0.001 117:0.001 118:0.001 119:0.001 120:0.001 
0.3328847619430588 0 0 0.6088317160761018 0.3478413339414866 0.9725695866762581 0 0 0.390990797830725 0.914463619686698 0 0.5644369052861056 0 0 0 0.06482739121137938 0 0.6516450953863339 1:0.001 2:0.001 3:0.001 4:0.001 5:0.001 6:0.001 7:0.001 8:0.001 9:0.001 10:0.999 11:0.999 12:0.001 13:0.001 14:0.001 15:0.001 16:0.001 17:0.001 18:0.001 19:0.001 20:0.001 21:0.999 22:0.999 23:0.999 24:0.001 25:0.001 26:0.001 27:0.999 28:0.999 29:0.001 30:0.001 31:0.001 32:0.001 33:0.999 34:0.999 35:0.999 36:0.001 37:0.001 38:0.999 39:0.999 40:0.999 41:0.001 42:0.001 43:0.001 44:0.001 45:0.999 46:0.999 47:0.999 48:0.001 49:0.001 50:0.999 51:0.999 52:0.001 53:0.001 54:0.001 55:0.001 56:0.999 57:0.001 58:0.999 59:0.999 60:0.001 61:0.001 62:0.999 63:0.001 64:0.001 65:0.001 66:0.001 67:0.999 68:0.999 69:0.001 70:0.999 71:0.999 72:0.001 73:0.001 74:0.999 75:0.001 76:0.001 77:0.001 78:0.999 79:0.999 80:0.001 81:0.999 82:0.999 83:0.999 84:0.001 85:0.001 86:0.999 87:0.999 88:0.001 89:0.999 90:0.999 91:0.001 92:0.001 93:0.001 94:0.001 95:0.001 96:0.001 97:0.001 98:0.999 99:0.999 100:0.999 101:0.001 102:0.001 103:0.001 104:0.001 105:0.001 106:0.001 107:0.001 108:0.001 109:0.001 110:0.001 111:0.001 112:0.001 113:0.001 114:0.001 115:0.001 116:0.001 117:0.999 118:0.001 119:0.001 120:0.001 
1 1 0.5035751251347961 0.5652404537279344 0.8352505822509763 0.3428553985623032 1 1 1 0 1 1 0.7522613036552708 0.7109257980775098 0.5520767181534051 1 0.3153936883035423 1 1:0.001 2:0.001 3:0.001 4:0.001 5:0.001 6:0.001 7:0.001 8:0.001 9:0.999 10:0.999 11:0.001 12:0.001 13:0.001 14:0.001 15:0.001 16:0.001 17:0.001 18:0.001 19:0.001 20:0.999 21:0.999 22:0.999 23:0.001 24:0.001 25:0.001 26:0.999 27:0.999 28:0.001 29:0.001 30:0.001 31:0.001 32:0.999 33:0.999 34:0.999 35:0.001 36:0.001 37:0.001 38:0.999 39:0.999 40:0.999 41:0.001 42:0.001 43:0.001 44:0.001 45:0.999 46:0.999 47:0.999 48:0.001 49:0.001 50:0.999 51:0.999 52:0.001 53:0.001 54:0.001 55:0.001 56:0.999 57:0.001 58:0.999 59:0.999 60:0.001 61:0.001 62:0.999 63:0.001 64:0.001 65:0.001 66:0.001 67:0.999 68:0.999 69:0.001 70:0.999 71:0.999 72:0.001 73:0.001 74:0.999 75:0.001 76:0.001 77:0.001 78:0.999 79:0.999 80:0.001 81:0.999 82:0.999 83:0.999 84:0.001 85:0.001 86:0.001 87:0.999 88:0.999 89:0.001 90:0.999 91:0.999 92:0.001 93:0.001 94:0.001 95:0.001 96:0.001 97:0.001 98:0.999 99:0.999 100:0.999 101:0.001 102:0.001 103:0.001 104:0.001 105:0.001 106:0.001 107:0.001 108:0.001 109:0.001 110:0.001 111:0.001 112:0.001 113:0.001 114:0.001 115:0.001 116:0.001 117:0.001 118:0.001 119:0.001 120:0.001 
0 0 0 1 0.6770838814244156 0.474286005105119 0 0 1 0.8733430740993475 0 0.4292921265669897 0 0.1224933579712094 0 0 0 1 1:0.001 2:0.001 3:0.001 4:0.001 5:0.001 6:0.001 7:0.001 8:0.001 9:0.001 10:0.001 11:0.001 12:0.001 13:0.001 14:0.999 15:0.999 16:0.001 17:0.001 18:0.001 19:0.001 20:0.001 21:0.999 22:0.999 23:0.001 24:0.001 25:0.999 26:0.999 27:0.999 28:0.001 29:0.001 30:0.001 31:0.001 32:0.999 33:0.999 34:0.999 35:0.001 36:0.001 37:0.001 38:0.999 39:0.999 40:0.001 41:0.001 42:0.001 43:0.001 44:0.001 45:0.999 46:0.999 47:0.999 48:0.001 49:0.001 50:0.999 51:0.001 52:0.001 53:0.001 54:0.001 55:0.001 56:0.999 57:0.999 58:0.999 59:0.999 60:0.001 61:0.001 62:0.001 63:0.999 64:0.001 65:0.001 66:0.001 67:0.001 68:0.999 69:0.999 70:0.001 71:0.999 72:0.999 73:0.001 74:0.999 75:0.999 76:0.001 77:0.001 78:0.999 79:0.999 80:0.001 81:0.001 82:0.999 83:0.999 84:0.001 85:0.001 86:0.001 87:0.999 88:0.999 89:0.999 90:0.999 91:0.999 92:0.001 93:0.001 94:0.999 95:0.999 96:0.999 97:0.001 98:0.001 99:0.001 100:0.001 101:0.001 102:0.001 103:0.001 104:0.001 105:0.001 106:0.001 107:0.001 108:0.001 109:0.001 110:0.001 111:0.001 112:0.001 113:0.001 114:0.001 115:0.001 116:0.001 117:0.001 118:0.001 119:0.001 120:0.001 
0 0.08298401687422217 0 0 0 0 1 0 1 0 0.6877383948799327 0 0 0 0.07930901880839941 0.43929434415368 0 0 1:0.001 2:0.001 3:0.001 4:0.001 5:0.001 6:0.001 7:0.001 8:0.001 9:0.001 10:0.001 11:0.001 12:0.001 13:0.001 14:0.999 15:0.999 16:0.001 17:0.001 18:0.001 19:0.001 20:0.001 21:0.999 22:0.999 23:0.001 24:0.001 25:0.999 26:0.999 27:0.999 28:0.001 29:0.001 30:0.001 31:0.001 32:0.999 33:0.999 34:0.999 35:0.001 36:0.001 37:0.001 38:0.999 39:0.999 40:0.001 41:0.001 42:0.001 43:0.001 44:0.001 45:0.999 46:0.999 47:0.999 48:0.001 49:0.001 50:0.999 51:0.001 52:0.001 53:0.001 54:0.001 55:0.001 56:0.999 57:0.999 58:0.999 59:0.999 60:0.001 61:0.001 62:0.001 63:0.999 64:0.001 65:0.001 66:0.001 67:0.001 68:0.999 69:0.999 70:0.001 71:0.001 72:0.999 73:0.001 74:0.999 75:0.999 76:0.001 77:0.001 78:0.999 79:0.999 80:0.001 81:0.001 82:0.999 83:0.999 84:0.001 85:0.001 86:0.999 87:0.999 88:0.999 89:0.999 90:0.999 91:0.001 92:0.001 93:0.999 94:0.999 95:0.999 96:0.001 97:0.001 98:0.001 99:0.001 100:0.001 101:0.001 102:0.001 103:0.001 104:0.001 105:0.001 106:0.001 107:0.001 108:0.001 109:0.001 110:0.001 111:0.001 112:0.001 113:0.001 114:0.001 115:0.001 116:0.001 117:0.001 118:0.001 119:0.001 120:0.001 
0 0 0 0 0 0 0 0 0 0 0 0 0 0 0 0 0 0.2608376942082234 1:0.001 2:0.001 3:0.001 4:0.001 5:0.001 6:0.001 7:0.001 8:0.001 9:0.001 10:0.001 11:0.001 12:0.001 13:0.001 14:0.999 15:0.999 16:0.001 17:0.001 18:0.001 19:0.001 20:0.001 21:0.999 22:0.999 23:0.001 24:0.001 25:0.999 26:0.999 27:0.999 28:0.001 29:0.001 30:0.001 31:0.001 32:0.999 33:0.999 34:0.999 35:0.001 36:0.001 37:0.001 38:0.999 39:0.999 40:0.001 41:0.001 42:0.001 43:0.001 44:0.001 45:0.999 46:0.999 47:0.999 48:0.001 49:0.001 50:0.999 51:0.001 52:0.001 53:0.001 54:0.001 55:0.001 56:0.999 57:0.999 58:0.999 59:0.999 60:0.001 61:0.001 62:0.999 63:0.001 64:0.001 65:0.001 66:0.001 67:0.999 68:0.999 69:0.001 70:0.999 71:0.999 72:0.001 73:0.001 74:0.999 75:0.999 76:0.001 77:0.001 78:0.999 79:0.999 80:0.001 81:0.001 82:0.999 83:0.999 84:0.001 85:0.001 86:0.001 87:0.999 88:0.999 89:0.999 90:0.999 91:0.999 92:0.001 93:0.001 94:0.999 95:0.999 96:0.999 97:0.001 98:0.001 99:0.001 100:0.001 101:0.001 102:0.001 103:0.001 104:0.001 105:0.001 106:0.001 107:0.001 108:0.001 109:0.001 110:0.001 111:0.001 112:0.001 113:0.001 114:0.001 115:0.001 116:0.001 117:0.001 118:0.001 119:0.001 120:0.001 
1 0.830767026251293 0.5454848781689143 0.5638647576036437 0 0.4873595506110392 1 0.6621230233976882 1 0.695955397673969 0.549750658911188 1 0.5444844156229481 0.8205495337720908 0.7423389697984339 1 0.493975723770648 1 1:0.001 2:0.001 3:0.001 4:0.001 5:0.001 6:0.001 7:0.001 8:0.999 9:0.999 10:0.001 11:0.001 12:0.001 13:0.001 14:0.001 15:0.001 16:0.001 17:0.001 18:0.001 19:0.999 20:0.999 21:0.999 22:0.001 23:0.001 24:0.001 25:0.999 26:0.999 27:0.001 28:0.001 29:0.001 30:0.001 31:0.999 32:0.999 33:0.999 34:0.001 35:0.001 36:0.001 37:0.999 38:0.999 39:0.999 40:0.001 41:0.001 42:0.001 43:0.001 44:0.999 45:0.999 46:0.999 47:0.001 48:0.001 49:0.999 50:0.999 51:0.001 52:0.001 53:0.001 54:0.001 55:0.999 56:0.001 57:0.999 58:0.999 59:0.001 60:0.001 61:0.001 62:0.999 63:0.001 64:0.001 65:0.001 66:0.001 67:0.999 68:0.999 69:0.001 70:0.999 71:0.999 72:0.001 73:0.999 74:0.001 75:0.001 76:0.001 77:0.999 78:0.999 79:0.001 80:0.999 81:0.999 82:0.999 83:0.001 84:0.001 85:0.999 86:0.999 87:0.001 88:0.999 89:0.999 90:0.001 91:0.001 92:0.001 93:0.001 94:0.001 95:0.001 96:0.001 97:0.001 98:0.999 99:0.999 100:0.999 101:0.001 102:0.001 103:0.001 104:0.001 105:0.001 106:0.001 107:0.001 108:0.001 109:0.001 110:0.001 111:0.001 112:0.001 113:0.001 114:0.001 115:0.001 116:0.001 117:0.001 118:0.001 119:0.001 120:0.001 
0.9219945954818776 0.3103365829376399 0.8992634003364753 1 1 1 0.5206679815219128 1 1 0.7877911974786782 0.5939409352011683 0.9824305795999455 0.519765691398399 1 0.5808117657061973 0.4494943292733052 0.386273489893475 1 1:0.001 2:0.001 3:0.001 4:0.001 5:0.001 6:0.001 7:0.001 8:0.001 9:0.001 10:0.001 11:0.001 12:0.001 13:0.001 14:0.999 15:0.999 16:0.001 17:0.001 18:0.001 19:0.001 20:0.001 21:0.999 22:0.999 23:0.001 24:0.001 25:0.999 26:0.999 27:0.999 28:0.001 29:0.001 30:0.001 31:0.001 32:0.999 33:0.999 34:0.999 35:0.001 36:0.001 37:0.001 38:0.999 39:0.999 40:0.001 41:0.001 42:0.001 43:0.001 44:0.001 45:0.999 46:0.999 47:0.999 48:0.001 49:0.001 50:0.999 51:0.001 52:0.001 53:0.001 54:0.001 55:0.001 56:0.999 57:0.999 58:0.999 59:0.999 60:0.001 61:0.001 62:0.001 63:0.999 64:0.001 65:0.001 66:0.001 67:0.001 68:0.999 69:0.999 70:0.001 71:0.999 72:0.999 73:0.001 74:0.999 75:0.999 76:0.001 77:0.001 78:0.999 79:0.999 80:0.001 81:0.001 82:0.999 83:0.999 84:0.001 85:0.001 86:0.001 87:0.999 88:0.999 89:0.999 90:0.999 91:0.999 92:0.001 93:0.001 94:0.999 95:0.999 96:0.999 97:0.001 98:0.001 99:0.001 100:0.001 101:0.001 102:0.001 103:0.001 104:0.001 105:0.001 106:0.001 107:0.001 108:0.001 109:0.001 110:0.001 111:0.001 112:0.001 113:0.001 114:0.001 115:0.001 116:0.001 117:0.001 118:0.001 119:0.001 120:0.001 
0.8940751915362508 0.2872803302231683 0.2622850142151686 0.6705446686977107 0.1503248295205537 0.2473439940415487 1 0.6252920718023043 0.9880632551423815 1 1 1 0.8336318520310474 0.5716016140594691 0.323335320061593 1 0.6537957568574074 0.535850163036581 1:0.001 2:0.001 3:0.001 4:0.001 5:0.001 6:0.001 7:0.001 8:0.999 9:0.999 10:0.001 11:0.001 12:0.001 13:0.001 14:0.001 15:0.001 16:0.001 17:0.001 18:0.001 19:0.999 20:0.999 21:0.999 22:0.001 23:0.001 24:0.001 25:0.001 26:0.999 27:0.999 28:0.001 29:0.001 30:0.001 31:0.001 32:0.999 33:0.999 34:0.999 35:0.001 36:0.001 37:0.999 38:0.999 39:0.999 40:0.001 41:0.001 42:0.001 43:0.001 44:0.999 45:0.999 46:0.999 47:0.001 48:0.001 49:0.001 50:0.999 51:0.999 52:0.001 53:0.001 54:0.001 55:0.001 56:0.999 57:0.001 58:0.999 59:0.999 60:0.001 61:0.001 62:0.999 63:0.001 64:0.001 65:0.001 66:0.001 67:0.999 68:0.999 69:0.001 70:0.999 71:0.999 72:0.001 73:0.001 74:0.001 75:0.999 76:0.001 77:0.001 78:0.001 79:0.999 80:0.999 81:0.001 82:0.999 83:0.999 84:0.999 85:0.001 86:0.999 87:0.999 88:0.001 89:0.999 90:0.999 91:0.001 92:0.001 93:0.001 94:0.001 95:0.001 96:0.001 97:0.001 98:0.999 99:0.999 100:0.999 101:0.001 102:0.001 103:0.001 104:0.001 105:0.001 106:0.001 107:0.001 108:0.001 109:0.001 110:0.001 111:0.001 112:0.001 113:0.001 114:0.001 115:0.001 116:0.001 117:0.001 118:0.001 119:0.001 120:0.001 
0 0 0 0 0 0 0 0 0 0 0 0 0 0 0 0 0 1 1:0.001 2:0.001 3:0.001 4:0.001 5:0.001 6:0.001 7:0.001 8:0.001 9:0.001 10:0.001 11:0.001 12:0.001 13:0.001 14:0.999 15:0.999 16:0.001 17:0.001 18:0.001 19:0.001 20:0.001 21:0.999 22:0.999 23:0.001 24:0.001 25:0.999 26:0.999 27:0.999 28:0.001 29:0.001 30:0.001 31:0.001 32:0.999 33:0.999 34:0.999 35:0.001 36:0.001 37:0.001 38:0.999 39:0.999 40:0.001 41:0.001 42:0.001 43:0.001 44:0.001 45:0.999 46:0.999 47:0.999 48:0.001 49:0.001 50:0.999 51:0.001 52:0.001 53:0.001 54:0.001 55:0.001 56:0.999 57:0.999 58:0.999 59:0.999 60:0.001 61:0.001 62:0.999 63:0.001 64:0.001 65:0.001 66:0.001 67:0.999 68:0.999 69:0.001 70:0.999 71:0.999 72:0.001 73:0.001 74:0.999 75:0.999 76:0.001 77:0.001 78:0.999 79:0.999 80:0.001 81:0.001 82:0.999 83:0.999 84:0.001 85:0.001 86:0.001 87:0.999 88:0.999 89:0.999 90:0.999 91:0.999 92:0.001 93:0.001 94:0.999 95:0.999 96:0.999 97:0.001 98:0.001 99:0.001 100:0.001 101:0.001 102:0.001 103:0.001 104:0.001 105:0.001 106:0.001 107:0.001 108:0.001 109:0.001 110:0.001 111:0.001 112:0.001 113:0.001 114:0.001 115:0.001 116:0.001 117:0.001 118:0.001 119:0.001 120:0.001 
0 0 0.1807696637556117 0 0 0 0 0 0 0 0 0.7795911715491408 0 0 0 0 0 0 1:0.001 2:0.001 3:0.001 4:0.001 5:0.001 6:0.001 7:0.001 8:0.999 9:0.999 10:0.001 11:0.001 12:0.001 13:0.001 14:0.001 15:0.001 16:0.001 17:0.001 18:0.001 19:0.999 20:0.999 21:0.999 22:0.001 23:0.001 24:0.001 25:0.001 26:0.999 27:0.999 28:0.001 29:0.001 30:0.001 31:0.001 32:0.999 33:0.999 34:0.999 35:0.001 36:0.001 37:0.999 38:0.999 39:0.999 40:0.001 41:0.001 42:0.001 43:0.001 44:0.999 45:0.999 46:0.999 47:0.001 48:0.001 49:0.001 50:0.999 51:0.999 52:0.001 53:0.001 54:0.001 55:0.001 56:0.999 57:0.001 58:0.999 59:0.999 60:0.001 61:0.001 62:0.999 63:0.001 64:0.001 65:0.001 66:0.001 67:0.999 68:0.999 69:0.001 70:0.999 71:0.999 72:0.001 73:0.001 74:0.999 75:0.001 76:0.001 77:0.001 78:0.999 79:0.999 80:0.001 81:0.999 82:0.999 83:0.999 84:0.001 85:0.001 86:0.999 87:0.999 88:0.001 89:0.999 90:0.999 91:0.001 92:0.001 93:0.001 94:0.001 95:0.001 96:0.001 97:0.001 98:0.999 99:0.999 100:0.999 101:0.001 102:0.001 103:0.001 104:0.001 105:0.001 106:0.001 107:0.001 108:0.001 109:0.001 110:0.001 111:0.001 112:0.001 113:0.001 114:0.001 115:0.001 116:0.001 117:0.001 118:0.999 119:0.999 120:0.001 
0 0 0 0 0 0 0 0 0 0 0 0 0 0 0.3036093990286419 0 0 0.3832941201188341 1:0.001 2:0.001 3:0.001 4:0.001 5:0.001 6:0.001 7:0.001 8:0.001 9:0.001 10:0.001 11:0.001 12:0.001 13:0.999 14:0.999 15:0.001 16:0.001 17:0.001 18:0.001 19:0.001 20:0.999 21:0.999 22:0.001 23:0.001 24:0.001 25:0.999 26:0.999 27:0.999 28:0.001 29:0.001 30:0.001 31:0.001 32:0.999 33:0.999 34:0.999 35:0.001 36:0.001 37:0.999 38:0.999 39:0.001 40:0.001 41:0.001 42:0.001 43:0.001 44:0.999 45:0.999 46:0.999 47:0.001 48:0.001 49:0.001 50:0.999 51:0.001 52:0.001 53:0.001 54:0.001 55:0.001 56:0.999 57:0.999 58:0.999 59:0.999 60:0.001 61:0.001 62:0.999 63:0.001 64:0.001 65:0.001 66:0.001 67:0.999 68:0.999 69:0.001 70:0.999 71:0.999 72:0.001 73:0.001 74:0.999 75:0.999 76:0.001 77:0.001 78:0.999 79:0.999 80:0.001 81:0.001 82:0.999 83:0.999 84:0.001 85:0.001 86:0.999 87:0.999 88:0.999 89:0.999 90:0.999 91:0.001 92:0.001 93:0.999 94:0.999 95:0.999 96:0.001 97:0.001 98:0.001 99:0.001 100:0.001 101:0.001 102:0.001 103:0.001 104:0.001 105:0.001 106:0.001 107:0.001 108:0.001 109:0.001 110:0.001 111:0.001 112:0.001 113:0.001 114:0.001 115:0.001 116:0.001 117:0.001 118:0.001 119:0.001 120:0.001 
1 1 1 0.7739837881253546 1 0.6248000773721326 1 1 1 0.5800631382305342 1 1 1 1 1 1 0.9669476160332018 1 1:0.001 2:0.001 3:0.001 4:0.001 5:0.001 6:0.001 7:0.001 8:0.999 9:0.999 10:0.001 11:0.001 12:0.001 13:0.001 14:0.001 15:0.001 16:0.001 17:0.001 18:0.001 19:0.999 20:0.999 21:0.999 22:0.001 23:0.001 24:0.001 25:0.999 26:0.999 27:0.001 28:0.001 29:0.001 30:0.001 31:0.999 32:0.999 33:0.999 34:0.001 35:0.001 36:0.001 37:0.999 38:0.999 39:0.999 40:0.001 41:0.001 42:0.001 43:0.001 44:0.999 45:0.999 46:0.999 47:0.001 48:0.001 49:0.999 50:0.999 51:0.001 52:0.001 53:0.001 54:0.001 55:0.999 56:0.001 57:0.999 58:0.999 59:0.001 60:0.001 61:0.999 62:0.001 63:0.001 64:0.001 65:0.001 66:0.999 67:0.999 68:0.001 69:0.999 70:0.999 71:0.001 72:0.001 73:0.999 74:0.001 75:0.001 76:0.001 77:0.999 78:0.999 79:0.001 80:0.999 81:0.999 82:0.999 83:0.001 84:0.001 85:0.001 86:0.999 87:0.999 88:0.001 89:0.999 90:0.999 91:0.001 92:0.001 93:0.001 94:0.001 95:0.001 96:0.001 97:0.999 98:0.999 99:0.999 100:0.001 101:0.001 102:0.001 103:0.001 104:0.001 105:0.001 106:0.001 107:0.001 108:0.001 109:0.001 110:0.001 111:0.001 112:0.001 113:0.001 114:0.001 115:0.001 116:0.001 117:0.001 118:0.001 119:0.001 120:0.001 
0.3786424205054584 0 0 0 0 0 0 0 0 0.04177498141191393 0 0 0 0 0.850367425207143 0 0 0 1:0.001 2:0.001 3:0.001 4:0.001 5:0.001 6:0.001 7:0.001 8:0.001 9:0.001 10:0.001 11:0.001 12:0.001 13:0.999 14:0.999 15:0.001 16:0.001 17:0.001 18:0.001 19:0.001 20:0.999 21:0.999 22:0.001 23:0.001 24:0.001 25:0.999 26:0.999 27:0.999 28:0.001 29:0.001 30:0.001 31:0.001 32:0.999 33:0.999 34:0.999 35:0.001 36:0.001 37:0.999 38:0.999 39:0.001 40:0.001 41:0.001 42:0.001 43:0.001 44:0.999 45:0.999 46:0.999 47:0.001 48:0.001 49:0.999 50:0.001 51:0.001 52:0.001 53:0.001 54:0.001 55:0.999 56:0.999 57:0.999 58:0.999 59:0.001 60:0.001 61:0.001 62:0.999 63:0.001 64:0.001 65:0.001 66:0.001 67:0.999 68:0.999 69:0.001 70:0.999 71:0.999 72:0.001 73:0.001 74:0.999 75:0.999 76:0.001 77:0.001 78:0.999 79:0.999 80:0.001 81:0.001 82:0.999 83:0.999 84:0.001 85:0.001 86:0.999 87:0.999 88:0.999 89:0.999 90:0.999 91:0.001 92:0.001 93:0.999 94:0.999 95:0.999 96:0.001 97:0.001 98:0.001 99:0.001 100:0.001 101:0.001 102:0.001 103:0.001 104:0.001 105:0.001 106:0.001 107:0.001 108:0.001 109:0.001 110:0.001 111:0.001 112:0.001 113:0.001 114:0.001 115:0.001 116:0.001 117:0.001 118:0.001 119:0.001 120:0.001 
0 0 0 0 0 0 0 0 0 0 0 0 0 0 0 0 0 0.1464800838448074 1:0.001 2:0.001 3:0.001 4:0.001 5:0.001 6:0.001 7:0.001 8:0.001 9:0.001 10:0.001 11:0.001 12:0.001 13:0.001 14:0.001 15:0.999 16:0.999 17:0.001 18:0.001 19:0.001 20:0.001 21:0.001 22:0.999 23:0.999 24:0.001 25:0.001 26:0.999 27:0.999 28:0.999 29:0.001 30:0.001 31:0.001 32:0.001 33:0.999 34:0.999 35:0.999 36:0.001 37:0.001 38:0.999 39:0.999 40:0.001 41:0.001 42:0.001 43:0.001 44:0.001 45:0.999 46:0.999 47:0.999 48:0.001 49:0.001 50:0.999 51:0.001 52:0.001 53:0.001 54:0.001 55:0.001 56:0.999 57:0.999 58:0.999 59:0.999 60:0.001 61:0.999 62:0.001 63:0.001 64:0.001 65:0.001 66:0.999 67:0.999 68:0.001 69:0.999 70:0.999 71:0.001 72:0.001 73:0.999 74:0.999 75:0.001 76:0.001 77:0.999 78:0.999 79:0.001 80:0.001 81:0.999 82:0.999 83:0.001 84:0.001 85:0.999 86:0.999 87:0.999 88:0.999 89:0.999 90:0.001 91:0.001 92:0.999 93:0.999 94:0.999 95:0.001 96:0.001 97:0.001 98:0.001 99:0.001 100:0.001 101:0.001 102:0.001 103:0.001 104:0.001 105:0.001 106:0.001 107:0.001 108:0.001 109:0.001 110:0.001 111:0.001 112:0.001 113:0.001 114:0.001 115:0.001 116:0.001 117:0.001 118:0.001 119:0.001 120:0.001 
0 0 0 0 0 0 0 0 0 0 0 0 0 0 0 0 0 0.9911045175907787 1:0.001 2:0.001 3:0.001 4:0.001 5:0.001 6:0.001 7:0.001 8:0.001 9:0.001 10:0.001 11:0.001 12:0.001 13:0.001 14:0.999 15:0.999 16:0.001 17:0.001 18:0.001 19:0.001 20:0.001 21:0.999 22:0.999 23:0.001 24:0.001 25:0.999 26:0.999 27:0.999 28:0.001 29:0.001 30:0.001 31:0.001 32:0.999 33:0.999 34:0.999 35:0.001 36:0.001 37:0.001 38:0.999 39:0.999 40:0.001 41:0.001 42:0.001 43:0.001 44:0.001 45:0.999 46:0.999 47:0.999 48:0.001 49:0.001 50:0.999 51:0.001 52:0.001 53:0.001 54:0.001 55:0.001 56:0.999 57:0.999 58:0.999 59:0.999 60:0.001 61:0.001 62:0.999 63:0.001 64:0.001 65:0.001 66:0.001 67:0.999 68:0.999 69:0.001 70:0.999 71:0.999 72:0.001 73:0.001 74:0.999 75:0.999 76:0.001 77:0.001 78:0.999 79:0.999 80:0.001 81:0.001 82:0.999 83:0.999 84:0.001 85:0.001 86:0.001 87:0.999 88:0.999 89:0.999 90:0.999 91:0.999 92:0.001 93:0.001 94:0.999 95:0.999 96:0.999 97:0.001 98:0.001 99:0.001 100:0.001 101:0.001 102:0.001 103:0.001 104:0.001 105:0.001 106:0.001 107:0.001 108:0.001 109:0.001 110:0.001 111:0.001 112:0.001 113:0.001 114:0.001 115:0.001 116:0.001 117:0.001 118:0.001 119:0.001 120:0.001 
0 0 0 0 0 0 0 0 0 0 0 0 0 0 0 0 0 0.0295249997555699 1:0.001 2:0.001 3:0.001 4:0.001 5:0.001 6:0.001 7:0.001 8:0.001 9:0.001 10:0.001 11:0.001 12:0.001 13:0.001 14:0.999 15:0.999 16:0.001 17:0.001 18:0.001 19:0.001 20:0.001 21:0.999 22:0.999 23:0.001 24:0.001 25:0.999 26:0.999 27:0.999 28:0.001 29:0.001 30:0.001 31:0.001 32:0.999 33:0.999 34:0.999 35:0.001 36:0.001 37:0.001 38:0.999 39:0.999 40:0.001 41:0.001 42:0.001 43:0.001 44:0.001 45:0.999 46:0.999 47:0.999 48:0.001 49:0.001 50:0.999 51:0.001 52:0.001 53:0.001 54:0.001 55:0.001 56:0.999 57:0.999 58:0.999 59:0.999 60:0.001 61:0.001 62:0.001 63:0.999 64:0.001 65:0.001 66:0.001 67:0.001 68:0.999 69:0.999 70:0.001 71:0.999 72:0.999 73:0.001 74:0.999 75:0.999 76:0.001 77:0.001 78:0.999 79:0.999 80:0.001 81:0.001 82:0.999 83:0.999 84:0.001 85:0.001 86:0.999 87:0.999 88:0.999 89:0.999 90:0.999 91:0.001 92:0.001 93:0.999 94:0.999 95:0.999 96:0.001 97:0.001 98:0.001 99:0.001 100:0.001 101:0.001 102:0.001 103:0.001 104:0.001 105:0.001 106:0.001 107:0.001 108:0.001 109:0.001 110:0.001 111:0.001 112:0.001 113:0.001 114:0.001 115:0.001 116:0.001 117:0.001 118:0.001 119:0.001 120:0.001 
0 0 0 0 0 0 0 0 0 0 0 0 0 0 0 0 0 0.6591543338411431 1:0.001 2:0.001 3:0.001 4:0.001 5:0.001 6:0.001 7:0.001 8:0.001 9:0.001 10:0.001 11:0.001 12:0.001 13:0.001 14:0.999 15:0.999 16:0.001 17:0.001 18:0.001 19:0.001 20:0.001 21:0.999 22:0.999 23:0.001 24:0.001 25:0.999 26:0.999 27:0.999 28:0.001 29:0.001 30:0.001 31:0.001 32:0.999 33:0.999 34:0.999 35:0.001 36:0.001 37:0.999 38:0.999 39:0.001 40:0.001 41:0.001 42:0.001 43:0.001 44:0.999 45:0.999 46:0.999 47:0.001 48:0.001 49:0.001 50:0.999 51:0.001 52:0.001 53:0.001 54:0.001 55:0.001 56:0.999 57:0.999 58:0.999 59:0.999 60:0.001 61:0.999 62:0.001 63:0.001 64:0.001 65:0.001 66:0.999 67:0.999 68:0.001 69:0.999 70:0.999 71:0.001 72:0.001 73:0.999 74:0.999 75:0.001 76:0.001 77:0.999 78:0.999 79:0.001 80:0.001 81:0.999 82:0.999 83:0.001 84:0.001 85:0.999 86:0.999 87:0.999 88:0.999 89:0.999 90:0.001 91:0.001 92:0.999 93:0.999 94:0.999 95:0.001 96:0.001 97:0.001 98:0.001 99:0.001 100:0.001 101:0.001 102:0.001 103:0.001 104:0.001 105:0.001 106:0.001 107:0.001 108:0.001 109:0.001 110:0.001 111:0.001 112:0.001 113:0.001 114:0.001 115:0.001 116:0.001 117:0.001 118:0.001 119:0.001 120:0.001 
0 0 0 0.1776860450336511 0.5361762933957998 0 0 0.7932079333025626 0.617866364501012 0.9345548311781068 0 0 0 0 1 0.8344291760759627 0.6667567045825148 1 1:0.001 2:0.001 3:0.001 4:0.001 5:0.001 6:0.001 7:0.001 8:0.001 9:0.001 10:0.001 11:0.001 12:0.001 13:0.001 14:0.999 15:0.999 16:0.001 17:0.001 18:0.001 19:0.001 20:0.001 21:0.999 22:0.999 23:0.001 24:0.001 25:0.001 26:0.999 27:0.999 28:0.999 29:0.001 30:0.001 31:0.001 32:0.001 33:0.999 34:0.999 35:0.999 36:0.001 37:0.999 38:0.999 39:0.001 40:0.001 41:0.001 42:0.001 43:0.001 44:0.999 45:0.999 46:0.999 47:0.001 48:0.001 49:0.999 50:0.001 51:0.001 52:0.001 53:0.001 54:0.001 55:0.999 56:0.999 57:0.999 58:0.999 59:0.001 60:0.001 61:0.999 62:0.001 63:0.001 64:0.001 65:0.001 66:0.999 67:0.999 68:0.001 69:0.999 70:0.999 71:0.001 72:0.001 73:0.999 74:0.999 75:0.001 76:0.001 77:0.999 78:0.999 79:0.001 80:0.001 81:0.999 82:0.999 83:0.001 84:0.001 85:0.999 86:0.999 87:0.999 88:0.999 89:0.001 90:0.001 91:0.001 92:0.999 93:0.999 94:0.999 95:0.001 96:0.001 97:0.001 98:0.001 99:0.001 100:0.001 101:0.001 102:0.001 103:0.001 104:0.001 105:0.001 106:0.001 107:0.001 108:0.001 109:0.001 110:0.001 111:0.001 112:0.001 113:0.001 114:0.001 115:0.001 116:0.001 117:0.001 118:0.001 119:0.001 120:0.001 
0 0 0 0 0 0 0 0 0 0.1357834049509551 0 0.414385422631221 0 0 0 0 0 0 1:0.001 2:0.001 3:0.001 4:0.001 5:0.001 6:0.001 7:0.001 8:0.001 9:0.001 10:0.001 11:0.001 12:0.001 13:0.001 14:0.001 15:0.999 16:0.999 17:0.001 18:0.001 19:0.001 20:0.001 21:0.001 22:0.999 23:0.999 24:0.001 25:0.001 26:0.999 27:0.999 28:0.999 29:0.001 30:0.001 31:0.001 32:0.001 33:0.999 34:0.999 35:0.999 36:0.001 37:0.999 38:0.999 39:0.001 40:0.001 41:0.001 42:0.001 43:0.001 44:0.999 45:0.999 46:0.999 47:0.001 48:0.001 49:0.999 50:0.001 51:0.001 52:0.001 53:0.001 54:0.001 55:0.999 56:0.999 57:0.999 58:0.999 59:0.001 60:0.001 61:0.001 62:0.999 63:0.001 64:0.001 65:0.001 66:0.001 67:0.999 68:0.999 69:0.001 70:0.999 71:0.999 72:0.001 73:0.999 74:0.999 75:0.001 76:0.001 77:0.999 78:0.999 79:0.001 80:0.001 81:0.999 82:0.999 83:0.001 84:0.001 85:0.999 86:0.999 87:0.999 88:0.999 89:0.999 90:0.001 91:0.001 92:0.999 93:0.999 94:0.999 95:0.001 96:0.001 97:0.001 98:0.001 99:0.001 100:0.001 101:0.001 102:0.001 103:0.001 104:0.001 105:0.001 106:0.001 107:0.001 108:0.001 109:0.001 110:0.001 111:0.001 112:0.001 113:0.001 114:0.001 115:0.001 116:0.001 117:0.001 118:0.001 119:0.001 120:0.001 
1 0 0.06237980090564613 0 0.3787463979512491 0.1146956584841303 0 0.1388287306222234 0.4486496318642055 0 0 0 0.01360342070654044 0.02073673813026093 0.1630528473835837 0 0 1 1:0.001 2:0.001 3:0.001 4:0.001 5:0.001 6:0.001 7:0.001 8:0.001 9:0.001 10:0.001 11:0.001 12:0.001 13:0.999 14:0.999 15:0.001 16:0.001 17:0.001 18:0.001 19:0.001 20:0.999 21:0.999 22:0.001 23:0.001 24:0.001 25:0.999 26:0.999 27:0.999 28:0.001 29:0.001 30:0.001 31:0.001 32:0.999 33:0.999 34:0.999 35:0.001 36:0.001 37:0.999 38:0.999 39:0.001 40:0.001 41:0.001 42:0.001 43:0.001 44:0.999 45:0.999 46:0.999 47:0.001 48:0.001 49:0.999 50:0.001 51:0.001 52:0.001 53:0.001 54:0.001 55:0.999 56:0.999 57:0.999 58:0.999 59:0.001 60:0.001 61:0.999 62:0.001 63:0.001 64:0.001 65:0.001 66:0.999 67:0.999 68:0.001 69:0.999 70:0.999 71:0.001 72:0.001 73:0.999 74:0.999 75:0.001 76:0.001 77:0.999 78:0.999 79:0.001 80:0.001 81:0.999 82:0.999 83:0.001 84:0.001 85:0.001 86:0.999 87:0.999 88:0.999 89:0.999 90:0.999 91:0.001 92:0.001 93:0.999 94:0.999 95:0.999 96:0.001 97:0.001 98:0.001 99:0.001 100:0.001 101:0.001 102:0.001 103:0.001 104:0.001 105:0.001 106:0.001 107:0.001 108:0.001 109:0.001 110:0.001 111:0.001 112:0.001 113:0.001 114:0.001 115:0.001 116:0.001 117:0.001 118:0.001 119:0.001 120:0.001 
0 0 0.5081727110324354 1 0 0 0.03068441556092676 0 0 0 0.6349622692826119 0 0 0.5588112572953147 0 0 0 0 1:0.001 2:0.001 3:0.001 4:0.001 5:0.001 6:0.001 7:0.001 8:0.001 9:0.999 10:0.999 11:0.001 12:0.001 13:0.001 14:0.999 15:0.999 16:0.001 17:0.001 18:0.001 19:0.001 20:0.001 21:0.999 22:0.999 23:0.001 24:0.001 25:0.001 26:0.999 27:0.999 28:0.999 29:0.001 30:0.001 31:0.001 32:0.001 33:0.999 34:0.999 35:0.999 36:0.001 37:0.999 38:0.999 39:0.001 40:0.001 41:0.001 42:0.001 43:0.001 44:0.999 45:0.999 46:0.999 47:0.001 48:0.001 49:0.999 50:0.001 51:0.001 52:0.001 53:0.001 54:0.001 55:0.999 56:0.999 57:0.999 58:0.999 59:0.001 60:0.001 61:0.999 62:0.001 63:0.001 64:0.001 65:0.001 66:0.999 67:0.999 68:0.001 69:0.999 70:0.999 71:0.001 72:0.001 73:0.999 74:0.999 75:0.001 76:0.001 77:0.999 78:0.999 79:0.001 80:0.001 81:0.999 82:0.999 83:0.001 84:0.001 85:0.999 86:0.999 87:0.999 88:0.999 89:0.999 90:0.001 91:0.001 92:0.999 93:0.999 94:0.999 95:0.001 96:0.001 97:0.001 98:0.001 99:0.001 100:0.001 101:0.001 102:0.001 103:0.001 104:0.001 105:0.001 106:0.001 107:0.001 108:0.001 109:0.001 110:0.001 111:0.001 112:0.001 113:0.001 114:0.001 115:0.001 116:0.001 117:0.001 118:0.001 119:0.001 120:0.001 
0.3534056771455362 0 0 0.04147415959878717 0.3248890668465289 0 0 0 0 0 0 0 0 0 0 0 0 0.2733436952047074 1:0.001 2:0.001 3:0.001 4:0.001 5:0.001 6:0.001 7:0.001 8:0.001 9:0.001 10:0.001 11:0.001 12:0.001 13:0.001 14:0.001 15:0.999 16:0.999 17:0.001 18:0.001 19:0.001 20:0.001 21:0.001 22:0.999 23:0.999 24:0.001 25:0.001 26:0.999 27:0.999 28:0.999 29:0.001 30:0.001 31:0.001 32:0.001 33:0.999 34:0.999 35:0.999 36:0.001 37:0.001 38:0.001 39:0.999 40:0.999 41:0.001 42:0.001 43:0.001 44:0.001 45:0.001 46:0.999 47:0.999 48:0.999 49:0.001 50:0.999 51:0.001 52:0.001 53:0.001 54:0.001 55:0.001 56:0.999 57:0.999 58:0.999 59:0.999 60:0.001 61:0.001 62:0.999 63:0.001 64:0.001 65:0.001 66:0.001 67:0.999 68:0.999 69:0.001 70:0.999 71:0.999 72:0.001 73:0.999 74:0.999 75:0.001 76:0.001 77:0.999 78:0.999 79:0.001 80:0.001 81:0.999 82:0.999 83:0.001 84:0.001 85:0.999 86:0.999 87:0.999 88:0.999 89:0.999 90:0.001 91:0.001 92:0.999 93:0.999 94:0.999 95:0.001 96:0.001 97:0.001 98:0.001 99:0.001 100:0.001 101:0.001 102:0.001 103:0.001 104:0.001 105:0.001 106:0.001 107:0.001 108:0.001 109:0.001 110:0.001 111:0.001 112:0.001 113:0.001 114:0.001 115:0.001 116:0.001 117:0.001 118:0.001 119:0.001 120:0.001 
0 0.1140582622142367 0 0 0 0 0 0 0 0 0 0 0 0 0 0 0 0 1:0.001 2:0.001 3:0.001 4:0.001 5:0.001 6:0.001 7:0.001 8:0.001 9:0.001 10:0.001 11:0.001 12:0.001 13:0.001 14:0.999 15:0.999 16:0.001 17:0.001 18:0.001 19:0.001 20:0.001 21:0.999 22:0.999 23:0.001 24:0.001 25:0.999 26:0.999 27:0.999 28:0.001 29:0.001 30:0.001 31:0.001 32:0.999 33:0.999 34:0.999 35:0.001 36:0.001 37:0.999 38:0.999 39:0.001 40:0.001 41:0.001 42:0.001 43:0.001 44:0.999 45:0.999 46:0.999 47:0.001 48:0.001 49:0.999 50:0.001 51:0.001 52:0.001 53:0.001 54:0.001 55:0.999 56:0.999 57:0.999 58:0.999 59:0.001 60:0.001 61:0.999 62:0.001 63:0.001 64:0.001 65:0.001 66:0.999 67:0.999 68:0.001 69:0.999 70:0.999 71:0.001 72:0.001 73:0.001 74:0.999 75:0.999 76:0.001 77:0.001 78:0.999 79:0.999 80:0.001 81:0.001 82:0.999 83:0.999 84:0.001 85:0.001 86:0.001 87:0.999 88:0.999 89:0.999 90:0.999 91:0.001 92:0.001 93:0.999 94:0.999 95:0.999 96:0.001 97:0.001 98:0.001 99:0.001 100:0.001 101:0.001 102:0.001 103:0.001 104:0.001 105:0.001 106:0.001 107:0.001 108:0.001 109:0.001 110:0.001 111:0.001 112:0.001 113:0.001 114:0.001 115:0.001 116:0.001 117:0.001 118:0.001 119:0.001 120:0.001 
0 1 0 0.9264034795108986 0 0.6559491396036059 0 0.2540305525337915 0 0 0 0.5034258195446928 0.7556425216167862 0.1783590648700403 0 0 0.0195804902644805 0 1:0.001 2:0.001 3:0.001 4:0.001 5:0.001 6:0.001 7:0.001 8:0.001 9:0.001 10:0.001 11:0.001 12:0.001 13:0.001 14:0.999 15:0.999 16:0.001 17:0.001 18:0.001 19:0.001 20:0.001 21:0.999 22:0.999 23:0.001 24:0.001 25:0.999 26:0.999 27:0.999 28:0.001 29:0.001 30:0.001 31:0.001 32:0.999 33:0.999 34:0.999 35:0.001 36:0.001 37:0.999 38:0.999 39:0.001 40:0.001 41:0.001 42:0.001 43:0.001 44:0.999 45:0.999 46:0.999 47:0.001 48:0.001 49:0.999 50:0.001 51:0.001 52:0.001 53:0.001 54:0.001 55:0.999 56:0.999 57:0.999 58:0.999 59:0.001 60:0.001 61:0.999 62:0.001 63:0.001 64:0.001 65:0.001 66:0.999 67:0.999 68:0.001 69:0.999 70:0.999 71:0.001 72:0.001 73:0.001 74:0.999 75:0.999 76:0.001 77:0.001 78:0.999 79:0.999 80:0.001 81:0.001 82:0.999 83:0.999 84:0.001 85:0.001 86:0.001 87:0.999 88:0.999 89:0.999 90:0.999 91:0.001 92:0.001 93:0.999 94:0.999 95:0.999 96:0.001 97:0.001 98:0.001 99:0.001 100:0.001 101:0.001 102:0.001 103:0.001 104:0.001 105:0.001 106:0.001 107:0.001 108:0.001 109:0.001 110:0.001 111:0.001 112:0.001 113:0.001 114:0.001 115:0.001 116:0.001 117:0.001 118:0.001 119:0.001 120:0.001 
0.6897718611217065 0 0 0 0.1773084049176951 0 0 0 1 0 0 0 0 0.1663478357707218 0.2832962340230671 0 0 1 1:0.001 2:0.001 3:0.001 4:0.001 5:0.001 6:0.001 7:0.001 8:0.001 9:0.001 10:0.001 11:0.001 12:0.001 13:0.001 14:0.001 15:0.001 16:0.999 17:0.999 18:0.001 19:0.001 20:0.001 21:0.001 22:0.001 23:0.999 24:0.999 25:0.001 26:0.999 27:0.999 28:0.999 29:0.001 30:0.001 31:0.001 32:0.001 33:0.999 34:0.999 35:0.999 36:0.001 37:0.001 38:0.999 39:0.999 40:0.001 41:0.001 42:0.001 43:0.001 44:0.001 45:0.999 46:0.999 47:0.999 48:0.001 49:0.001 50:0.999 51:0.001 52:0.001 53:0.001 54:0.001 55:0.001 56:0.999 57:0.999 58:0.999 59:0.999 60:0.001 61:0.999 62:0.001 63:0.001 64:0.001 65:0.001 66:0.999 67:0.999 68:0.001 69:0.999 70:0.999 71:0.001 72:0.001 73:0.001 74:0.999 75:0.999 76:0.001 77:0.001 78:0.999 79:0.999 80:0.001 81:0.001 82:0.999 83:0.999 84:0.001 85:0.999 86:0.999 87:0.999 88:0.999 89:0.999 90:0.001 91:0.001 92:0.999 93:0.999 94:0.999 95:0.001 96:0.001 97:0.001 98:0.001 99:0.001 100:0.001 101:0.001 102:0.001 103:0.001 104:0.001 105:0.001 106:0.001 107:0.001 108:0.001 109:0.001 110:0.001 111:0.001 112:0.001 113:0.001 114:0.001 115:0.001 116:0.001 117:0.001 118:0.001 119:0.001 120:0.001 
0 0 0 0 0.266328989464697 0.07023581352365325 0.8799397919570727 0.7557863981993589 0 0 0.2607348996318722 0 0 0 0.1597570444460033 0 0 1 1:0.001 2:0.001 3:0.001 4:0.001 5:0.001 6:0.001 7:0.001 8:0.001 9:0.001 10:0.001 11:0.001 12:0.001 13:0.001 14:0.001 15:0.999 16:0.999 17:0.001 18:0.001 19:0.001 20:0.001 21:0.001 22:0.999 23:0.999 24:0.001 25:0.999 26:0.999 27:0.999 28:0.001 29:0.001 30:0.001 31:0.001 32:0.999 33:0.999 34:0.999 35:0.001 36:0.001 37:0.999 38:0.999 39:0.001 40:0.001 41:0.001 42:0.001 43:0.001 44:0.999 45:0.999 46:0.999 47:0.001 48:0.001 49:0.999 50:0.001 51:0.001 52:0.001 53:0.001 54:0.001 55:0.001 56:0.999 57:0.999 58:0.999 59:0.001 60:0.001 61:0.999 62:0.001 63:0.001 64:0.001 65:0.001 66:0.999 67:0.999 68:0.001 69:0.999 70:0.999 71:0.001 72:0.001 73:0.999 74:0.999 75:0.001 76:0.001 77:0.999 78:0.999 79:0.001 80:0.001 81:0.999 82:0.999 83:0.001 84:0.001 85:0.001 86:0.999 87:0.999 88:0.999 89:0.999 90:0.001 91:0.001 92:0.999 93:0.999 94:0.999 95:0.001 96:0.001 97:0.001 98:0.001 99:0.001 100:0.001 101:0.001 102:0.001 103:0.001 104:0.001 105:0.001 106:0.001 107:0.001 108:0.001 109:0.001 110:0.001 111:0.001 112:0.001 113:0.001 114:0.001 115:0.001 116:0.001 117:0.001 118:0.001 119:0.001 120:0.001 
0.9964217106239365 0.4581194073047827 0.4206411921288505 1 1 0.2929351554939066 0.2259085202668314 0.6055089010687091 0.9514290284750759 0 0.1236464708831119 0.5697250202430305 0 0 0.4454529380073364 0.7136457281738651 0 1 1:0.001 2:0.001 3:0.001 4:0.001 5:0.001 6:0.001 7:0.001 8:0.001 9:0.001 10:0.001 11:0.001 12:0.001 13:0.001 14:0.001 15:0.999 16:0.999 17:0.001 18:0.001 19:0.001 20:0.001 21:0.001 22:0.999 23:0.999 24:0.001 25:0.001 26:0.999 27:0.999 28:0.999 29:0.001 30:0.001 31:0.001 32:0.001 33:0.999 34:0.999 35:0.999 36:0.001 37:0.001 38:0.001 39:0.999 40:0.999 41:0.001 42:0.001 43:0.001 44:0.001 45:0.001 46:0.999 47:0.999 48:0.999 49:0.001 50:0.999 51:0.001 52:0.001 53:0.001 54:0.001 55:0.001 56:0.999 57:0.999 58:0.999 59:0.999 60:0.001 61:0.001 62:0.999 63:0.001 64:0.001 65:0.001 66:0.001 67:0.999 68:0.999 69:0.001 70:0.999 71:0.999 72:0.001 73:0.999 74:0.999 75:0.001 76:0.001 77:0.999 78:0.999 79:0.001 80:0.001 81:0.999 82:0.999 83:0.001 84:0.001 85:0.999 86:0.999 87:0.999 88:0.999 89:0.999 90:0.001 91:0.001 92:0.999 93:0.999 94:0.999 95:0.001 96:0.001 97:0.001 98:0.001 99:0.001 100:0.001 101:0.001 102:0.001 103:0.001 104:0.001 105:0.001 106:0.001 107:0.001 108:0.001 109:0.001 110:0.001 111:0.001 112:0.001 113:0.001 114:0.001 115:0.001 116:0.001 117:0.001 118:0.001 119:0.001 120:0.001 
0 0 0 0.556662229899013 0 0 0 0 0 0 0 0.5706166806006087 0.6287471121433484 0.8250115953959087 0 0 0.3704495072346789 0 1:0.001 2:0.001 3:0.001 4:0.001 5:0.001 6:0.001 7:0.001 8:0.001 9:0.001 10:0.001 11:0.001 12:0.001 13:0.001 14:0.001 15:0.999 16:0.999 17:0.001 18:0.001 19:0.001 20:0.001 21:0.001 22:0.999 23:0.999 24:0.001 25:0.999 26:0.999 27:0.999 28:0.001 29:0.001 30:0.001 31:0.001 32:0.999 33:0.999 34:0.999 35:0.001 36:0.001 37:0.999 38:0.999 39:0.001 40:0.001 41:0.001 42:0.001 43:0.001 44:0.999 45:0.999 46:0.999 47:0.001 48:0.001 49:0.999 50:0.001 51:0.001 52:0.001 53:0.001 54:0.001 55:0.999 56:0.999 57:0.999 58:0.999 59:0.001 60:0.001 61:0.999 62:0.001 63:0.001 64:0.001 65:0.001 66:0.999 67:0.999 68:0.001 69:0.999 70:0.999 71:0.001 72:0.001 73:0.999 74:0.999 75:0.001 76:0.001 77:0.999 78:0.999 79:0.001 80:0.001 81:0.999 82:0.999 83:0.001 84:0.001 85:0.001 86:0.999 87:0.999 88:0.999 89:0.999 90:0.001 91:0.001 92:0.999 93:0.999 94:0.999 95:0.001 96:0.001 97:0.001 98:0.001 99:0.001 100:0.001 101:0.001 102:0.001 103:0.001 104:0.001 105:0.001 106:0.001 107:0.001 108:0.001 109:0.001 110:0.001 111:0.001 112:0.001 113:0.001 114:0.001 115:0.001 116:0.001 117:0.001 118:0.001 119:0.001 120:0.001 
0.5513419727058475 0 0 0 0 0 0 0 0 0 0 0 0 0 0 0 0 0.0209188022758332 1:0.001 2:0.001 3:0.001 4:0.001 5:0.001 6:0.001 7:0.001 8:0.001 9:0.001 10:0.001 11:0.001 12:0.001 13:0.001 14:0.999 15:0.999 16:0.001 17:0.001 18:0.001 19:0.001 20:0.001 21:0.999 22:0.999 23:0.001 24:0.001 25:0.999 26:0.999 27:0.999 28:0.001 29:0.001 30:0.001 31:0.001 32:0.999 33:0.999 34:0.999 35:0.001 36:0.001 37:0.999 38:0.999 39:0.001 40:0.001 41:0.001 42:0.001 43:0.001 44:0.999 45:0.999 46:0.999 47:0.001 48:0.001 49:0.999 50:0.001 51:0.001 52:0.001 53:0.001 54:0.001 55:0.999 56:0.999 57:0.999 58:0.999 59:0.001 60:0.001 61:0.999 62:0.001 63:0.001 64:0.001 65:0.001 66:0.999 67:0.999 68:0.001 69:0.999 70:0.999 71:0.001 72:0.001 73:0.001 74:0.999 75:0.999 76:0.001 77:0.001 78:0.999 79:0.999 80:0.001 81:0.001 82:0.999 83:0.999 84:0.001 85:0.999 86:0.999 87:0.999 88:0.999 89:0.999 90:0.001 91:0.001 92:0.999 93:0.999 94:0.999 95:0.001 96:0.001 97:0.001 98:0.001 99:0.001 100:0.001 101:0.001 102:0.001 103:0.001 104:0.001 105:0.001 106:0.001 107:0.001 108:0.001 109:0.001 110:0.001 111:0.001 112:0.001 113:0.001 114:0.001 115:0.001 116:0.001 117:0.001 118:0.001 119:0.001 120:0.001 
1 1 1 1 1 1 1 1 1 1 1 0.9259750066890623 0.9797176715813846 0.7813835848759952 0.8795134754542658 1 0.4481093404874675 1 1:0.001 2:0.001 3:0.001 4:0.001 5:0.001 6:0.001 7:0.001 8:0.001 9:0.001 10:0.001 11:0.999 12:0.999 13:0.001 14:0.001 15:0.001 16:0.001 17:0.001 18:0.001 19:0.001 20:0.001 21:0.001 22:0.999 23:0.999 24:0.999 25:0.001 26:0.001 27:0.999 28:0.999 29:0.001 30:0.001 31:0.001 32:0.001 33:0.999 34:0.999 35:0.999 36:0.001 37:0.001 38:0.001 39:0.999 40:0.999 41:0.999 42:0.001 43:0.001 44:0.001 45:0.001 46:0.999 47:0.999 48:0.999 49:0.001 50:0.999 51:0.999 52:0.001 53:0.001 54:0.001 55:0.001 56:0.999 57:0.001 58:0.999 59:0.999 60:0.001 61:0.001 62:0.999 63:0.001 64:0.001 65:0.001 66:0.001 67:0.999 68:0.999 69:0.001 70:0.999 71:0.999 72:0.001 73:0.999 74:0.001 75:0.001 76:0.001 77:0.999 78:0.999 79:0.001 80:0.999 81:0.999 82:0.001 83:0.001 84:0.001 85:0.999 86:0.999 87:0.001 88:0.999 89:0.999 90:0.001 91:0.001 92:0.001 93:0.001 94:0.001 95:0.001 96:0.001 97:0.999 98:0.999 99:0.999 100:0.001 101:0.001 102:0.001 103:0.001 104:0.001 105:0.001 106:0.001 107:0.001 108:0.001 109:0.001 110:0.001 111:0.001 112:0.001 113:0.001 114:0.001 115:0.001 116:0.001 117:0.001 118:0.001 119:0.999 120:0.001 
0 0.9921239224482585 0.1768468064157891 0 0.1308810517382029 1 0 0 0 0.1552349033786365 0.4470670895170188 0.8604919612402517 0.3239223173792615 0 0 0.470774022736015 0 1 1:0.001 2:0.001 3:0.001 4:0.001 5:0.001 6:0.001 7:0.001 8:0.001 9:0.999 10:0.999 11:0.001 12:0.001 13:0.001 14:0.001 15:0.999 16:0.999 17:0.001 18:0.001 19:0.001 20:0.001 21:0.001 22:0.999 23:0.999 24:0.001 25:0.999 26:0.999 27:0.999 28:0.001 29:0.001 30:0.001 31:0.001 32:0.999 33:0.999 34:0.999 35:0.001 36:0.001 37:0.999 38:0.999 39:0.001 40:0.001 41:0.001 42:0.001 43:0.001 44:0.999 45:0.999 46:0.999 47:0.001 48:0.001 49:0.999 50:0.001 51:0.001 52:0.001 53:0.001 54:0.001 55:0.999 56:0.999 57:0.001 58:0.999 59:0.001 60:0.001 61:0.999 62:0.001 63:0.001 64:0.001 65:0.001 66:0.999 67:0.999 68:0.001 69:0.999 70:0.999 71:0.001 72:0.001 73:0.999 74:0.999 75:0.001 76:0.001 77:0.999 78:0.999 79:0.001 80:0.001 81:0.999 82:0.999 83:0.001 84:0.001 85:0.999 86:0.999 87:0.999 88:0.999 89:0.999 90:0.001 91:0.001 92:0.999 93:0.999 94:0.999 95:0.001 96:0.001 97:0.001 98:0.001 99:0.001 100:0.001 101:0.001 102:0.001 103:0.001 104:0.001 105:0.001 106:0.001 107:0.001 108:0.001 109:0.001 110:0.001 111:0.001 112:0.001 113:0.001 114:0.001 115:0.001 116:0.001 117:0.001 118:0.001 119:0.001 120:0.001 
0 0 0 0 0 0.2150822968851741 0 0 0 0 0 0 0 0 0 0 0 0 1:0.001 2:0.001 3:0.001 4:0.001 5:0.001 6:0.001 7:0.001 8:0.001 9:0.001 10:0.999 11:0.999 12:0.001 13:0.001 14:0.999 15:0.999 16:0.001 17:0.001 18:0.001 19:0.001 20:0.001 21:0.999 22:0.999 23:0.001 24:0.001 25:0.001 26:0.999 27:0.999 28:0.999 29:0.001 30:0.001 31:0.001 32:0.001 33:0.999 34:0.999 35:0.999 36:0.001 37:0.001 38:0.999 39:0.999 40:0.001 41:0.001 42:0.001 43:0.001 44:0.001 45:0.999 46:0.999 47:0.999 48:0.001 49:0.999 50:0.001 51:0.001 52:0.001 53:0.001 54:0.001 55:0.999 56:0.999 57:0.999 58:0.999 59:0.001 60:0.001 61:0.999 62:0.001 63:0.001 64:0.001 65:0.001 66:0.999 67:0.999 68:0.001 69:0.999 70:0.999 71:0.001 72:0.001 73:0.999 74:0.999 75:0.001 76:0.001 77:0.999 78:0.999 79:0.001 80:0.001 81:0.999 82:0.999 83:0.001 84:0.001 85:0.999 86:0.999 87:0.999 88:0.999 89:0.999 90:0.001 91:0.001 92:0.999 93:0.999 94:0.999 95:0.001 96:0.001 97:0.001 98:0.001 99:0.001 100:0.001 101:0.001 102:0.001 103:0.001 104:0.001 105:0.001 106:0.001 107:0.001 108:0.001 109:0.001 110:0.001 111:0.001 112:0.001 113:0.001 114:0.001 115:0.001 116:0.001 117:0.001 118:0.001 119:0.001 120:0.001 
0 0 0 1 0 0 0 0 0 0 0 0 0 0 0 0 0 0 1:0.001 2:0.001 3:0.001 4:0.001 5:0.001 6:0.001 7:0.001 8:0.001 9:0.001 10:0.001 11:0.001 12:0.001 13:0.001 14:0.001 15:0.999 16:0.999 17:0.001 18:0.001 19:0.001 20:0.001 21:0.001 22:0.999 23:0.999 24:0.001 25:0.001 26:0.999 27:0.999 28:0.999 29:0.001 30:0.001 31:0.001 32:0.001 33:0.999 34:0.999 35:0.999 36:0.001 37:0.001 38:0.999 39:0.999 40:0.001 41:0.001 42:0.001 43:0.001 44:0.001 45:0.999 46:0.999 47:0.999 48:0.001 49:0.999 50:0.001 51:0.001 52:0.001 53:0.001 54:0.001 55:0.999 56:0.999 57:0.999 58:0.999 59:0.001 60:0.001 61:0.001 62:0.999 63:0.001 64:0.001 65:0.001 66:0.001 67:0.999 68:0.999 69:0.001 70:0.999 71:0.999 72:0.001 73:0.999 74:0.999 75:0.001 76:0.001 77:0.999 78:0.999 79:0.001 80:0.001 81:0.999 82:0.999 83:0.001 84:0.001 85:0.001 86:0.999 87:0.999 88:0.999 89:0.999 90:0.999 91:0.001 92:0.001 93:0.999 94:0.999 95:0.999 96:0.001 97:0.001 98:0.001 99:0.001 100:0.001 101:0.001 102:0.001 103:0.001 104:0.001 105:0.001 106:0.001 107:0.001 108:0.001 109:0.001 110:0.001 111:0.001 112:0.001 113:0.001 114:0.001 115:0.001 116:0.001 117:0.001 118:0.001 119:0.001 120:0.001 
1 0.2620239518813877 1 0 0 0.1621432661347826 0.3216811300979389 0 0.7323674430159499 0.2558795308760779 0.3157992417069115 0.5799855228909292 0.1750969138167089 0.4834687211982308 0 0.446551782382888 0.5860433361350676 0.3151076583388395 1:0.001 2:0.001 3:0.001 4:0.001 5:0.001 6:0.001 7:0.001 8:0.001 9:0.001 10:0.999 11:0.999 12:0.001 13:0.001 14:0.001 15:0.001 16:0.001 17:0.001 18:0.001 19:0.001 20:0.999 21:0.999 22:0.999 23:0.001 24:0.001 25:0.001 26:0.001 27:0.999 28:0.999 29:0.001 30:0.001 31:0.001 32:0.001 33:0.999 34:0.999 35:0.999 36:0.001 37:0.001 38:0.999 39:0.999 40:0.999 41:0.001 42:0.001 43:0.001 44:0.001 45:0.999 46:0.999 47:0.999 48:0.001 49:0.001 50:0.999 51:0.999 52:0.001 53:0.001 54:0.001 55:0.001 56:0.999 57:0.001 58:0.999 59:0.999 60:0.001 61:0.001 62:0.999 63:0.001 64:0.001 65:0.001 66:0.001 67:0.999 68:0.999 69:0.001 70:0.999 71:0.999 72:0.001 73:0.001 74:0.999 75:0.001 76:0.001 77:0.001 78:0.999 79:0.999 80:0.001 81:0.999 82:0.999 83:0.999 84:0.001 85:0.001 86:0.999 87:0.999 88:0.001 89:0.999 90:0.999 91:0.001 92:0.001 93:0.001 94:0.001 95:0.001 96:0.001 97:0.001 98:0.999 99:0.999 100:0.999 101:0.001 102:0.001 103:0.001 104:0.001 105:0.001 106:0.001 107:0.001 108:0.001 109:0.001 110:0.001 111:0.001 112:0.001 113:0.001 114:0.001 115:0.001 116:0.001 117:0.001 118:0.999 119:0.999 120:0.001 
0 0 0 0 0 0 0 0 1 0 0 0 0 0 0 0 0 0 1:0.001 2:0.001 3:0.001 4:0.001 5:0.001 6:0.001 7:0.001 8:0.001 9:0.001 10:0.001 11:0.001 12:0.001 13:0.001 14:0.001 15:0.999 16:0.999 17:0.001 18:0.001 19:0.001 20:0.001 21:0.001 22:0.999 23:0.999 24:0.001 25:0.001 26:0.999 27:0.999 28:0.999 29:0.001 30:0.001 31:0.001 32:0.001 33:0.999 34:0.999 35:0.999 36:0.001 37:0.001 38:0.999 39:0.999 40:0.001 41:0.001 42:0.001 43:0.001 44:0.001 45:0.999 46:0.999 47:0.999 48:0.001 49:0.001 50:0.999 51:0.001 52:0.001 53:0.001 54:0.001 55:0.001 56:0.999 57:0.999 58:0.999 59:0.999 60:0.001 61:0.001 62:0.999 63:0.001 64:0.001 65:0.001 66:0.001 67:0.999 68:0.999 69:0.001 70:0.999 71:0.999 72:0.001 73:0.999 74:0.999 75:0.001 76:0.001 77:0.999 78:0.999 79:0.001 80:0.001 81:0.999 82:0.999 83:0.001 84:0.001 85:0.001 86:0.999 87:0.999 88:0.999 89:0.999 90:0.999 91:0.001 92:0.001 93:0.001 94:0.999 95:0.999 96:0.001 97:0.001 98:0.001 99:0.001 100:0.001 101:0.001 102:0.001 103:0.001 104:0.001 105:0.001 106:0.001 107:0.001 108:0.001 109:0.001 110:0.001 111:0.001 112:0.001 113:0.001 114:0.001 115:0.001 116:0.001 117:0.001 118:0.001 119:0.001 120:0.001 
0 0 0 0 0.6044199410102122 0 0 0.5265407694903875 0 0.7490009690906395 0 0 0 0 0 0 0 1 1:0.001 2:0.001 3:0.001 4:0.001 5:0.001 6:0.001 7:0.001 8:0.001 9:0.001 10:0.999 11:0.999 12:0.001 13:0.001 14:0.001 15:0.001 16:0.001 17:0.001 18:0.001 19:0.001 20:0.001 21:0.999 22:0.999 23:0.999 24:0.001 25:0.001 26:0.001 27:0.999 28:0.999 29:0.001 30:0.001 31:0.001 32:0.001 33:0.999 34:0.999 35:0.999 36:0.001 37:0.001 38:0.999 39:0.999 40:0.999 41:0.001 42:0.001 43:0.001 44:0.001 45:0.999 46:0.999 47:0.999 48:0.001 49:0.001 50:0.999 51:0.999 52:0.001 53:0.001 54:0.001 55:0.001 56:0.999 57:0.001 58:0.999 59:0.999 60:0.001 61:0.001 62:0.999 63:0.001 64:0.001 65:0.001 66:0.001 67:0.999 68:0.999 69:0.001 70:0.999 71:0.999 72:0.001 73:0.001 74:0.999 75:0.001 76:0.001 77:0.001 78:0.999 79:0.999 80:0.001 81:0.999 82:0.999 83:0.999 84:0.001 85:0.001 86:0.999 87:0.999 88:0.001 89:0.999 90:0.999 91:0.001 92:0.001 93:0.001 94:0.001 95:0.001 96:0.001 97:0.999 98:0.999 99:0.999 100:0.001 101:0.001 102:0.001 103:0.001 104:0.001 105:0.001 106:0.001 107:0.001 108:0.001 109:0.001 110:0.001 111:0.001 112:0.001 113:0.001 114:0.001 115:0.001 116:0.001 117:0.001 118:0.999 119:0.999 120:0.001 
0 0 0 0 0 0 0 0 0 0 0 0 0 0 0 0 0.05996097372619942 0 1:0.001 2:0.001 3:0.001 4:0.001 5:0.001 6:0.001 7:0.001 8:0.001 9:0.999 10:0.999 11:0.001 12:0.001 13:0.001 14:0.001 15:0.999 16:0.999 17:0.001 18:0.001 19:0.001 20:0.001 21:0.001 22:0.999 23:0.999 24:0.001 25:0.999 26:0.999 27:0.999 28:0.001 29:0.001 30:0.001 31:0.001 32:0.999 33:0.999 34:0.999 35:0.001 36:0.001 37:0.001 38:0.999 39:0.999 40:0.001 41:0.001 42:0.001 43:0.001 44:0.001 45:0.999 46:0.999 47:0.999 48:0.001 49:0.999 50:0.001 51:0.001 52:0.001 53:0.001 54:0.001 55:0.999 56:0.999 57:0.999 58:0.999 59:0.001 60:0.001 61:0.999 62:0.001 63:0.001 64:0.001 65:0.001 66:0.999 67:0.999 68:0.001 69:0.999 70:0.999 71:0.001 72:0.001 73:0.999 74:0.999 75:0.001 76:0.001 77:0.999 78:0.999 79:0.001 80:0.001 81:0.999 82:0.999 83:0.001 84:0.001 85:0.999 86:0.999 87:0.999 88:0.999 89:0.999 90:0.001 91:0.001 92:0.999 93:0.999 94:0.999 95:0.001 96:0.001 97:0.001 98:0.001 99:0.001 100:0.001 101:0.001 102:0.001 103:0.001 104:0.001 105:0.001 106:0.001 107:0.001 108:0.001 109:0.001 110:0.001 111:0.001 112:0.001 113:0.001 114:0.001 115:0.001 116:0.001 117:0.001 118:0.001 119:0.001 120:0.001 
0 0 0 1 0 0 0.1417426936998942 0 1 1 0.2700741810057368 0.9637090614197287 0.5383038339561405 0 0 0.7178538855507471 0.1274800787900258 0.2233775724438331 1:0.001 2:0.001 3:0.001 4:0.001 5:0.001 6:0.001 7:0.001 8:0.001 9:0.001 10:0.001 11:0.001 12:0.001 13:0.001 14:0.001 15:0.001 16:0.999 17:0.999 18:0.001 19:0.001 20:0.001 21:0.001 22:0.001 23:0.999 24:0.999 25:0.001 26:0.999 27:0.999 28:0.999 29:0.001 30:0.001 31:0.001 32:0.001 33:0.999 34:0.999 35:0.999 36:0.001 37:0.001 38:0.999 39:0.999 40:0.001 41:0.001 42:0.001 43:0.001 44:0.001 45:0.999 46:0.999 47:0.999 48:0.001 49:0.999 50:0.001 51:0.001 52:0.001 53:0.001 54:0.001 55:0.999 56:0.999 57:0.999 58:0.999 59:0.001 60:0.001 61:0.001 62:0.999 63:0.001 64:0.001 65:0.001 66:0.001 67:0.999 68:0.999 69:0.001 70:0.999 71:0.999 72:0.001 73:0.001 74:0.999 75:0.999 76:0.001 77:0.001 78:0.999 79:0.999 80:0.001 81:0.001 82:0.999 83:0.999 84:0.001 85:0.999 86:0.999 87:0.999 88:0.999 89:0.999 90:0.001 91:0.001 92:0.999 93:0.999 94:0.001 95:0.001 96:0.001 97:0.001 98:0.001 99:0.001 100:0.001 101:0.001 102:0.001 103:0.001 104:0.001 105:0.001 106:0.001 107:0.001 108:0.001 109:0.001 110:0.001 111:0.001 112:0.001 113:0.001 114:0.001 115:0.001 116:0.001 117:0.001 118:0.001 119:0.001 120:0.001 
0 0 0.2419930103470696 0 0.1688419056654295 0.297322538382456 0.2740208959891861 0 0 0.2428218245569368 0 0 0 0 0.02754961152852679 0 0 0 1:0.001 2:0.001 3:0.001 4:0.001 5:0.001 6:0.001 7:0.001 8:0.001 9:0.001 10:0.001 11:0.001 12:0.001 13:0.001 14:0.001 15:0.999 16:0.999 17:0.001 18:0.001 19:0.001 20:0.001 21:0.001 22:0.999 23:0.999 24:0.001 25:0.999 26:0.999 27:0.999 28:0.001 29:0.001 30:0.001 31:0.001 32:0.999 33:0.999 34:0.999 35:0.001 36:0.001 37:0.001 38:0.999 39:0.999 40:0.001 41:0.001 42:0.001 43:0.001 44:0.001 45:0.999 46:0.999 47:0.999 48:0.001 49:0.001 50:0.999 51:0.001 52:0.001 53:0.001 54:0.001 55:0.001 56:0.999 57:0.999 58:0.999 59:0.999 60:0.001 61:0.001 62:0.001 63:0.999 64:0.001 65:0.001 66:0.001 67:0.001 68:0.999 69:0.999 70:0.001 71:0.999 72:0.999 73:0.001 74:0.999 75:0.999 76:0.001 77:0.001 78:0.999 79:0.999 80:0.001 81:0.001 82:0.999 83:0.999 84:0.001 85:0.001 86:0.999 87:0.999 88:0.999 89:0.999 90:0.999 91:0.001 92:0.001 93:0.999 94:0.999 95:0.999 96:0.001 97:0.001 98:0.001 99:0.001 100:0.001 101:0.001 102:0.001 103:0.001 104:0.001 105:0.001 106:0.001 107:0.001 108:0.001 109:0.001 110:0.001 111:0.001 112:0.001 113:0.001 114:0.001 115:0.001 116:0.001 117:0.001 118:0.001 119:0.001 120:0.001 
0.2019917391512117 0 0 0.1012745765894643 0 0 0 0 0.8016920417464996 0 0 0 0.1497958244518467 0 0 0 0 0 1:0.001 2:0.001 3:0.001 4:0.001 5:0.001 6:0.001 7:0.001 8:0.001 9:0.001 10:0.001 11:0.001 12:0.001 13:0.001 14:0.001 15:0.999 16:0.999 17:0.001 18:0.001 19:0.001 20:0.001 21:0.001 22:0.999 23:0.999 24:0.001 25:0.001 26:0.999 27:0.999 28:0.999 29:0.001 30:0.001 31:0.001 32:0.001 33:0.999 34:0.999 35:0.999 36:0.001 37:0.001 38:0.999 39:0.999 40:0.001 41:0.001 42:0.001 43:0.001 44:0.001 45:0.999 46:0.999 47:0.999 48:0.001 49:0.999 50:0.001 51:0.001 52:0.001 53:0.001 54:0.001 55:0.999 56:0.999 57:0.999 58:0.999 59:0.001 60:0.001 61:0.999 62:0.001 63:0.001 64:0.001 65:0.001 66:0.999 67:0.999 68:0.001 69:0.999 70:0.999 71:0.001 72:0.001 73:0.999 74:0.999 75:0.001 76:0.001 77:0.999 78:0.999 79:0.001 80:0.001 81:0.999 82:0.999 83:0.001 84:0.001 85:0.999 86:0.999 87:0.999 88:0.999 89:0.999 90:0.001 91:0.001 92:0.999 93:0.999 94:0.999 95:0.001 96:0.001 97:0.001 98:0.001 99:0.001 100:0.001 101:0.001 102:0.001 103:0.001 104:0.001 105:0.001 106:0.001 107:0.001 108:0.001 109:0.001 110:0.001 111:0.001 112:0.001 113:0.001 114:0.001 115:0.001 116:0.001 117:0.001 118:0.001 119:0.001 120:0.001 
0 0 0 0 0 0 0 0 0 0 0 0 0 0 0 0 0 0.1473378982845491 1:0.001 2:0.001 3:0.001 4:0.001 5:0.001 6:0.001 7:0.001 8:0.001 9:0.001 10:0.001 11:0.001 12:0.001 13:0.001 14:0.001 15:0.999 16:0.999 17:0.001 18:0.001 19:0.001 20:0.001 21:0.001 22:0.999 23:0.999 24:0.001 25:0.001 26:0.999 27:0.999 28:0.999 29:0.001 30:0.001 31:0.001 32:0.001 33:0.999 34:0.999 35:0.999 36:0.001 37:0.001 38:0.999 39:0.999 40:0.001 41:0.001 42:0.001 43:0.001 44:0.001 45:0.999 46:0.999 47:0.999 48:0.001 49:0.001 50:0.999 51:0.001 52:0.001 53:0.001 54:0.001 55:0.001 56:0.999 57:0.999 58:0.999 59:0.999 60:0.001 61:0.999 62:0.001 63:0.001 64:0.001 65:0.001 66:0.999 67:0.999 68:0.001 69:0.999 70:0.999 71:0.001 72:0.001 73:0.001 74:0.999 75:0.999 76:0.001 77:0.001 78:0.999 79:0.999 80:0.001 81:0.001 82:0.999 83:0.999 84:0.001 85:0.001 86:0.999 87:0.999 88:0.999 89:0.999 90:0.999 91:0.001 92:0.001 93:0.999 94:0.999 95:0.999 96:0.001 97:0.001 98:0.001 99:0.001 100:0.001 101:0.001 102:0.001 103:0.001 104:0.001 105:0.001 106:0.001 107:0.001 108:0.001 109:0.001 110:0.001 111:0.001 112:0.001 113:0.001 114:0.001 115:0.001 116:0.001 117:0.001 118:0.001 119:0.001 120:0.001 
0.7019881721640391 0.550971881784125 0.8551842713630184 0.4340551528516273 1 0.3447999694340673 0.698984725790287 0.6269088806359322 1 0.1203976587595132 0.1751823678491947 0.8084807398747217 0.2078769747452804 0.9939374350996306 0.9954269441059461 0.5766602690712421 0.4741967534403302 1 1:0.001 2:0.001 3:0.001 4:0.001 5:0.001 6:0.001 7:0.001 8:0.001 9:0.001 10:0.001 11:0.001 12:0.001 13:0.001 14:0.001 15:0.001 16:0.999 17:0.999 18:0.001 19:0.001 20:0.001 21:0.001 22:0.001 23:0.999 24:0.999 25:0.001 26:0.999 27:0.999 28:0.999 29:0.001 30:0.001 31:0.001 32:0.001 33:0.999 34:0.999 35:0.999 36:0.001 37:0.001 38:0.999 39:0.999 40:0.001 41:0.001 42:0.001 43:0.001 44:0.001 45:0.999 46:0.999 47:0.999 48:0.001 49:0.001 50:0.999 51:0.001 52:0.001 53:0.001 54:0.001 55:0.001 56:0.999 57:0.999 58:0.999 59:0.999 60:0.001 61:0.999 62:0.001 63:0.001 64:0.001 65:0.001 66:0.999 67:0.999 68:0.001 69:0.999 70:0.999 71:0.001 72:0.001 73:0.001 74:0.999 75:0.999 76:0.001 77:0.001 78:0.999 79:0.999 80:0.001 81:0.001 82:0.999 83:0.999 84:0.001 85:0.999 86:0.999 87:0.999 88:0.999 89:0.999 90:0.001 91:0.001 92:0.999 93:0.999 94:0.999 95:0.001 96:0.001 97:0.001 98:0.001 99:0.001 100:0.001 101:0.001 102:0.001 103:0.001 104:0.001 105:0.001 106:0.001 107:0.001 108:0.001 109:0.001 110:0.001 111:0.001 112:0.001 113:0.001 114:0.001 115:0.001 116:0.001 117:0.001 118:0.001 119:0.001 120:0.001 
0 0 0 0 0 0 0 0 0 0 0 0 0 0 0 0 0 0.8965643337575298 1:0.001 2:0.001 3:0.001 4:0.001 5:0.001 6:0.001 7:0.001 8:0.001 9:0.001 10:0.001 11:0.001 12:0.001 13:0.001 14:0.999 15:0.999 16:0.001 17:0.001 18:0.001 19:0.001 20:0.001 21:0.999 22:0.999 23:0.001 24:0.001 25:0.001 26:0.999 27:0.999 28:0.999 29:0.001 30:0.001 31:0.001 32:0.001 33:0.999 34:0.999 35:0.999 36:0.001 37:0.999 38:0.999 39:0.001 40:0.001 41:0.001 42:0.001 43:0.001 44:0.999 45:0.999 46:0.999 47:0.001 48:0.001 49:0.999 50:0.001 51:0.001 52:0.001 53:0.001 54:0.001 55:0.999 56:0.999 57:0.999 58:0.999 59:0.001 60:0.001 61:0.999 62:0.001 63:0.001 64:0.001 65:0.001 66:0.999 67:0.999 68:0.001 69:0.999 70:0.999 71:0.001 72:0.001 73:0.999 74:0.999 75:0.001 76:0.001 77:0.999 78:0.999 79:0.001 80:0.001 81:0.999 82:0.999 83:0.001 84:0.001 85:0.999 86:0.999 87:0.999 88:0.999 89:0.999 90:0.001 91:0.001 92:0.999 93:0.999 94:0.999 95:0.001 96:0.001 97:0.001 98:0.001 99:0.001 100:0.001 101:0.001 102:0.001 103:0.001 104:0.001 105:0.001 106:0.001 107:0.001 108:0.001 109:0.001 110:0.001 111:0.001 112:0.001 113:0.001 114:0.001 115:0.001 116:0.001 117:0.001 118:0.001 119:0.001 120:0.001 
0 0 0 0.4923566151103741 0 0 0 0 0 0 0 0 0 0 0 0 0 0 1:0.001 2:0.001 3:0.001 4:0.001 5:0.001 6:0.001 7:0.001 8:0.001 9:0.001 10:0.999 11:0.999 12:0.001 13:0.001 14:0.001 15:0.001 16:0.001 17:0.001 18:0.001 19:0.001 20:0.001 21:0.999 22:0.999 23:0.999 24:0.001 25:0.001 26:0.001 27:0.999 28:0.999 29:0.001 30:0.001 31:0.001 32:0.001 33:0.999 34:0.999 35:0.999 36:0.001 37:0.001 38:0.999 39:0.999 40:0.999 41:0.001 42:0.001 43:0.001 44:0.001 45:0.999 46:0.999 47:0.999 48:0.001 49:0.001 50:0.999 51:0.999 52:0.001 53:0.001 54:0.001 55:0.001 56:0.999 57:0.001 58:0.999 59:0.999 60:0.001 61:0.001 62:0.999 63:0.001 64:0.001 65:0.001 66:0.001 67:0.999 68:0.999 69:0.001 70:0.999 71:0.999 72:0.001 73:0.001 74:0.999 75:0.001 76:0.001 77:0.001 78:0.999 79:0.999 80:0.001 81:0.999 82:0.999 83:0.999 84:0.001 85:0.001 86:0.999 87:0.999 88:0.001 89:0.999 90:0.999 91:0.001 92:0.001 93:0.001 94:0.001 95:0.001 96:0.001 97:0.001 98:0.999 99:0.999 100:0.999 101:0.001 102:0.001 103:0.001 104:0.001 105:0.001 106:0.001 107:0.001 108:0.001 109:0.001 110:0.001 111:0.001 112:0.001 113:0.001 114:0.001 115:0.001 116:0.001 117:0.001 118:0.001 119:0.001 120:0.001 
0 0 0 0 0 0 0 0 0 0.3619803059673258 0 0.736017791738082 0 0 0 0 0 0 1:0.001 2:0.001 3:0.001 4:0.001 5:0.001 6:0.001 7:0.001 8:0.001 9:0.001 10:0.001 11:0.001 12:0.001 13:0.001 14:0.001 15:0.999 16:0.999 17:0.001 18:0.001 19:0.001 20:0.001 21:0.001 22:0.999 23:0.999 24:0.001 25:0.001 26:0.999 27:0.999 28:0.999 29:0.001 30:0.001 31:0.001 32:0.001 33:0.999 34:0.999 35:0.999 36:0.001 37:0.999 38:0.999 39:0.001 40:0.001 41:0.001 42:0.001 43:0.001 44:0.999 45:0.999 46:0.999 47:0.001 48:0.001 49:0.001 50:0.999 51:0.001 52:0.001 53:0.001 54:0.001 55:0.001 56:0.999 57:0.999 58:0.999 59:0.999 60:0.001 61:0.001 62:0.999 63:0.001 64:0.001 65:0.001 66:0.001 67:0.999 68:0.999 69:0.001 70:0.999 71:0.999 72:0.001 73:0.001 74:0.999 75:0.999 76:0.001 77:0.001 78:0.999 79:0.999 80:0.001 81:0.001 82:0.999 83:0.999 84:0.001 85:0.001 86:0.999 87:0.999 88:0.999 89:0.999 90:0.999 91:0.001 92:0.001 93:0.999 94:0.999 95:0.999 96:0.001 97:0.001 98:0.001 99:0.001 100:0.001 101:0.001 102:0.001 103:0.001 104:0.001 105:0.001 106:0.001 107:0.001 108:0.001 109:0.001 110:0.001 111:0.001 112:0.001 113:0.001 114:0.001 115:0.001 116:0.001 117:0.001 118:0.001 119:0.001 120:0.001 
-0 0.05769880062663369 0 0 0 0 0 1 0 0 0.2796415652244695 0.1928014017684474 0 0 0.4792695696403551 0.07532695241487758 0 0 1:0.001 2:0.001 3:0.001 4:0.001 5:0.001 6:0.001 7:0.001 8:0.001 9:0.001 10:0.001 11:0.001 12:0.001 13:0.001 14:0.001 15:0.001 16:0.001 17:0.001 18:0.001 19:0.001 20:0.999 21:0.999 22:0.001 23:0.001 24:0.001 25:0.001 26:0.999 27:0.999 28:0.999 29:0.999 30:0.999 31:0.999 32:0.999 33:0.999 34:0.999 35:0.999 36:0.001 37:0.001 38:0.001 39:0.999 40:0.999 41:0.999 42:0.999 43:0.999 44:0.999 45:0.001 46:0.001 47:0.999 48:0.999 49:0.001 50:0.999 51:0.001 52:0.001 53:0.001 54:0.999 55:0.999 56:0.001 57:0.001 58:0.999 59:0.999 60:0.001 61:0.001 62:0.999 63:0.001 64:0.001 65:0.001 66:0.999 67:0.999 68:0.001 69:0.001 70:0.999 71:0.999 72:0.001 73:0.999 74:0.999 75:0.001 76:0.999 77:0.999 78:0.999 79:0.001 80:0.001 81:0.999 82:0.999 83:0.001 84:0.001 85:0.999 86:0.999 87:0.999 88:0.999 89:0.999 90:0.999 91:0.999 92:0.999 93:0.999 94:0.999 95:0.001 96:0.001 97:0.001 98:0.999 99:0.999 100:0.001 101:0.001 102:0.001 103:0.999 104:0.999 105:0.999 106:0.001 107:0.001 108:0.001 109:0.001 110:0.001 111:0.001 112:0.001 113:0.001 114:0.001 115:0.001 116:0.001 117:0.001 118:0.001 119:0.001 120:0.001 
-1 0.3883951557704358 0.8253866553390664 0 1 0 0.7588533571173851 1 0 0.8023111234824958 0.3690190114244369 0.6780983132917949 0.1499161560433735 1 0.6916818975695361 0.7755932388328333 0.7672368256865545 0.6522193122800432 1:0.001 2:0.001 3:0.001 4:0.001 5:0.001 6:0.001 7:0.001 8:0.999 9:0.001 10:0.001 11:0.001 12:0.001 13:0.001 14:0.001 15:0.001 16:0.001 17:0.001 18:0.001 19:0.999 20:0.999 21:0.999 22:0.999 23:0.001 24:0.001 25:0.001 26:0.001 27:0.001 28:0.999 29:0.999 30:0.999 31:0.999 32:0.001 33:0.999 34:0.999 35:0.001 36:0.001 37:0.999 38:0.999 39:0.999 40:0.999 41:0.999 42:0.999 43:0.001 44:0.001 45:0.999 46:0.999 47:0.001 48:0.001 49:0.999 50:0.999 51:0.999 52:0.001 53:0.999 54:0.999 55:0.001 56:0.001 57:0.999 58:0.999 59:0.001 60:0.001 61:0.999 62:0.001 63:0.001 64:0.001 65:0.999 66:0.999 67:0.001 68:0.001 69:0.999 70:0.999 71:0.001 72:0.001 73:0.001 74:0.999 75:0.001 76:0.001 77:0.999 78:0.999 79:0.999 80:0.001 81:0.999 82:0.999 83:0.999 84:0.001 85:0.001 86:0.999 87:0.999 88:0.001 89:0.999 90:0.999 91:0.999 92:0.999 93:0.999 94:0.999 95:0.001 96:0.001 97:0.001 98:0.999 99:0.999 100:0.999 101:0.001 102:0.001 103:0.001 104:0.999 105:0.001 106:0.001 107:0.001 108:0.001 109:0.001 110:0.001 111:0.001 112:0.999 113:0.999 114:0.001 115:0.001 116:0.001 117:0.001 118:0.001 119:0.001 120:0.001 
-1 0 0 0 0 0 0 0 0 0.1977905541271363 0 0 0 0 0 0 0 0.3459337257993484 1:0.001 2:0.001 3:0.001 4:0.001 5:0.001 6:0.001 7:0.001 8:0.001 9:0.001 10:0.999 11:0.999 12:0.001 13:0.001 14:0.001 15:0.001 16:0.001 17:0.001 18:0.001 19:0.001 20:0.999 21:0.999 22:0.001 23:0.001 24:0.001 25:0.001 26:0.999 27:0.999 28:0.999 29:0.999 30:0.999 31:0.999 32:0.999 33:0.999 34:0.999 35:0.999 36:0.001 37:0.001 38:0.999 39:0.999 40:0.999 41:0.999 42:0.999 43:0.999 44:0.001 45:0.001 46:0.999 47:0.999 48:0.001 49:0.001 50:0.999 51:0.001 52:0.001 53:0.001 54:0.999 55:0.999 56:0.001 57:0.001 58:0.999 59:0.999 60:0.001 61:0.001 62:0.999 63:0.001 64:0.001 65:0.001 66:0.999 67:0.999 68:0.001 69:0.001 70:0.999 71:0.999 72:0.001 73:0.001 74:0.999 75:0.999 76:0.001 77:0.999 78:0.999 79:0.999 80:0.001 81:0.001 82:0.999 83:0.999 84:0.001 85:0.001 86:0.999 87:0.999 88:0.999 89:0.999 90:0.999 91:0.999 92:0.999 93:0.999 94:0.999 95:0.999 96:0.001 97:0.001 98:0.999 99:0.999 100:0.001 101:0.001 102:0.001 103:0.999 104:0.001 105:0.999 106:0.001 107:0.001 108:0.001 109:0.001 110:0.001 111:0.001 112:0.001 113:0.001 114:0.001 115:0.001 116:0.001 117:0.001 118:0.001 119:0.001 120:0.001 
-0.4954945177577932 0.04479046890474509 1 0 1 0.4099317503508727 1 1 0 1 1 1 1 1 1 1 1 0.4936485006571735 1:0.001 2:0.001 3:0.001 4:0.001 5:0.001 6:0.001 7:0.999 8:0.001 9:0.001 10:0.001 11:0.001 12:0.001 13:0.001 14:0.001 15:0.001 16:0.001 17:0.001 18:0.999 19:0.999 20:0.999 21:0.999 22:0.001 23:0.001 24:0.001 25:0.001 26:0.001 27:0.001 28:0.999 29:0.999 30:0.999 31:0.999 32:0.001 33:0.999 34:0.999 35:0.001 36:0.001 37:0.999 38:0.999 39:0.999 40:0.999 41:0.999 42:0.999 43:0.001 44:0.001 45:0.999 46:0.999 47:0.001 48:0.001 49:0.001 50:0.999 51:0.999 52:0.999 53:0.001 54:0.999 55:0.999 56:0.001 57:0.001 58:0.999 59:0.999 60:0.001 61:0.001 62:0.999 63:0.001 64:0.001 65:0.001 66:0.999 67:0.999 68:0.001 69:0.001 70:0.999 71:0.999 72:0.001 73:0.001 74:0.001 75:0.999 76:0.001 77:0.001 78:0.999 79:0.999 80:0.999 81:0.001 82:0.999 83:0.999 84:0.999 85:0.001 86:0.001 87:0.999 88:0.999 89:0.001 90:0.999 91:0.999 92:0.999 93:0.999 94:0.999 95:0.999 96:0.001 97:0.001 98:0.001 99:0.001 100:0.999 101:0.999 102:0.999 103:0.001 104:0.001 105:0.001 106:0.999 107:0.001 108:0.001 109:0.001 110:0.001 111:0.001 112:0.001 113:0.001 114:0.999 115:0.999 116:0.001 117:0.001 118:0.001 119:0.001 120:0.001 
-0 0 0 0 1 0 0 0.9471145589075601 0 0 0 0 0 0 0 0 0 0.5672834089843994 1:0.001 2:0.001 3:0.001 4:0.001 5:0.001 6:0.001 7:0.001 8:0.001 9:0.001 10:0.001 11:0.001 12:0.001 13:0.001 14:0.001 15:0.001 16:0.001 17:0.001 18:0.001 19:0.001 20:0.001 21:0.999 22:0.999 23:0.001 24:0.001 25:0.001 26:0.001 27:0.999 28:0.999 29:0.999 30:0.999 31:0.999 32:0.999 33:0.999 34:0.999 35:0.999 36:0.999 37:0.001 38:0.999 39:0.999 40:0.999 41:0.999 42:0.999 43:0.999 44:0.001 45:0.001 46:0.999 47:0.999 48:0.001 49:0.001 50:0.999 51:0.001 52:0.001 53:0.001 54:0.999 55:0.999 56:0.001 57:0.001 58:0.999 59:0.999 60:0.001 61:0.001 62:0.999 63:0.001 64:0.001 65:0.001 66:0.999 67:0.999 68:0.001 69:0.001 70:0.999 71:0.999 72:0.001 73:0.999 74:0.999 75:0.001 76:0.999 77:0.999 78:0.999 79:0.001 80:0.001 81:0.999 82:0.999 83:0.001 84:0.001 85:0.999 86:0.999 87:0.999 88:0.999 89:0.999 90:0.999 91:0.999 92:0.999 93:0.999 94:0.999 95:0.001 96:0.001 97:0.001 98:0.999 99:0.999 100:0.001 101:0.001 102:0.001 103:0.999 104:0.999 105:0.999 106:0.001 107:0.001 108:0.001 109:0.001 110:0.001 111:0.001 112:0.001 113:0.001 114:0.001 115:0.001 116:0.001 117:0.001 118:0.001 119:0.001 120:0.001 
-0 0 0 0 0 0 0 0.4153607450330199 0 0.5410941295362665 0 0 0 0 0 0 0 0 1:0.001 2:0.001 3:0.001 4:0.001 5:0.001 6:0.001 7:0.001 8:0.001 9:0.999 10:0.001 11:0.001 12:0.001 13:0.001 14:0.001 15:0.001 16:0.001 17:0.001 18:0.001 19:0.001 20:0.999 21:0.999 22:0.999 23:0.999 24:0.001 25:0.001 26:0.001 27:0.001 28:0.001 29:0.999 30:0.999 31:0.999 32:0.999 33:0.001 34:0.999 35:0.999 36:0.001 37:0.001 38:0.999 39:0.999 40:0.999 41:0.999 42:0.999 43:0.999 44:0.001 45:0.001 46:0.999 47:0.999 48:0.001 49:0.001 50:0.999 51:0.999 52:0.999 53:0.001 54:0.999 55:0.999 56:0.001 57:0.001 58:0.999 59:0.999 60:0.001 61:0.001 62:0.999 63:0.001 64:0.001 65:0.001 66:0.999 67:0.999 68:0.001 69:0.001 70:0.999 71:0.999 72:0.001 73:0.001 74:0.999 75:0.001 76:0.001 77:0.999 78:0.999 79:0.999 80:0.001 81:0.999 82:0.999 83:0.999 84:0.001 85:0.001 86:0.999 87:0.999 88:0.001 89:0.999 90:0.999 91:0.999 92:0.999 93:0.999 94:0.999 95:0.001 96:0.001 97:0.001 98:0.999 99:0.999 100:0.999 101:0.001 102:0.001 103:0.001 104:0.999 105:0.001 106:0.001 107:0.001 108:0.001 109:0.001 110:0.001 111:0.999 112:0.999 113:0.001 114:0.001 115:0.001 116:0.001 117:0.001 118:0.001 119:0.001 120:0.001 
-0.1065117453220328 0.2280621855775068 0.2578537464253961 0 0.07990794874537215 0 0.6309089750143025 1 0.1845911043816298 0.2508346385332071 0.05245032042133956 0.412097381013889 0.1936343606476347 0.6824333601515105 0.5975837539614188 0.1807994873122775 0.1687795087977145 0.3929918715686612 1:0.001 2:0.001 3:0.001 4:0.001 5:0.999 6:0.001 7:0.001 8:0.001 9:0.999 10:0.001 11:0.001 12:0.001 13:0.001 14:0.001 15:0.001 16:0.001 17:0.001 18:0.001 19:0.999 20:0.999 21:0.999 22:0.999 23:0.001 24:0.001 25:0.001 26:0.001 27:0.001 28:0.001 29:0.999 30:0.999 31:0.999 32:0.999 33:0.001 34:0.999 35:0.999 36:0.001 37:0.001 38:0.999 39:0.999 40:0.999 41:0.999 42:0.999 43:0.999 44:0.001 45:0.001 46:0.999 47:0.999 48:0.001 49:0.999 50:0.999 51:0.999 52:0.001 53:0.999 54:0.999 55:0.001 56:0.001 57:0.999 58:0.999 59:0.001 60:0.001 61:0.001 62:0.999 63:0.001 64:0.001 65:0.001 66:0.999 67:0.999 68:0.001 69:0.001 70:0.999 71:0.999 72:0.001 73:0.999 74:0.001 75:0.001 76:0.999 77:0.999 78:0.999 79:0.001 80:0.999 81:0.999 82:0.999 83:0.001 84:0.001 85:0.999 86:0.999 87:0.001 88:0.999 89:0.999 90:0.999 91:0.999 92:0.999 93:0.999 94:0.001 95:0.001 96:0.001 97:0.999 98:0.999 99:0.999 100:0.001 101:0.001 102:0.001 103:0.999 104:0.001 105:0.001 106:0.001 107:0.001 108:0.001 109:0.999 110:0.999 111:0.001 112:0.001 113:0.001 114:0.001 115:0.001 116:0.999 117:0.999 118:0.001 119:0.001 120:0.001 
-1 1 1 1 1 1 1 1 1 1 1 1 1 1 1 1 0.8291090223684733 0.5303802390306555 1:0.001 2:0.001 3:0.001 4:0.001 5:0.001 6:0.001 7:0.001 8:0.001 9:0.999 10:0.001 11:0.001 12:0.001 13:0.001 14:0.001 15:0.001 16:0.001 17:0.001 18:0.001 19:0.001 20:0.001 21:0.999 22:0.999 23:0.999 24:0.999 25:0.001 26:0.001 27:0.001 28:0.001 29:0.999 30:0.999 31:0.999 32:0.999 33:0.001 34:0.999 35:0.999 36:0.001 37:0.001 38:0.001 39:0.999 40:0.999 41:0.999 42:0.999 43:0.999 44:0.999 45:0.001 46:0.001 47:0.999 48:0.999 49:0.001 50:0.001 51:0.999 52:0.999 53:0.999 54:0.001 55:0.999 56:0.999 57:0.001 58:0.001 59:0.999 60:0.999 61:0.001 62:0.999 63:0.001 64:0.001 65:0.001 66:0.999 67:0.999 68:0.001 69:0.001 70:0.999 71:0.999 72:0.001 73:0.001 74:0.999 75:0.001 76:0.001 77:0.999 78:0.999 79:0.999 80:0.001 81:0.999 82:0.999 83:0.999 84:0.001 85:0.999 86:0.999 87:0.001 88:0.999 89:0.999 90:0.999 91:0.999 92:0.999 93:0.999 94:0.001 95:0.001 96:0.001 97:0.001 98:0.999 99:0.999 100:0.999 101:0.001 102:0.001 103:0.001 104:0.999 105:0.001 106:0.001 107:0.001 108:0.001 109:0.001 110:0.999 111:0.999 112:0.001 113:0.001 114:0.001 115:0.001 116:0.001 117:0.001 118:0.001 119:0.001 120:0.001 
-1 0.9221398598422836 0.4443373187981888 1 1 0 0.3672981635799908 1 0.2710443212942357 0.8376496688489425 0.3564466462486594 0.05171746394823939 0.2933873718556497 0.3653723545098189 0 0.2304523916058781 0 1 1:0.001 2:0.001 3:0.001 4:0.001 5:0.001 6:0.001 7:0.001 8:0.001 9:0.999 10:0.001 11:0.001 12:0.001 13:0.001 14:0.001 15:0.001 16:0.001 17:0.001 18:0.001 19:0.001 20:0.999 21:0.999 22:0.999 23:0.999 24:0.001 25:0.001 26:0.001 27:0.001 28:0.999 29:0.999 30:0.999 31:0.999 32:0.001 33:0.999 34:0.999 35:0.001 36:0.001 37:0.999 38:0.999 39:0.999 40:0.999 41:0.999 42:0.999 43:0.001 44:0.001 45:0.999 46:0.999 47:0.001 48:0.001 49:0.999 50:0.999 51:0.999 52:0.001 53:0.999 54:0.999 55:0.001 56:0.001 57:0.999 58:0.999 59:0.001 60:0.001 61:0.999 62:0.001 63:0.001 64:0.001 65:0.999 66:0.999 67:0.001 68:0.001 69:0.999 70:0.999 71:0.001 72:0.001 73:0.999 74:0.001 75:0.001 76:0.999 77:0.999 78:0.999 79:0.001 80:0.999 81:0.999 82:0.999 83:0.001 84:0.001 85:0.999 86:0.999 87:0.001 88:0.999 89:0.999 90:0.999 91:0.999 92:0.999 93:0.999 94:0.001 95:0.001 96:0.001 97:0.999 98:0.999 99:0.999 100:0.001 101:0.001 102:0.001 103:0.999 104:0.001 105:0.001 106:0.001 107:0.001 108:0.001 109:0.001 110:0.999 111:0.999 112:0.001 113:0.001 114:0.001 115:0.001 116:0.001 117:0.001 118:0.001 119:0.001 120:0.001 
-0.2624338386999076 0 0 0 0 0 0 0 0 0 0 0 0 0 0 0 0 0 1:0.001 2:0.001 3:0.001 4:0.001 5:0.001 6:0.001 7:0.001 8:0.001 9:0.001 10:0.001 11:0.001 12:0.001 13:0.001 14:0.001 15:0.001 16:0.001 17:0.001 18:0.001 19:0.999 20:0.999 21:0.001 22:0.001 23:0.001 24:0.001 25:0.001 26:0.999 27:0.999 28:0.999 29:0.999 30:0.999 31:0.999 32:0.999 33:0.999 34:0.999 35:0.999 36:0.001 37:0.999 38:0.999 39:0.999 40:0.999 41:0.999 42:0.999 43:0.001 44:0.001 45:0.999 46:0.999 47:0.001 48:0.001 49:0.001 50:0.999 51:0.001 52:0.001 53:0.001 54:0.999 55:0.999 56:0.001 57:0.001 58:0.999 59:0.999 60:0.001 61:0.999 62:0.001 63:0.001 64:0.001 65:0.999 66:0.999 67:0.001 68:0.001 69:0.999 70:0.999 71:0.001 72:0.001 73:0.999 74:0.999 75:0.001 76:0.999 77:0.999 78:0.999 79:0.001 80:0.001 81:0.999 82:0.999 83:0.001 84:0.001 85:0.999 86:0.999 87:0.999 88:0.999 89:0.999 90:0.999 91:0.999 92:0.999 93:0.999 94:0.999 95:0.001 96:0.001 97:0.001 98:0.999 99:0.999 100:0.001 101:0.001 102:0.001 103:0.999 104:0.999 105:0.999 106:0.001 107:0.001 108:0.001 109:0.001 110:0.001 111:0.001 112:0.001 113:0.001 114:0.001 115:0.001 116:0.001 117:0.001 118:0.001 119:0.001 120:0.001 
-0.1574684497847992 0 0 0 1 0 0 0 0 0 0 0 0 0 0 0 0 0 1:0.001 2:0.001 3:0.001 4:0.001 5:0.999 6:0.001 7:0.001 8:0.001 9:0.001 10:0.001 11:0.001 12:0.001 13:0.001 14:0.001 15:0.001 16:0.001 17:0.001 18:0.001 19:0.001 20:0.999 21:0.999 22:0.001 23:0.001 24:0.001 25:0.001 26:0.999 27:0.999 28:0.999 29:0.999 30:0.999 31:0.999 32:0.999 33:0.999 34:0.999 35:0.999 36:0.001 37:0.999 38:0.999 39:0.999 40:0.999 41:0.999 42:0.999 43:0.001 44:0.001 45:0.999 46:0.999 47:0.001 48:0.001 49:0.999 50:0.001 51:0.001 52:0.001 53:0.999 54:0.999 55:0.001 56:0.001 57:0.999 58:0.999 59:0.001 60:0.001 61:0.001 62:0.999 63:0.001 64:0.001 65:0.001 66:0.999 67:0.999 68:0.001 69:0.001 70:0.999 71:0.999 72:0.001 73:0.999 74:0.999 75:0.001 76:0.999 77:0.999 78:0.999 79:0.001 80:0.001 81:0.999 82:0.999 83:0.001 84:0.001 85:0.999 86:0.999 87:0.999 88:0.999 89:0.999 90:0.999 91:0.999 92:0.999 93:0.999 94:0.999 95:0.001 96:0.001 97:0.001 98:0.999 99:0.999 100:0.001 101:0.001 102:0.001 103:0.999 104:0.999 105:0.999 106:0.001 107:0.001 108:0.001 109:0.001 110:0.001 111:0.001 112:0.001 113:0.001 114:0.001 115:0.001 116:0.001 117:0.001 118:0.001 119:0.001 120:0.001 
-0 0 0 0 0.1629624135909933 0 0 0 0 0 0 0 0 0 0 0 0 0 1:0.001 2:0.001 3:0.001 4:0.001 5:0.001 6:0.001 7:0.001 8:0.001 9:0.001 10:0.001 11:0.001 12:0.001 13:0.001 14:0.001 15:0.001 16:0.001 17:0.001 18:0.001 19:0.001 20:0.999 21:0.999 22:0.001 23:0.001 24:0.001 25:0.001 26:0.999 27:0.999 28:0.999 29:0.999 30:0.999 31:0.999 32:0.999 33:0.999 34:0.999 35:0.999 36:0.001 37:0.999 38:0.999 39:0.999 40:0.999 41:0.999 42:0.999 43:0.001 44:0.001 45:0.999 46:0.999 47:0.001 48:0.001 49:0.999 50:0.001 51:0.001 52:0.001 53:0.999 54:0.999 55:0.001 56:0.001 57:0.999 58:0.999 59:0.001 60:0.001 61:0.001 62:0.999 63:0.001 64:0.001 65:0.001 66:0.999 67:0.999 68:0.001 69:0.001 70:0.999 71:0.999 72:0.001 73:0.999 74:0.999 75:0.001 76:0.999 77:0.999 78:0.999 79:0.001 80:0.001 81:0.999 82:0.999 83:0.001 84:0.001 85:0.999 86:0.999 87:0.999 88:0.999 89:0.999 90:0.999 91:0.999 92:0.999 93:0.999 94:0.999 95:0.001 96:0.001 97:0.001 98:0.999 99:0.999 100:0.001 101:0.001 102:0.001 103:0.999 104:0.999 105:0.999 106:0.001 107:0.001 108:0.001 109:0.001 110:0.001 111:0.001 112:0.001 113:0.001 114:0.001 115:0.001 116:0.001 117:0.001 118:0.001 119:0.001 120:0.001 
-0 0 0 0 1 0 0 0 0 0 0 0 0 0 0 0 0 0.8698146563262796 1:0.001 2:0.001 3:0.001 4:0.001 5:0.001 6:0.001 7:0.001 8:0.001 9:0.001 10:0.001 11:0.001 12:0.001 13:0.001 14:0.001 15:0.001 16:0.001 17:0.001 18:0.001 19:0.001 20:0.001 21:0.999 22:0.999 23:0.001 24:0.001 25:0.001 26:0.999 27:0.999 28:0.999 29:0.999 30:0.999 31:0.999 32:0.999 33:0.999 34:0.999 35:0.999 36:0.001 37:0.001 38:0.999 39:0.999 40:0.999 41:0.999 42:0.999 43:0.999 44:0.001 45:0.001 46:0.999 47:0.999 48:0.001 49:0.001 50:0.999 51:0.001 52:0.001 53:0.001 54:0.999 55:0.999 56:0.001 57:0.001 58:0.999 59:0.999 60:0.001 61:0.001 62:0.999 63:0.001 64:0.001 65:0.001 66:0.999 67:0.999 68:0.001 69:0.001 70:0.999 71:0.999 72:0.001 73:0.999 74:0.999 75:0.001 76:0.999 77:0.999 78:0.999 79:0.001 80:0.001 81:0.999 82:0.999 83:0.001 84:0.001 85:0.001 86:0.999 87:0.999 88:0.999 89:0.999 90:0.999 91:0.999 92:0.999 93:0.999 94:0.999 95:0.999 96:0.001 97:0.001 98:0.001 99:0.999 100:0.999 101:0.001 102:0.001 103:0.001 104:0.999 105:0.999 106:0.999 107:0.001 108:0.001 109:0.001 110:0.001 111:0.001 112:0.001 113:0.001 114:0.001 115:0.001 116:0.001 117:0.001 118:0.001 119:0.001 120:0.001 
-0.0341593061245754 0 0 0 0 0 0 0 0.1971478770158562 0 0 0 0 0 0 0 0 0 1:0.001 2:0.001 3:0.001 4:0.001 5:0.001 6:0.001 7:0.999 8:0.001 9:0.001 10:0.001 11:0.001 12:0.001 13:0.001 14:0.001 15:0.001 16:0.001 17:0.001 18:0.999 19:0.999 20:0.999 21:0.999 22:0.001 23:0.001 24:0.001 25:0.001 26:0.001 27:0.999 28:0.999 29:0.999 30:0.999 31:0.001 32:0.999 33:0.999 34:0.001 35:0.001 36:0.001 37:0.999 38:0.999 39:0.999 40:0.999 41:0.999 42:0.999 43:0.001 44:0.001 45:0.999 46:0.999 47:0.001 48:0.001 49:0.999 50:0.999 51:0.999 52:0.001 53:0.999 54:0.999 55:0.001 56:0.001 57:0.999 58:0.999 59:0.001 60:0.001 61:0.001 62:0.999 63:0.001 64:0.001 65:0.001 66:0.999 67:0.999 68:0.001 69:0.001 70:0.999 71:0.999 72:0.001 73:0.001 74:0.999 75:0.001 76:0.001 77:0.999 78:0.999 79:0.999 80:0.001 81:0.999 82:0.999 83:0.999 84:0.001 85:0.999 86:0.999 87:0.001 88:0.999 89:0.999 90:0.999 91:0.999 92:0.999 93:0.999 94:0.001 95:0.001 96:0.001 97:0.001 98:0.999 99:0.999 100:0.999 101:0.001 102:0.001 103:0.001 104:0.999 105:0.001 106:0.001 107:0.001 108:0.001 109:0.001 110:0.001 111:0.999 112:0.999 113:0.001 114:0.001 115:0.001 116:0.001 117:0.001 118:0.001 119:0.001 120:0.001 
-0 0 0 0 0 0 0 0.4327639672678052 0 0 0 0 0 0 0 0 0 0 1:0.001 2:0.001 3:0.001 4:0.001 5:0.001 6:0.001 7:0.001 8:0.001 9:0.001 10:0.001 11:0.001 12:0.001 13:0.001 14:0.001 15:0.001 16:0.001 17:0.001 18:0.999 19:0.999 20:0.001 21:0.001 22:0.001 23:0.001 24:0.001 25:0.999 26:0.999 27:0.999 28:0.999 29:0.999 30:0.999 31:0.999 32:0.999 33:0.999 34:0.001 35:0.001 36:0.001 37:0.999 38:0.999 39:0.999 40:0.999 41:0.999 42:0.999 43:0.001 44:0.001 45:0.999 46:0.999 47:0.001 48:0.001 49:0.999 50:0.001 51:0.001 52:0.001 53:0.999 54:0.999 55:0.001 56:0.001 57:0.999 58:0.999 59:0.001 60:0.001 61:0.001 62:0.999 63:0.001 64:0.001 65:0.001 66:0.999 67:0.999 68:0.001 69:0.001 70:0.999 71:0.999 72:0.001 73:0.999 74:0.999 75:0.001 76:0.999 77:0.999 78:0.999 79:0.001 80:0.001 81:0.999 82:0.999 83:0.001 84:0.001 85:0.999 86:0.999 87:0.999 88:0.999 89:0.999 90:0.999 91:0.999 92:0.999 93:0.999 94:0.999 95:0.001 96:0.001 97:0.001 98:0.001 99:0.999 100:0.999 101:0.001 102:0.001 103:0.001 104:0.999 105:0.999 106:0.999 107:0.001 108:0.001 109:0.001 110:0.001 111:0.001 112:0.001 113:0.001 114:0.001 115:0.001 116:0.001 117:0.001 118:0.001 119:0.001 120:0.001 
-0 0 0 0 0.9288537992898844 0.5866117621438656 0 0.01234155062293807 0 0 0 0 0 0 0 0 0 0 1:0.001 2:0.001 3:0.001 4:0.001 5:0.001 6:0.001 7:0.001 8:0.001 9:0.001 10:0.001 11:0.001 12:0.001 13:0.001 14:0.001 15:0.001 16:0.001 17:0.001 18:0.001 19:0.999 20:0.999 21:0.001 22:0.001 23:0.001 24:0.001 25:0.999 26:0.999 27:0.999 28:0.999 29:0.999 30:0.999 31:0.999 32:0.999 33:0.999 34:0.999 35:0.001 36:0.001 37:0.999 38:0.999 39:0.999 40:0.999 41:0.999 42:0.999 43:0.001 44:0.001 45:0.999 46:0.999 47:0.001 48:0.001 49:0.999 50:0.001 51:0.001 52:0.001 53:0.999 54:0.999 55:0.001 56:0.001 57:0.999 58:0.999 59:0.001 60:0.001 61:0.001 62:0.999 63:0.001 64:0.001 65:0.001 66:0.999 67:0.999 68:0.001 69:0.001 70:0.999 71:0.999 72:0.001 73:0.001 74:0.001 75:0.999 76:0.999 77:0.001 78:0.999 79:0.999 80:0.999 81:0.001 82:0.001 83:0.999 84:0.999 85:0.001 86:0.001 87:0.999 88:0.999 89:0.999 90:0.999 91:0.999 92:0.999 93:0.999 94:0.999 95:0.999 96:0.999 97:0.001 98:0.001 99:0.001 100:0.001 101:0.999 102:0.999 103:0.001 104:0.001 105:0.001 106:0.999 107:0.999 108:0.999 109:0.001 110:0.001 111:0.001 112:0.001 113:0.001 114:0.001 115:0.001 116:0.001 117:0.001 118:0.001 119:0.001 120:0.001 
-0 0 0.5756775146888107 0.7385934394390464 1 0.7541242148941745 0 1 0.4238432524719022 0.2693048123961611 0 0.06270606148146401 0.3083775486667613 0.01836927219111218 0.1195917339208679 0.1904289622070926 0.6844065183526744 0 1:0.001 2:0.001 3:0.001 4:0.001 5:0.001 6:0.001 7:0.001 8:0.001 9:0.001 10:0.001 11:0.001 12:0.001 13:0.001 14:0.001 15:0.001 16:0.001 17:0.001 18:0.999 19:0.999 20:0.001 21:0.001 22:0.001 23:0.001 24:0.001 25:0.999 26:0.999 27:0.999 28:0.999 29:0.999 30:0.999 31:0.999 32:0.999 33:0.999 34:0.001 35:0.001 36:0.001 37:0.999 38:0.999 39:0.999 40:0.999 41:0.999 42:0.999 43:0.001 44:0.001 45:0.999 46:0.999 47:0.001 48:0.001 49:0.999 50:0.001 51:0.001 52:0.001 53:0.999 54:0.999 55:0.001 56:0.001 57:0.999 58:0.999 59:0.001 60:0.001 61:0.999 62:0.001 63:0.001 64:0.001 65:0.999 66:0.999 67:0.001 68:0.001 69:0.999 70:0.999 71:0.001 72:0.001 73:0.999 74:0.999 75:0.001 76:0.999 77:0.999 78:0.999 79:0.001 80:0.001 81:0.001 82:0.999 83:0.001 84:0.001 85:0.001 86:0.999 87:0.999 88:0.999 89:0.999 90:0.999 91:0.999 92:0.999 93:0.999 94:0.999 95:0.999 96:0.001 97:0.001 98:0.999 99:0.999 100:0.001 101:0.001 102:0.001 103:0.999 104:0.999 105:0.999 106:0.001 107:0.001 108:0.001 109:0.001 110:0.001 111:0.001 112:0.001 113:0.001 114:0.001 115:0.001 116:0.001 117:0.001 118:0.001 119:0.001 120:0.001 
-0.01674033376319729 0 1 1 1 0.451835165167303 0 0 0.7759409536954043 0.3804984558635897 0 0 0.2558293874846472 0 0.5789277165561816 0.09689354807946714 0.1155388429155918 1 1:0.001 2:0.001 3:0.001 4:0.001 5:0.001 6:0.001 7:0.001 8:0.001 9:0.001 10:0.001 11:0.001 12:0.001 13:0.001 14:0.001 15:0.001 16:0.001 17:0.001 18:0.001 19:0.001 20:0.999 21:0.999 22:0.001 23:0.001 24:0.001 25:0.001 26:0.999 27:0.999 28:0.999 29:0.999 30:0.999 31:0.999 32:0.001 33:0.999 34:0.999 35:0.999 36:0.001 37:0.001 38:0.999 39:0.001 40:0.999 41:0.999 42:0.999 43:0.999 44:0.001 45:0.001 46:0.999 47:0.999 48:0.001 49:0.999 50:0.001 51:0.001 52:0.001 53:0.999 54:0.999 55:0.001 56:0.001 57:0.999 58:0.999 59:0.001 60:0.001 61:0.999 62:0.001 63:0.001 64:0.001 65:0.999 66:0.999 67:0.001 68:0.001 69:0.999 70:0.999 71:0.001 72:0.001 73:0.999 74:0.999 75:0.001 76:0.999 77:0.999 78:0.999 79:0.001 80:0.001 81:0.999 82:0.999 83:0.001 84:0.001 85:0.999 86:0.999 87:0.999 88:0.999 89:0.999 90:0.999 91:0.999 92:0.999 93:0.999 94:0.999 95:0.001 96:0.001 97:0.001 98:0.999 99:0.999 100:0.001 101:0.001 102:0.001 103:0.999 104:0.999 105:0.999 106:0.001 107:0.001 108:0.001 109:0.001 110:0.001 111:0.001 112:0.001 113:0.001 114:0.001 115:0.001 116:0.001 117:0.001 118:0.001 119:0.001 120:0.001 
-0.3301218989356858 1 0.17741215896516 0 0 0 0.6236984905684825 0.6002422337693438 0.3397134431885846 0 0.3035874172955149 0.8836552375876114 0.5812774314811714 1 0.08189795685850997 0.7916337226379231 0.616913810605203 0 1:0.001 2:0.001 3:0.001 4:0.001 5:0.001 6:0.001 7:0.999 8:0.001 9:0.001 10:0.001 11:0.001 12:0.001 13:0.001 14:0.001 15:0.001 16:0.001 17:0.001 18:0.999 19:0.999 20:0.999 21:0.999 22:0.001 23:0.001 24:0.001 25:0.001 26:0.001 27:0.999 28:0.999 29:0.999 30:0.999 31:0.001 32:0.999 33:0.999 34:0.001 35:0.001 36:0.001 37:0.999 38:0.999 39:0.999 40:0.999 41:0.999 42:0.999 43:0.001 44:0.001 45:0.999 46:0.999 47:0.001 48:0.001 49:0.999 50:0.999 51:0.999 52:0.001 53:0.999 54:0.999 55:0.001 56:0.001 57:0.999 58:0.999 59:0.001 60:0.001 61:0.001 62:0.999 63:0.001 64:0.001 65:0.001 66:0.999 67:0.999 68:0.001 69:0.001 70:0.999 71:0.999 72:0.001 73:0.999 74:0.001 75:0.001 76:0.999 77:0.999 78:0.999 79:0.001 80:0.999 81:0.999 82:0.999 83:0.001 84:0.001 85:0.001 86:0.999 87:0.999 88:0.001 89:0.999 90:0.999 91:0.999 92:0.999 93:0.999 94:0.999 95:0.001 96:0.001 97:0.001 98:0.999 99:0.999 100:0.999 101:0.001 102:0.001 103:0.001 104:0.999 105:0.001 106:0.001 107:0.001 108:0.001 109:0.001 110:0.999 111:0.999 112:0.001 113:0.001 114:0.001 115:0.001 116:0.001 117:0.999 118:0.999 119:0.001 120:0.001 
-0 0 0 0 0 0 0 0 0 0 0 0 0 0.2102767822349134 0 0 0 0 1:0.001 2:0.001 3:0.001 4:0.001 5:0.001 6:0.001 7:0.999 8:0.001 9:0.001 10:0.001 11:0.001 12:0.001 13:0.001 14:0.001 15:0.001 16:0.001 17:0.001 18:0.999 19:0.999 20:0.999 21:0.999 22:0.001 23:0.001 24:0.001 25:0.001 26:0.001 27:0.001 28:0.999 29:0.999 30:0.999 31:0.999 32:0.001 33:0.999 34:0.999 35:0.001 36:0.001 37:0.999 38:0.999 39:0.999 40:0.999 41:0.999 42:0.999 43:0.001 44:0.001 45:0.999 46:0.999 47:0.001 48:0.001 49:0.001 50:0.999 51:0.999 52:0.999 53:0.001 54:0.999 55:0.999 56:0.001 57:0.001 58:0.999 59:0.999 60:0.001 61:0.001 62:0.999 63:0.001 64:0.001 65:0.001 66:0.999 67:0.999 68:0.001 69:0.001 70:0.999 71:0.999 72:0.001 73:0.001 74:0.999 75:0.001 76:0.001 77:0.999 78:0.999 79:0.999 80:0.001 81:0.999 82:0.999 83:0.999 84:0.001 85:0.001 86:0.999 87:0.999 88:0.001 89:0.999 90:0.999 91:0.999 92:0.999 93:0.999 94:0.999 95:0.001 96:0.001 97:0.001 98:0.999 99:0.999 100:0.999 101:0.001 102:0.001 103:0.001 104:0.999 105:0.001 106:0.001 107:0.001 108:0.001 109:0.001 110:0.001 111:0.001 112:0.999 113:0.999 114:0.001 115:0.001 116:0.001 117:0.001 118:0.001 119:0.999 120:0.999 
-0.9462470773980711 0 0 0.4799689346300973 0 0 0 0 0.721876459375441 0 0 0 0 0 0 0 0 0.5431200141903335 1:0.001 2:0.001 3:0.001 4:0.001 5:0.001 6:0.001 7:0.001 8:0.001 9:0.001 10:0.001 11:0.001 12:0.001 13:0.001 14:0.001 15:0.001 16:0.001 17:0.001 18:0.999 19:0.999 20:0.001 21:0.001 22:0.001 23:0.001 24:0.001 25:0.999 26:0.999 27:0.999 28:0.999 29:0.999 30:0.999 31:0.999 32:0.999 33:0.999 34:0.001 35:0.001 36:0.001 37:0.999 38:0.999 39:0.999 40:0.999 41:0.999 42:0.999 43:0.001 44:0.001 45:0.999 46:0.999 47:0.001 48:0.001 49:0.999 50:0.001 51:0.001 52:0.001 53:0.999 54:0.999 55:0.001 56:0.001 57:0.999 58:0.999 59:0.001 60:0.001 61:0.001 62:0.999 63:0.001 64:0.001 65:0.001 66:0.999 67:0.999 68:0.001 69:0.001 70:0.999 71:0.999 72:0.001 73:0.999 74:0.999 75:0.001 76:0.999 77:0.999 78:0.999 79:0.001 80:0.001 81:0.999 82:0.999 83:0.001 84:0.001 85:0.999 86:0.999 87:0.999 88:0.999 89:0.999 90:0.999 91:0.999 92:0.999 93:0.999 94:0.999 95:0.001 96:0.001 97:0.001 98:0.001 99:0.999 100:0.999 101:0.001 102:0.001 103:0.001 104:0.001 105:0.999 106:0.999 107:0.001 108:0.001 109:0.001 110:0.001 111:0.001 112:0.001 113:0.001 114:0.001 115:0.001 116:0.001 117:0.001 118:0.001 119:0.001 120:0.001 
-0.879997182286803 0 1 0.2540933274620678 1 0 0 0 0.9893321133037125 0 1 0.6374056591967762 0 0.4483973358873298 0.4737084601899028 1 0 0 1:0.001 2:0.001 3:0.001 4:0.001 5:0.001 6:0.001 7:0.001 8:0.001 9:0.001 10:0.001 11:0.001 12:0.001 13:0.001 14:0.001 15:0.001 16:0.001 17:0.001 18:0.001 19:0.999 20:0.999 21:0.001 22:0.001 23:0.001 24:0.001 25:0.999 26:0.999 27:0.999 28:0.999 29:0.999 30:0.999 31:0.999 32:0.999 33:0.999 34:0.999 35:0.001 36:0.001 37:0.001 38:0.999 39:0.999 40:0.999 41:0.999 42:0.999 43:0.999 44:0.001 45:0.001 46:0.999 47:0.999 48:0.001 49:0.001 50:0.999 51:0.001 52:0.001 53:0.001 54:0.999 55:0.999 56:0.001 57:0.001 58:0.999 59:0.999 60:0.001 61:0.001 62:0.001 63:0.999 64:0.001 65:0.001 66:0.001 67:0.999 68:0.999 69:0.001 70:0.001 71:0.999 72:0.999 73:0.001 74:0.999 75:0.999 76:0.001 77:0.999 78:0.999 79:0.999 80:0.001 81:0.001 82:0.999 83:0.999 84:0.001 85:0.001 86:0.999 87:0.999 88:0.999 89:0.999 90:0.999 91:0.999 92:0.999 93:0.999 94:0.999 95:0.999 96:0.001 97:0.001 98:0.001 99:0.001 100:0.999 101:0.999 102:0.001 103:0.001 104:0.001 105:0.999 106:0.999 107:0.999 108:0.001 109:0.001 110:0.001 111:0.001 112:0.001 113:0.001 114:0.001 115:0.001 116:0.001 117:0.001 118:0.001 119:0.001 120:0.001 
-0 0.1874156467310871 0 0.1855052639311529 0.877935782233865 1 0.6633325326637385 0.02934808411334634 0 0.02872965315346392 1 0.6210865923391077 0.2300651295853542 0.9043278019242091 0.2685725496768622 0 0 0 1:0.001 2:0.001 3:0.001 4:0.001 5:0.001 6:0.001 7:0.001 8:0.001 9:0.001 10:0.001 11:0.001 12:0.001 13:0.001 14:0.001 15:0.001 16:0.001 17:0.001 18:0.001 19:0.999 20:0.999 21:0.001 22:0.001 23:0.001 24:0.001 25:0.999 26:0.999 27:0.999 28:0.999 29:0.999 30:0.999 31:0.999 32:0.999 33:0.999 34:0.999 35:0.001 36:0.001 37:0.001 38:0.999 39:0.999 40:0.999 41:0.999 42:0.999 43:0.999 44:0.001 45:0.001 46:0.999 47:0.999 48:0.001 49:0.001 50:0.999 51:0.001 52:0.001 53:0.001 54:0.999 55:0.999 56:0.001 57:0.001 58:0.999 59:0.999 60:0.001 61:0.001 62:0.001 63:0.999 64:0.001 65:0.001 66:0.001 67:0.999 68:0.999 69:0.001 70:0.001 71:0.999 72:0.999 73:0.001 74:0.999 75:0.999 76:0.001 77:0.999 78:0.999 79:0.999 80:0.001 81:0.001 82:0.999 83:0.999 84:0.001 85:0.001 86:0.001 87:0.999 88:0.999 89:0.999 90:0.999 91:0.999 92:0.999 93:0.999 94:0.999 95:0.999 96:0.999 97:0.001 98:0.001 99:0.001 100:0.999 101:0.999 102:0.001 103:0.001 104:0.001 105:0.999 106:0.999 107:0.999 108:0.001 109:0.001 110:0.001 111:0.001 112:0.001 113:0.001 114:0.001 115:0.001 116:0.001 117:0.001 118:0.001 119:0.001 120:0.001 
-0.1579911497851795 0 0 0 0 0 0.3314542049350981 0 0 0 0 0.2842346191124124 0 0 0 0 0 0.5858063778096342 1:0.001 2:0.001 3:0.001 4:0.001 5:0.001 6:0.001 7:0.001 8:0.001 9:0.999 10:0.001 11:0.001 12:0.001 13:0.001 14:0.001 15:0.001 16:0.001 17:0.001 18:0.001 19:0.001 20:0.999 21:0.999 22:0.999 23:0.999 24:0.001 25:0.001 26:0.001 27:0.001 28:0.001 29:0.999 30:0.999 31:0.999 32:0.999 33:0.001 34:0.999 35:0.999 36:0.001 37:0.999 38:0.999 39:0.999 40:0.999 41:0.999 42:0.999 43:0.001 44:0.001 45:0.999 46:0.999 47:0.001 48:0.001 49:0.999 50:0.999 51:0.999 52:0.001 53:0.999 54:0.999 55:0.001 56:0.001 57:0.999 58:0.999 59:0.001 60:0.001 61:0.001 62:0.999 63:0.001 64:0.001 65:0.001 66:0.999 67:0.999 68:0.001 69:0.001 70:0.999 71:0.999 72:0.001 73:0.999 74:0.001 75:0.001 76:0.999 77:0.999 78:0.999 79:0.001 80:0.999 81:0.999 82:0.999 83:0.001 84:0.001 85:0.999 86:0.999 87:0.001 88:0.999 89:0.999 90:0.999 91:0.999 92:0.999 93:0.999 94:0.001 95:0.001 96:0.001 97:0.001 98:0.999 99:0.999 100:0.999 101:0.001 102:0.001 103:0.001 104:0.999 105:0.001 106:0.001 107:0.001 108:0.001 109:0.001 110:0.999 111:0.999 112:0.001 113:0.001 114:0.001 115:0.001 116:0.001 117:0.001 118:0.001 119:0.001 120:0.001 
-0 0.5705168386980455 0 0 0 0 0 0 0 0 0 0 0 0 0 0 0 0 1:0.001 2:0.001 3:0.001 4:0.001 5:0.001 6:0.001 7:0.001 8:0.001 9:0.001 10:0.001 11:0.001 12:0.001 13:0.001 14:0.001 15:0.001 16:0.001 17:0.001 18:0.001 19:0.999 20:0.999 21:0.001 22:0.001 23:0.001 24:0.001 25:0.999 26:0.999 27:0.999 28:0.999 29:0.999 30:0.999 31:0.999 32:0.999 33:0.999 34:0.999 35:0.001 36:0.001 37:0.001 38:0.999 39:0.999 40:0.999 41:0.999 42:0.999 43:0.999 44:0.001 45:0.001 46:0.999 47:0.999 48:0.001 49:0.001 50:0.999 51:0.001 52:0.001 53:0.001 54:0.999 55:0.999 56:0.001 57:0.001 58:0.999 59:0.999 60:0.001 61:0.001 62:0.999 63:0.001 64:0.001 65:0.001 66:0.999 67:0.999 68:0.001 69:0.001 70:0.999 71:0.999 72:0.001 73:0.001 74:0.001 75:0.999 76:0.999 77:0.001 78:0.999 79:0.999 80:0.999 81:0.001 82:0.001 83:0.999 84:0.999 85:0.001 86:0.999 87:0.999 88:0.999 89:0.999 90:0.999 91:0.999 92:0.999 93:0.999 94:0.999 95:0.999 96:0.001 97:0.001 98:0.001 99:0.001 100:0.999 101:0.999 102:0.001 103:0.001 104:0.001 105:0.999 106:0.999 107:0.999 108:0.001 109:0.001 110:0.001 111:0.001 112:0.001 113:0.001 114:0.001 115:0.001 116:0.001 117:0.001 118:0.001 119:0.001 120:0.001 
-0 0 0 0 0 0 0 0.1867027534393499 0 0 0 0 0 0 0 0 0 0 1:0.001 2:0.001 3:0.001 4:0.001 5:0.001 6:0.001 7:0.001 8:0.001 9:0.001 10:0.001 11:0.001 12:0.001 13:0.001 14:0.001 15:0.001 16:0.001 17:0.001 18:0.001 19:0.999 20:0.999 21:0.001 22:0.001 23:0.001 24:0.001 25:0.001 26:0.999 27:0.999 28:0.999 29:0.999 30:0.999 31:0.999 32:0.999 33:0.999 34:0.999 35:0.999 36:0.001 37:0.999 38:0.999 39:0.999 40:0.999 41:0.999 42:0.999 43:0.001 44:0.001 45:0.999 46:0.999 47:0.001 48:0.001 49:0.999 50:0.001 51:0.001 52:0.001 53:0.999 54:0.999 55:0.001 56:0.001 57:0.999 58:0.999 59:0.001 60:0.001 61:0.999 62:0.001 63:0.001 64:0.001 65:0.999 66:0.999 67:0.001 68:0.001 69:0.999 70:0.999 71:0.001 72:0.001 73:0.999 74:0.999 75:0.001 76:0.999 77:0.999 78:0.999 79:0.001 80:0.001 81:0.999 82:0.999 83:0.001 84:0.001 85:0.999 86:0.999 87:0.999 88:0.999 89:0.999 90:0.999 91:0.999 92:0.999 93:0.999 94:0.999 95:0.001 96:0.001 97:0.001 98:0.999 99:0.999 100:0.001 101:0.001 102:0.001 103:0.999 104:0.999 105:0.999 106:0.001 107:0.001 108:0.001 109:0.001 110:0.001 111:0.001 112:0.001 113:0.001 114:0.001 115:0.001 116:0.001 117:0.001 118:0.001 119:0.001 120:0.001 
-0 0.09442519501504862 0 0 1 0 1 1 0 0 0.838738843066913 1 0.6984768581406553 1 1 0 0 0.7698181560395017 1:0.001 2:0.001 3:0.001 4:0.001 5:0.001 6:0.001 7:0.001 8:0.001 9:0.001 10:0.001 11:0.001 12:0.001 13:0.001 14:0.001 15:0.001 16:0.001 17:0.001 18:0.999 19:0.999 20:0.001 21:0.001 22:0.001 23:0.001 24:0.001 25:0.999 26:0.999 27:0.999 28:0.999 29:0.999 30:0.999 31:0.999 32:0.999 33:0.999 34:0.001 35:0.001 36:0.001 37:0.999 38:0.999 39:0.999 40:0.999 41:0.999 42:0.999 43:0.001 44:0.001 45:0.999 46:0.999 47:0.001 48:0.001 49:0.999 50:0.001 51:0.001 52:0.001 53:0.999 54:0.999 55:0.001 56:0.001 57:0.999 58:0.999 59:0.001 60:0.001 61:0.999 62:0.001 63:0.001 64:0.001 65:0.999 66:0.999 67:0.001 68:0.001 69:0.999 70:0.999 71:0.001 72:0.001 73:0.999 74:0.999 75:0.001 76:0.999 77:0.999 78:0.999 79:0.001 80:0.001 81:0.999 82:0.999 83:0.001 84:0.001 85:0.001 86:0.999 87:0.999 88:0.999 89:0.999 90:0.999 91:0.999 92:0.999 93:0.999 94:0.999 95:0.999 96:0.001 97:0.001 98:0.999 99:0.999 100:0.001 101:0.001 102:0.001 103:0.999 104:0.999 105:0.999 106:0.001 107:0.001 108:0.001 109:0.001 110:0.001 111:0.001 112:0.001 113:0.001 114:0.001 115:0.001 116:0.001 117:0.001 118:0.001 119:0.001 120:0.001 
-0.2014867891105803 0.4620741073250368 0 0.2073188540759984 0.1146496066642434 0.1332599839033442 0 1 0.2446321982983903 0 0 0.4049624267988866 0 0.3656576895214129 0.3280286002425272 0 0 0.400143307175316 1:0.001 2:0.001 3:0.001 4:0.001 5:0.001 6:0.001 7:0.001 8:0.001 9:0.001 10:0.001 11:0.001 12:0.001 13:0.001 14:0.001 15:0.001 16:0.001 17:0.001 18:0.001 19:0.001 20:0.999 21:0.999 22:0.001 23:0.001 24:0.001 25:0.001 26:0.999 27:0.999 28:0.999 29:0.999 30:0.999 31:0.999 32:0.999 33:0.999 34:0.999 35:0.999 36:0.001 37:0.001 38:0.999 39:0.999 40:0.999 41:0.999 42:0.999 43:0.999 44:0.001 45:0.001 46:0.999 47:0.999 48:0.001 49:0.001 50:0.999 51:0.001 52:0.001 53:0.001 54:0.999 55:0.999 56:0.001 57:0.001 58:0.999 59:0.999 60:0.001 61:0.999 62:0.001 63:0.001 64:0.001 65:0.999 66:0.999 67:0.001 68:0.001 69:0.999 70:0.999 71:0.001 72:0.001 73:0.001 74:0.999 75:0.999 76:0.001 77:0.999 78:0.999 79:0.999 80:0.001 81:0.001 82:0.999 83:0.999 84:0.001 85:0.001 86:0.001 87:0.999 88:0.999 89:0.999 90:0.999 91:0.999 92:0.999 93:0.999 94:0.999 95:0.999 96:0.001 97:0.001 98:0.001 99:0.999 100:0.001 101:0.001 102:0.001 103:0.999 104:0.999 105:0.001 106:0.001 107:0.001 108:0.001 109:0.001 110:0.001 111:0.001 112:0.001 113:0.001 114:0.001 115:0.001 116:0.001 117:0.001 118:0.001 119:0.001 120:0.001 
-0.3297511921742031 1 0.7873396872269781 1 1 0.6020683239504452 0.7331484892605122 0.9884202353149528 0.4487143741926073 1 0.5724087357694665 0.5816634334967544 0.9285400918326203 0.5066379649709842 0.4915326064889812 0.5253213796371132 0.3662905106277454 0.8312074195848841 1:0.001 2:0.001 3:0.001 4:0.001 5:0.001 6:0.001 7:0.001 8:0.001 9:0.001 10:0.001 11:0.001 12:0.001 13:0.001 14:0.001 15:0.001 16:0.001 17:0.001 18:0.001 19:0.999 20:0.999 21:0.001 22:0.001 23:0.001 24:0.001 25:0.999 26:0.999 27:0.999 28:0.999 29:0.999 30:0.999 31:0.999 32:0.999 33:0.999 34:0.999 35:0.001 36:0.001 37:0.001 38:0.999 39:0.999 40:0.999 41:0.999 42:0.999 43:0.999 44:0.001 45:0.001 46:0.999 47:0.999 48:0.001 49:0.001 50:0.999 51:0.001 52:0.001 53:0.001 54:0.999 55:0.999 56:0.001 57:0.001 58:0.999 59:0.999 60:0.001 61:0.001 62:0.001 63:0.999 64:0.001 65:0.001 66:0.001 67:0.999 68:0.999 69:0.001 70:0.001 71:0.999 72:0.999 73:0.001 74:0.999 75:0.999 76:0.001 77:0.999 78:0.999 79:0.999 80:0.001 81:0.001 82:0.999 83:0.999 84:0.001 85:0.001 86:0.001 87:0.999 88:0.999 89:0.999 90:0.999 91:0.999 92:0.999 93:0.999 94:0.999 95:0.999 96:0.999 97:0.001 98:0.001 99:0.001 100:0.999 101:0.999 102:0.001 103:0.001 104:0.001 105:0.999 106:0.999 107:0.999 108:0.001 109:0.001 110:0.001 111:0.001 112:0.001 113:0.001 114:0.001 115:0.001 116:0.001 117:0.001 118:0.001 119:0.001 120:0.001 
-0 0 0.7609514665024266 0 0.8827238106364367 0 0 1 0 0.1967183610252775 0 0 0.3712030056404341 0.2975708164602558 0.3111906155996657 0 0.2278976799110159 0 1:0.001 2:0.001 3:0.001 4:0.001 5:0.001 6:0.001 7:0.999 8:0.001 9:0.001 10:0.001 11:0.001 12:0.001 13:0.001 14:0.001 15:0.001 16:0.001 17:0.001 18:0.001 19:0.999 20:0.999 21:0.999 22:0.999 23:0.001 24:0.001 25:0.001 26:0.001 27:0.001 28:0.999 29:0.999 30:0.999 31:0.999 32:0.001 33:0.999 34:0.999 35:0.001 36:0.001 37:0.001 38:0.999 39:0.999 40:0.999 41:0.999 42:0.999 43:0.999 44:0.001 45:0.001 46:0.999 47:0.999 48:0.001 49:0.001 50:0.999 51:0.999 52:0.999 53:0.001 54:0.999 55:0.999 56:0.001 57:0.001 58:0.999 59:0.999 60:0.001 61:0.999 62:0.001 63:0.001 64:0.001 65:0.999 66:0.999 67:0.001 68:0.001 69:0.999 70:0.999 71:0.001 72:0.001 73:0.001 74:0.999 75:0.001 76:0.001 77:0.999 78:0.999 79:0.999 80:0.001 81:0.999 82:0.999 83:0.999 84:0.001 85:0.001 86:0.999 87:0.999 88:0.001 89:0.999 90:0.999 91:0.999 92:0.999 93:0.999 94:0.999 95:0.001 96:0.001 97:0.999 98:0.999 99:0.999 100:0.001 101:0.001 102:0.001 103:0.999 104:0.001 105:0.001 106:0.001 107:0.001 108:0.001 109:0.001 110:0.999 111:0.999 112:0.001 113:0.001 114:0.001 115:0.001 116:0.001 117:0.999 118:0.999 119:0.001 120:0.001 
-1 1 1 1 1 0.3813180270047936 1 1 1 1 1 1 1 1 1 1 1 1 1:0.001 2:0.001 3:0.001 4:0.001 5:0.001 6:0.999 7:0.001 8:0.001 9:0.001 10:0.001 11:0.001 12:0.001 13:0.001 14:0.001 15:0.001 16:0.001 17:0.999 18:0.999 19:0.999 20:0.999 21:0.001 22:0.001 23:0.001 24:0.001 25:0.001 26:0.999 27:0.999 28:0.999 29:0.999 30:0.001 31:0.999 32:0.999 33:0.001 34:0.001 35:0.001 36:0.001 37:0.999 38:0.999 39:0.999 40:0.999 41:0.999 42:0.001 43:0.001 44:0.999 45:0.999 46:0.001 47:0.001 48:0.001 49:0.999 50:0.999 51:0.001 52:0.999 53:0.999 54:0.001 55:0.001 56:0.999 57:0.999 58:0.001 59:0.001 60:0.001 61:0.999 62:0.001 63:0.001 64:0.001 65:0.999 66:0.999 67:0.001 68:0.001 69:0.999 70:0.999 71:0.001 72:0.001 73:0.001 74:0.001 75:0.999 76:0.999 77:0.999 78:0.001 79:0.999 80:0.999 81:0.999 82:0.001 83:0.001 84:0.001 85:0.999 86:0.999 87:0.001 88:0.999 89:0.999 90:0.999 91:0.999 92:0.999 93:0.999 94:0.001 95:0.001 96:0.001 97:0.999 98:0.999 99:0.999 100:0.001 101:0.001 102:0.001 103:0.999 104:0.001 105:0.001 106:0.001 107:0.001 108:0.001 109:0.001 110:0.001 111:0.999 112:0.999 113:0.001 114:0.001 115:0.001 116:0.001 117:0.001 118:0.001 119:0.001 120:0.001 
-0 0 0 0 0.01145876206296634 0 0 0 0 0 0 0 0 0 0 0 0 0 1:0.001 2:0.001 3:0.001 4:0.001 5:0.001 6:0.001 7:0.001 8:0.001 9:0.001 10:0.001 11:0.001 12:0.001 13:0.001 14:0.001 15:0.001 16:0.001 17:0.001 18:0.001 19:0.999 20:0.999 21:0.001 22:0.001 23:0.001 24:0.001 25:0.001 26:0.999 27:0.999 28:0.999 29:0.999 30:0.999 31:0.999 32:0.999 33:0.999 34:0.999 35:0.001 36:0.001 37:0.999 38:0.999 39:0.999 40:0.999 41:0.999 42:0.999 43:0.001 44:0.001 45:0.999 46:0.999 47:0.001 48:0.001 49:0.001 50:0.999 51:0.001 52:0.001 53:0.001 54:0.999 55:0.999 56:0.001 57:0.001 58:0.999 59:0.999 60:0.001 61:0.999 62:0.001 63:0.001 64:0.001 65:0.999 66:0.999 67:0.001 68:0.001 69:0.999 70:0.999 71:0.001 72:0.001 73:0.999 74:0.999 75:0.001 76:0.999 77:0.999 78:0.999 79:0.001 80:0.001 81:0.001 82:0.999 83:0.001 84:0.001 85:0.999 86:0.999 87:0.999 88:0.999 89:0.999 90:0.999 91:0.999 92:0.999 93:0.999 94:0.999 95:0.001 96:0.001 97:0.001 98:0.999 99:0.999 100:0.001 101:0.001 102:0.001 103:0.999 104:0.999 105:0.999 106:0.001 107:0.001 108:0.001 109:0.001 110:0.001 111:0.001 112:0.001 113:0.001 114:0.001 115:0.001 116:0.001 117:0.001 118:0.001 119:0.001 120:0.001 
-0 0 0 0 0 0 0 0.9465687223171445 0 0 0 0 0 0 0 0 0 0 1:0.001 2:0.001 3:0.001 4:0.001 5:0.001 6:0.001 7:0.001 8:0.001 9:0.001 10:0.001 11:0.001 12:0.001 13:0.001 14:0.001 15:0.001 16:0.001 17:0.001 18:0.001 19:0.001 20:0.999 21:0.999 22:0.001 23:0.001 24:0.001 25:0.001 26:0.999 27:0.999 28:0.999 29:0.999 30:0.999 31:0.999 32:0.999 33:0.999 34:0.999 35:0.999 36:0.001 37:0.001 38:0.999 39:0.999 40:0.999 41:0.999 42:0.999 43:0.999 44:0.001 45:0.001 46:0.999 47:0.999 48:0.001 49:0.999 50:0.001 51:0.001 52:0.001 53:0.999 54:0.999 55:0.001 56:0.001 57:0.999 58:0.999 59:0.001 60:0.001 61:0.999 62:0.001 63:0.001 64:0.001 65:0.999 66:0.999 67:0.001 68:0.001 69:0.999 70:0.999 71:0.001 72:0.001 73:0.999 74:0.999 75:0.001 76:0.999 77:0.999 78:0.999 79:0.001 80:0.001 81:0.999 82:0.999 83:0.001 84:0.001 85:0.999 86:0.999 87:0.999 88:0.999 89:0.999 90:0.999 91:0.999 92:0.999 93:0.999 94:0.999 95:0.001 96:0.001 97:0.001 98:0.999 99:0.999 100:0.001 101:0.001 102:0.001 103:0.999 104:0.999 105:0.999 106:0.001 107:0.001 108:0.001 109:0.001 110:0.001 111:0.001 112:0.001 113:0.001 114:0.001 115:0.001 116:0.001 117:0.001 118:0.001 119:0.001 120:0.001 
-0 0.7296394217857788 0 0.1041821907059277 0 0 0.6430509977915839 0 0 0 1 0 0 0.9551336968478964 0 0.316309486736407 0 0 1:0.001 2:0.001 3:0.001 4:0.001 5:0.001 6:0.001 7:0.001 8:0.001 9:0.001 10:0.001 11:0.001 12:0.001 13:0.001 14:0.001 15:0.001 16:0.001 17:0.001 18:0.001 19:0.001 20:0.999 21:0.999 22:0.001 23:0.001 24:0.001 25:0.001 26:0.999 27:0.999 28:0.999 29:0.999 30:0.999 31:0.999 32:0.999 33:0.999 34:0.999 35:0.001 36:0.001 37:0.001 38:0.999 39:0.999 40:0.999 41:0.999 42:0.999 43:0.999 44:0.001 45:0.001 46:0.999 47:0.999 48:0.001 49:0.999 50:0.001 51:0.001 52:0.001 53:0.999 54:0.999 55:0.001 56:0.001 57:0.999 58:0.999 59:0.001 60:0.001 61:0.001 62:0.001 63:0.001 64:0.001 65:0.001 66:0.999 67:0.001 68:0.001 69:0.999 70:0.999 71:0.001 72:0.001 73:0.999 74:0.999 75:0.001 76:0.999 77:0.999 78:0.999 79:0.001 80:0.001 81:0.999 82:0.999 83:0.001 84:0.001 85:0.999 86:0.999 87:0.999 88:0.999 89:0.999 90:0.999 91:0.999 92:0.999 93:0.999 94:0.999 95:0.001 96:0.001 97:0.001 98:0.999 99:0.999 100:0.001 101:0.001 102:0.001 103:0.999 104:0.999 105:0.999 106:0.001 107:0.001 108:0.001 109:0.001 110:0.001 111:0.001 112:0.001 113:0.001 114:0.001 115:0.001 116:0.001 117:0.001 118:0.001 119:0.001 120:0.001 
-0.3332646551823376 0 0 0 0.5171086828642431 0 0 1 0 0 0 0 0 0 0 0 0 0.6479814182450845 1:0.001 2:0.001 3:0.001 4:0.001 5:0.001 6:0.001 7:0.001 8:0.999 9:0.001 10:0.001 11:0.001 12:0.001 13:0.001 14:0.001 15:0.001 16:0.001 17:0.001 18:0.001 19:0.001 20:0.999 21:0.999 22:0.999 23:0.999 24:0.001 25:0.001 26:0.001 27:0.001 28:0.001 29:0.999 30:0.999 31:0.999 32:0.999 33:0.001 34:0.999 35:0.999 36:0.001 37:0.999 38:0.999 39:0.999 40:0.999 41:0.999 42:0.999 43:0.001 44:0.001 45:0.999 46:0.999 47:0.001 48:0.001 49:0.001 50:0.999 51:0.999 52:0.999 53:0.001 54:0.999 55:0.999 56:0.001 57:0.001 58:0.999 59:0.999 60:0.001 61:0.001 62:0.999 63:0.001 64:0.001 65:0.001 66:0.999 67:0.999 68:0.001 69:0.001 70:0.999 71:0.999 72:0.001 73:0.001 74:0.999 75:0.001 76:0.001 77:0.999 78:0.999 79:0.999 80:0.001 81:0.999 82:0.999 83:0.999 84:0.001 85:0.001 86:0.999 87:0.999 88:0.001 89:0.999 90:0.999 91:0.999 92:0.999 93:0.999 94:0.999 95:0.001 96:0.001 97:0.001 98:0.999 99:0.999 100:0.999 101:0.001 102:0.001 103:0.001 104:0.999 105:0.001 106:0.001 107:0.001 108:0.001 109:0.001 110:0.001 111:0.999 112:0.999 113:0.001 114:0.001 115:0.001 116:0.001 117:0.001 118:0.001 119:0.001 120:0.001 
