svm_type c_svc
kernel_type rbf
gamma 0.00012207
nr_class 19
total_sv 832
rho 0.229596 -0.0263972 0.183439 -0.0867355 -0.0404877 0.215992 -0.127718 0.0336452 -0.430617 -0.124089 0.0237813 0.213626 -0.032378 0.000619099 -0.162538 0.275462 0.000513364 -0.0491101 -0.286367 0.104657 -0.260532 -0.408687 0.112452 -0.367908 -0.466496 -0.368913 -0.32821 -0.189729 -0.0725273 -0.342428 -0.317781 -0.529882 0.0828893 -0.148899 -0.166668 0.285639 -0.0865846 -0.0240075 0.281957 -0.0889507 0.0680705 -0.139534 -0.0153275 -0.0477418 0.10053 -0.0315204 0.0181327 -0.184652 0.230651 0.000277375 -0.000416935 -0.176599 -0.326992 -0.0601485 -0.401423 -0.255794 -0.275872 -0.229398 -0.258647 -0.102846 -0.319478 -0.334547 -0.362928 0.0242605 -0.308526 -0.269068 0.0333309 0.229961 -0.0453536 0.0234508 -0.237511 -0.0669952 0.177905 0.180886 0.0394554 0.0776658 -0.0934004 0.300258 0.0117612 0.0249917 0.33097 -0.107233 -0.1661 -0.169548 -0.0320656 0.154288 0.0933067 -0.0446864 0.024643 -0.197979 0.213276 0.0107189 -0.0501713 -0.310088 -0.334419 -0.326915 -0.22332 -0.376887 -0.0846807 -0.361364 -0.296386 -0.30869 0.0658571 -0.203351 -0.205222 0.157653 -0.183531 0.0649682 0.103336 0.717887 0.0391192 0.180729 -0.0659728 0.946124 0.0860514 0.0677355 -0.149353 -0.0964104 0.0632118 0.038941 -0.133095 -0.0955649 -0.388358 0.167904 -0.00292559 -0.0370982 0.168163 0.25892 0.376333 0.114205 0.276424 0.0442287 0.376943 0.118081 0.297001 0.041327 0.151637 -0.0059642 0.0182679 -0.152696 0.223123 0.024408 0.0273562 0.060294 -0.161504 -0.0109991 -0.284659 0.369043 -0.0268338 -0.0600305 -0.156657 -0.212107 -0.314718 0.0795882 -0.0785331 -0.188458 0.0504186 -0.121192 0.353256 -0.041468 0.00643805 -0.260328 0.316295 -0.0069434 -0.0326988 0.345354 0.161857 0.178445 -0.310347 -0.208975 -0.0178854
label 0 6 17 9 18 3 7 8 4 5 11 14 12 16 10 2 15 13 1
nr_sv 41 40 33 46 56 36 35 45 41 32 43 71 49 41 44 32 55 43 49
SV
0 0 0 5.502446742806183 0 0 0 0 10.17353337802794 12.27168083041111 0 0 0 0 0 0 0 24.41181091097977 1:-1 2:-1 3:-1 4:-1 5:-1 6:-1 7:-1 8:-1 9:-1 10:1 11:1 12:-1 13:-1 14:-1 15:-1 16:-1 17:-1 18:-1 19:-1 20:1 21:1 22:1 23:-1 24:-1 25:-1 26:-1 27:1 28:1 29:-1 30:-1 31:-1 32:-1 33:1 34:1 35:1 36:-1 37:1 38:1 39:1 40:-1 41:-1 42:-1 43:-1 44:1 45:1 46:1 47:-1 48:-1 49:1 50:1 51:-1 52:-1 53:-1 54:-1 55:1 56:-1 57:1 58:1 59:-1 60:-1 61:1 62:-1 63:-1 64:-1 65:-1 66:1 67:1 68:-1 69:1 70:1 71:-1 72:-1 73:1 74:-1 75:-1 76:-1 77:1 78:1 79:-1 80:1 81:1 82:1 83:-1 84:-1 85:1 86:1 87:-1 88:1 89:1 90:-1 91:-1 92:-1 93:-1 94:-1 95:-1 96:-1 97:1 98:1 99:1 100:-1 101:-1 102:-1 103:-1 104:-1 105:-1 106:-1 107:-1 108:-1 109:-1 110:-1 111:-1 112:-1 113:-1 114:-1 115:-1 116:-1 117:-1 118:-1 119:-1 120:-1 
0 0 0 0.3775316170599431 5.592056178691198 10.53246471198764 0 0 0 0.5420200073426784 0 1.460158472894995 0 0 0 0 0 12.70626798158893 1:-1 2:-1 3:-1 4:-1 5:-1 6:-1 7:-1 8:-1 9:-1 10:1 11:1 12:-1 13:-1 14:-1 15:-1 16:-1 17:-1 18:-1 19:-1 20:-1 21:1 22:1 23:1 24:-1 25:-1 26:-1 27:1 28:1 29:-1 30:-1 31:-1 32:-1 33:1 34:1 35:1 36:-1 37:-1 38:1 39:1 40:1 41:-1 42:-1 43:-1 44:-1 45:1 46:1 47:1 48:-1 49:-1 50:1 51:1 52:-1 53:-1 54:-1 55:-1 56:1 57:-1 58:1 59:1 60:-1 61:-1 62:1 63:-1 64:-1 65:-1 66:-1 67:1 68:1 69:-1 70:1 71:1 72:-1 73:-1 74:1 75:-1 76:-1 77:-1 78:1 79:1 80:-1 81:1 82:1 83:1 84:-1 85:-1 86:1 87:1 88:-1 89:1 90:1 91:-1 92:-1 93:-1 94:-1 95:-1 96:-1 97:-1 98:1 99:1 100:1 101:-1 102:-1 103:-1 104:-1 105:-1 106:-1 107:-1 108:-1 109:-1 110:-1 111:-1 112:-1 113:-1 114:-1 115:-1 116:-1 117:1 118:-1 119:-1 120:-1 
32 18.23040832734818 8.596509668589203 5.334147216875848 13.05810975457341 3.556768493844574 11.3935889496709 22.95697244264366 24.71392955946203 0 20.03671995034226 32 13.39188881218341 15.27860716654615 7.751557183740307 19.44316066263774 4.14610575017797 32 1:-1 2:-1 3:-1 4:-1 5:-1 6:-1 7:-1 8:-1 9:1 10:1 11:-1 12:-1 13:-1 14:-1 15:-1 16:-1 17:-1 18:-1 19:-1 20:1 21:1 22:1 23:-1 24:-1 25:-1 26:1 27:1 28:-1 29:-1 30:-1 31:-1 32:1 33:1 34:1 35:-1 36:-1 37:-1 38:1 39:1 40:1 41:-1 42:-1 43:-1 44:-1 45:1 46:1 47:1 48:-1 49:-1 50:1 51:1 52:-1 53:-1 54:-1 55:-1 56:1 57:-1 58:1 59:1 60:-1 61:-1 62:1 63:-1 64:-1 65:-1 66:-1 67:1 68:1 69:-1 70:1 71:1 72:-1 73:-1 74:1 75:-1 76:-1 77:-1 78:1 79:1 80:-1 81:1 82:1 83:1 84:-1 85:-1 86:-1 87:1 88:1 89:-1 90:1 91:1 92:-1 93:-1 94:-1 95:-1 96:-1 97:-1 98:1 99:1 100:1 101:-1 102:-1 103:-1 104:-1 105:-1 106:-1 107:-1 108:-1 109:-1 110:-1 111:-1 112:-1 113:-1 114:-1 115:-1 116:-1 117:-1 118:-1 119:-1 120:-1 
0 0 0 5.117530882780299 0 0 0 0 0 0 0 0 0 0 0 0 0 32 1:-1 2:-1 3:-1 4:-1 5:-1 6:-1 7:-1 8:-1 9:-1 10:-1 11:-1 12:-1 13:-1 14:1 15:1 16:-1 17:-1 18:-1 19:-1 20:-1 21:1 22:1 23:-1 24:-1 25:1 26:1 27:1 28:-1 29:-1 30:-1 31:-1 32:1 33:1 34:1 35:-1 36:-1 37:-1 38:1 39:1 40:-1 41:-1 42:-1 43:-1 44:-1 45:1 46:1 47:1 48:-1 49:-1 50:1 51:-1 52:-1 53:-1 54:-1 55:-1 56:1 57:1 58:1 59:1 60:-1 61:-1 62:-1 63:1 64:-1 65:-1 66:-1 67:-1 68:1 69:1 70:-1 71:1 72:1 73:-1 74:1 75:1 76:-1 77:-1 78:1 79:1 80:-1 81:-1 82:1 83:1 84:-1 85:-1 86:-1 87:1 88:1 89:1 90:1 91:1 92:-1 93:-1 94:1 95:1 96:1 97:-1 98:-1 99:-1 100:-1 101:-1 102:-1 103:-1 104:-1 105:-1 106:-1 107:-1 108:-1 109:-1 110:-1 111:-1 112:-1 113:-1 114:-1 115:-1 116:-1 117:-1 118:-1 119:-1 120:-1 
0 0.7386277454596906 0 0 0 0 27.85335825607551 0 29.34879320086053 0 9.754664590879031 0 0 0 0 5.817467216707867 0 0 1:-1 2:-1 3:-1 4:-1 5:-1 6:-1 7:-1 8:-1 9:-1 10:-1 11:-1 12:-1 13:-1 14:1 15:1 16:-1 17:-1 18:-1 19:-1 20:-1 21:1 22:1 23:-1 24:-1 25:1 26:1 27:1 28:-1 29:-1 30:-1 31:-1 32:1 33:1 34:1 35:-1 36:-1 37:-1 38:1 39:1 40:-1 41:-1 42:-1 43:-1 44:-1 45:1 46:1 47:1 48:-1 49:-1 50:1 51:-1 52:-1 53:-1 54:-1 55:-1 56:1 57:1 58:1 59:1 60:-1 61:-1 62:-1 63:1 64:-1 65:-1 66:-1 67:-1 68:1 69:1 70:-1 71:-1 72:1 73:-1 74:1 75:1 76:-1 77:-1 78:1 79:1 80:-1 81:-1 82:1 83:1 84:-1 85:-1 86:1 87:1 88:1 89:1 90:1 91:-1 92:-1 93:1 94:1 95:1 96:-1 97:-1 98:-1 99:-1 100:-1 101:-1 102:-1 103:-1 104:-1 105:-1 106:-1 107:-1 108:-1 109:-1 110:-1 111:-1 112:-1 113:-1 114:-1 115:-1 116:-1 117:-1 118:-1 119:-1 120:-1 
22.88991951203535 8.076574325574383 6.108334204425458 0.1927632174506078 0 2.033990665444327 15.42101673999448 0 17.1555763929648 0 9.289794053167721 13.15371461103644 0 1.740991600643183 8.586336941864722 1.797615235288081 8.109540290320279 11.12345823981602 1:-1 2:-1 3:-1 4:-1 5:-1 6:-1 7:-1 8:1 9:1 10:-1 11:-1 12:-1 13:-1 14:-1 15:-1 16:-1 17:-1 18:-1 19:1 20:1 21:1 22:-1 23:-1 24:-1 25:1 26:1 27:-1 28:-1 29:-1 30:-1 31:1 32:1 33:1 34:-1 35:-1 36:-1 37:1 38:1 39:1 40:-1 41:-1 42:-1 43:-1 44:1 45:1 46:1 47:-1 48:-1 49:1 50:1 51:-1 52:-1 53:-1 54:-1 55:1 56:-1 57:1 58:1 59:-1 60:-1 61:-1 62:1 63:-1 64:-1 65:-1 66:-1 67:1 68:1 69:-1 70:1 71:1 72:-1 73:1 74:-1 75:-1 76:-1 77:1 78:1 79:-1 80:1 81:1 82:1 83:-1 84:-1 85:1 86:1 87:-1 88:1 89:1 90:-1 91:-1 92:-1 93:-1 94:-1 95:-1 96:-1 97:-1 98:1 99:1 100:1 101:-1 102:-1 103:-1 104:-1 105:-1 106:-1 107:-1 108:-1 109:-1 110:-1 111:-1 112:-1 113:-1 114:-1 115:-1 116:-1 117:-1 118:-1 119:-1 120:-1 
2.255218782908762 0 9.432094428436329 31.27343071840692 27.97432053351961 20.46675663412986 0 13.86753640282664 22.71511032194239 26.40427768377774 4.314097434116485 7.014926522361839 5.234527651114541 14.33036733497701 2.777444737955998 0.3173167715441647 2.785798982961467 32 1:-1 2:-1 3:-1 4:-1 5:-1 6:-1 7:-1 8:-1 9:-1 10:-1 11:-1 12:-1 13:-1 14:1 15:1 16:-1 17:-1 18:-1 19:-1 20:-1 21:1 22:1 23:-1 24:-1 25:1 26:1 27:1 28:-1 29:-1 30:-1 31:-1 32:1 33:1 34:1 35:-1 36:-1 37:-1 38:1 39:1 40:-1 41:-1 42:-1 43:-1 44:-1 45:1 46:1 47:1 48:-1 49:-1 50:1 51:-1 52:-1 53:-1 54:-1 55:-1 56:1 57:1 58:1 59:1 60:-1 61:-1 62:-1 63:1 64:-1 65:-1 66:-1 67:-1 68:1 69:1 70:-1 71:1 72:1 73:-1 74:1 75:1 76:-1 77:-1 78:1 79:1 80:-1 81:-1 82:1 83:1 84:-1 85:-1 86:-1 87:1 88:1 89:1 90:1 91:1 92:-1 93:-1 94:1 95:1 96:1 97:-1 98:-1 99:-1 100:-1 101:-1 102:-1 103:-1 104:-1 105:-1 106:-1 107:-1 108:-1 109:-1 110:-1 111:-1 112:-1 113:-1 114:-1 115:-1 116:-1 117:-1 118:-1 119:-1 120:-1 
0 0 0 1.773778870238114 0 0.1080840226667911 21.22952764875679 0.4088289356714694 0 24.62148618749314 13.00882276933468 30.41180272574949 10.55587618032315 4.919149569107073 1.169687063527768 28.00582296790043 7.809582156067956 0 1:-1 2:-1 3:-1 4:-1 5:-1 6:-1 7:-1 8:1 9:1 10:-1 11:-1 12:-1 13:-1 14:-1 15:-1 16:-1 17:-1 18:-1 19:1 20:1 21:1 22:-1 23:-1 24:-1 25:-1 26:1 27:1 28:-1 29:-1 30:-1 31:-1 32:1 33:1 34:1 35:-1 36:-1 37:1 38:1 39:1 40:-1 41:-1 42:-1 43:-1 44:1 45:1 46:1 47:-1 48:-1 49:-1 50:1 51:1 52:-1 53:-1 54:-1 55:-1 56:1 57:-1 58:1 59:1 60:-1 61:-1 62:1 63:-1 64:-1 65:-1 66:-1 67:1 68:1 69:-1 70:1 71:1 72:-1 73:-1 74:-1 75:1 76:-1 77:-1 78:-1 79:1 80:1 81:-1 82:1 83:1 84:1 85:-1 86:1 87:1 88:-1 89:1 90:1 91:-1 92:-1 93:-1 94:-1 95:-1 96:-1 97:-1 98:1 99:1 100:1 101:-1 102:-1 103:-1 104:-1 105:-1 106:-1 107:-1 108:-1 109:-1 110:-1 111:-1 112:-1 113:-1 114:-1 115:-1 116:-1 117:-1 118:-1 119:-1 120:-1 
0 0 2.682933895360829 0 0 0 0 0 0 0 0 0 0 0 0 0 0 0 1:-1 2:-1 3:-1 4:-1 5:-1 6:-1 7:-1 8:1 9:1 10:-1 11:-1 12:-1 13:-1 14:-1 15:-1 16:-1 17:-1 18:-1 19:1 20:1 21:1 22:-1 23:-1 24:-1 25:-1 26:1 27:1 28:-1 29:-1 30:-1 31:-1 32:1 33:1 34:1 35:-1 36:-1 37:1 38:1 39:1 40:-1 41:-1 42:-1 43:-1 44:1 45:1 46:1 47:-1 48:-1 49:-1 50:1 51:1 52:-1 53:-1 54:-1 55:-1 56:1 57:-1 58:1 59:1 60:-1 61:-1 62:1 63:-1 64:-1 65:-1 66:-1 67:1 68:1 69:-1 70:1 71:1 72:-1 73:-1 74:1 75:-1 76:-1 77:-1 78:1 79:1 80:-1 81:1 82:1 83:1 84:-1 85:-1 86:1 87:1 88:-1 89:1 90:1 91:-1 92:-1 93:-1 94:-1 95:-1 96:-1 97:-1 98:1 99:1 100:1 101:-1 102:-1 103:-1 104:-1 105:-1 106:-1 107:-1 108:-1 109:-1 110:-1 111:-1 112:-1 113:-1 114:-1 115:-1 116:-1 117:-1 118:1 119:1 120:-1 
0 0 0 0 0 0 0 2.980869965364357 0 0 0 0 0 0 10.89454210854417 0 0 0 1:-1 2:-1 3:-1 4:-1 5:-1 6:-1 7:-1 8:-1 9:-1 10:-1 11:-1 12:-1 13:1 14:1 15:-1 16:-1 17:-1 18:-1 19:-1 20:1 21:1 22:-1 23:-1 24:-1 25:1 26:1 27:1 28:-1 29:-1 30:-1 31:-1 32:1 33:1 34:1 35:-1 36:-1 37:1 38:1 39:-1 40:-1 41:-1 42:-1 43:-1 44:1 45:1 46:1 47:-1 48:-1 49:-1 50:1 51:-1 52:-1 53:-1 54:-1 55:-1 56:1 57:1 58:1 59:1 60:-1 61:-1 62:1 63:-1 64:-1 65:-1 66:-1 67:1 68:1 69:-1 70:1 71:1 72:-1 73:-1 74:1 75:1 76:-1 77:-1 78:1 79:1 80:-1 81:-1 82:1 83:1 84:-1 85:-1 86:1 87:1 88:1 89:1 90:1 91:-1 92:-1 93:1 94:1 95:1 96:-1 97:-1 98:-1 99:-1 100:-1 101:-1 102:-1 103:-1 104:-1 105:-1 106:-1 107:-1 108:-1 109:-1 110:-1 111:-1 112:-1 113:-1 114:-1 115:-1 116:-1 117:-1 118:-1 119:-1 120:-1 
32 19.39816697197141 15.52223610780764 20.78741160813863 18.65841399566926 5.629647717769949 14.99766009120826 29.73125682604478 28.52991876517794 6.372673934025418 13.96122229698553 22.90421053303772 23.03083263108609 28.54895053627885 15.17047998822059 19.8112623707379 12.68822445266361 32 1:-1 2:-1 3:-1 4:-1 5:-1 6:-1 7:-1 8:1 9:1 10:-1 11:-1 12:-1 13:-1 14:-1 15:-1 16:-1 17:-1 18:-1 19:1 20:1 21:1 22:-1 23:-1 24:-1 25:1 26:1 27:-1 28:-1 29:-1 30:-1 31:1 32:1 33:1 34:-1 35:-1 36:-1 37:1 38:1 39:1 40:-1 41:-1 42:-1 43:-1 44:1 45:1 46:1 47:-1 48:-1 49:1 50:1 51:-1 52:-1 53:-1 54:-1 55:1 56:-1 57:1 58:1 59:-1 60:-1 61:1 62:-1 63:-1 64:-1 65:-1 66:1 67:1 68:-1 69:1 70:1 71:-1 72:-1 73:1 74:-1 75:-1 76:-1 77:1 78:1 79:-1 80:1 81:1 82:1 83:-1 84:-1 85:-1 86:1 87:1 88:-1 89:1 90:1 91:-1 92:-1 93:-1 94:-1 95:-1 96:-1 97:1 98:1 99:1 100:-1 101:-1 102:-1 103:-1 104:-1 105:-1 106:-1 107:-1 108:-1 109:-1 110:-1 111:-1 112:-1 113:-1 114:-1 115:-1 116:-1 117:-1 118:-1 119:-1 120:-1 
0 0 0 0 0 0 0 0 0 0.1781710909438881 0 0 0 0 9.275268395593592 0 0 0 1:-1 2:-1 3:-1 4:-1 5:-1 6:-1 7:-1 8:-1 9:-1 10:-1 11:-1 12:-1 13:1 14:1 15:-1 16:-1 17:-1 18:-1 19:-1 20:1 21:1 22:-1 23:-1 24:-1 25:1 26:1 27:1 28:-1 29:-1 30:-1 31:-1 32:1 33:1 34:1 35:-1 36:-1 37:1 38:1 39:-1 40:-1 41:-1 42:-1 43:-1 44:1 45:1 46:1 47:-1 48:-1 49:1 50:-1 51:-1 52:-1 53:-1 54:-1 55:1 56:1 57:1 58:1 59:-1 60:-1 61:-1 62:1 63:-1 64:-1 65:-1 66:-1 67:1 68:1 69:-1 70:1 71:1 72:-1 73:-1 74:1 75:1 76:-1 77:-1 78:1 79:1 80:-1 81:-1 82:1 83:1 84:-1 85:-1 86:1 87:1 88:1 89:1 90:1 91:-1 92:-1 93:1 94:1 95:1 96:-1 97:-1 98:-1 99:-1 100:-1 101:-1 102:-1 103:-1 104:-1 105:-1 106:-1 107:-1 108:-1 109:-1 110:-1 111:-1 112:-1 113:-1 114:-1 115:-1 116:-1 117:-1 118:-1 119:-1 120:-1 
0 0 0 0 0 0 0 0 3.29042282765447 0 0 0 0 0 0 0 0 0 1:-1 2:-1 3:-1 4:-1 5:-1 6:-1 7:-1 8:-1 9:-1 10:-1 11:-1 12:-1 13:-1 14:-1 15:1 16:1 17:-1 18:-1 19:-1 20:-1 21:-1 22:1 23:1 24:-1 25:-1 26:1 27:1 28:1 29:-1 30:-1 31:-1 32:-1 33:1 34:1 35:1 36:-1 37:-1 38:1 39:1 40:-1 41:-1 42:-1 43:-1 44:-1 45:1 46:1 47:1 48:-1 49:-1 50:1 51:-1 52:-1 53:-1 54:-1 55:-1 56:1 57:1 58:1 59:1 60:-1 61:1 62:-1 63:-1 64:-1 65:-1 66:1 67:1 68:-1 69:1 70:1 71:-1 72:-1 73:1 74:1 75:-1 76:-1 77:1 78:1 79:-1 80:-1 81:1 82:1 83:-1 84:-1 85:1 86:1 87:1 88:1 89:1 90:-1 91:-1 92:1 93:1 94:1 95:-1 96:-1 97:-1 98:-1 99:-1 100:-1 101:-1 102:-1 103:-1 104:-1 105:-1 106:-1 107:-1 108:-1 109:-1 110:-1 111:-1 112:-1 113:-1 114:-1 115:-1 116:-1 117:-1 118:-1 119:-1 120:-1 
0 0 0 0 0 0 0 0 0 0 0 0 0 0 0 0 0 15.73482351236877 1:-1 2:-1 3:-1 4:-1 5:-1 6:-1 7:-1 8:-1 9:-1 10:-1 11:-1 12:-1 13:-1 14:1 15:1 16:-1 17:-1 18:-1 19:-1 20:-1 21:1 22:1 23:-1 24:-1 25:1 26:1 27:1 28:-1 29:-1 30:-1 31:-1 32:1 33:1 34:1 35:-1 36:-1 37:-1 38:1 39:1 40:-1 41:-1 42:-1 43:-1 44:-1 45:1 46:1 47:1 48:-1 49:-1 50:1 51:-1 52:-1 53:-1 54:-1 55:-1 56:1 57:1 58:1 59:1 60:-1 61:-1 62:1 63:-1 64:-1 65:-1 66:-1 67:1 68:1 69:-1 70:1 71:1 72:-1 73:-1 74:1 75:1 76:-1 77:-1 78:1 79:1 80:-1 81:-1 82:1 83:1 84:-1 85:-1 86:-1 87:1 88:1 89:1 90:1 91:1 92:-1 93:-1 94:1 95:1 96:1 97:-1 98:-1 99:-1 100:-1 101:-1 102:-1 103:-1 104:-1 105:-1 106:-1 107:-1 108:-1 109:-1 110:-1 111:-1 112:-1 113:-1 114:-1 115:-1 116:-1 117:-1 118:-1 119:-1 120:-1 
0 0 0 0 12.40889922033633 0 0 15.49130949476231 11.16137713410731 14.55295407202499 0 0 0 0 23.10408744541157 13.18878737367472 8.209407477935235 32 1:-1 2:-1 3:-1 4:-1 5:-1 6:-1 7:-1 8:-1 9:-1 10:-1 11:-1 12:-1 13:-1 14:1 15:1 16:-1 17:-1 18:-1 19:-1 20:-1 21:1 22:1 23:-1 24:-1 25:-1 26:1 27:1 28:1 29:-1 30:-1 31:-1 32:-1 33:1 34:1 35:1 36:-1 37:1 38:1 39:-1 40:-1 41:-1 42:-1 43:-1 44:1 45:1 46:1 47:-1 48:-1 49:1 50:-1 51:-1 52:-1 53:-1 54:-1 55:1 56:1 57:1 58:1 59:-1 60:-1 61:1 62:-1 63:-1 64:-1 65:-1 66:1 67:1 68:-1 69:1 70:1 71:-1 72:-1 73:1 74:1 75:-1 76:-1 77:1 78:1 79:-1 80:-1 81:1 82:1 83:-1 84:-1 85:1 86:1 87:1 88:1 89:-1 90:-1 91:-1 92:1 93:1 94:1 95:-1 96:-1 97:-1 98:-1 99:-1 100:-1 101:-1 102:-1 103:-1 104:-1 105:-1 106:-1 107:-1 108:-1 109:-1 110:-1 111:-1 112:-1 113:-1 114:-1 115:-1 116:-1 117:-1 118:-1 119:-1 120:-1 
0 0 0 0 0 0 0 0 0 0 0 10.63583183485476 0 0 0 0 0 0 1:-1 2:-1 3:-1 4:-1 5:-1 6:-1 7:-1 8:-1 9:-1 10:-1 11:-1 12:-1 13:-1 14:-1 15:1 16:1 17:-1 18:-1 19:-1 20:-1 21:-1 22:1 23:1 24:-1 25:-1 26:1 27:1 28:1 29:-1 30:-1 31:-1 32:-1 33:1 34:1 35:1 36:-1 37:1 38:1 39:-1 40:-1 41:-1 42:-1 43:-1 44:1 45:1 46:1 47:-1 48:-1 49:1 50:-1 51:-1 52:-1 53:-1 54:-1 55:1 56:1 57:1 58:1 59:-1 60:-1 61:-1 62:1 63:-1 64:-1 65:-1 66:-1 67:1 68:1 69:-1 70:1 71:1 72:-1 73:1 74:1 75:-1 76:-1 77:1 78:1 79:-1 80:-1 81:1 82:1 83:-1 84:-1 85:1 86:1 87:1 88:1 89:1 90:-1 91:-1 92:1 93:1 94:1 95:-1 96:-1 97:-1 98:-1 99:-1 100:-1 101:-1 102:-1 103:-1 104:-1 105:-1 106:-1 107:-1 108:-1 109:-1 110:-1 111:-1 112:-1 113:-1 114:-1 115:-1 116:-1 117:-1 118:-1 119:-1 120:-1 
10.25936355909722 0 0 0 1.068483082707309 0 0 0 0 0 0 0 0 0 0 0 0 10.37829308673427 1:-1 2:-1 3:-1 4:-1 5:-1 6:-1 7:-1 8:-1 9:-1 10:-1 11:-1 12:-1 13:1 14:1 15:-1 16:-1 17:-1 18:-1 19:-1 20:1 21:1 22:-1 23:-1 24:-1 25:1 26:1 27:1 28:-1 29:-1 30:-1 31:-1 32:1 33:1 34:1 35:-1 36:-1 37:1 38:1 39:-1 40:-1 41:-1 42:-1 43:-1 44:1 45:1 46:1 47:-1 48:-1 49:1 50:-1 51:-1 52:-1 53:-1 54:-1 55:1 56:1 57:1 58:1 59:-1 60:-1 61:1 62:-1 63:-1 64:-1 65:-1 66:1 67:1 68:-1 69:1 70:1 71:-1 72:-1 73:1 74:1 75:-1 76:-1 77:1 78:1 79:-1 80:-1 81:1 82:1 83:-1 84:-1 85:-1 86:1 87:1 88:1 89:1 90:1 91:-1 92:-1 93:1 94:1 95:1 96:-1 97:-1 98:-1 99:-1 100:-1 101:-1 102:-1 103:-1 104:-1 105:-1 106:-1 107:-1 108:-1 109:-1 110:-1 111:-1 112:-1 113:-1 114:-1 115:-1 116:-1 117:-1 118:-1 119:-1 120:-1 
0 0 7.70514337743638 23.74721892183309 0 0 0 0 0 0 10.30244587655062 0 0 4.271283593859001 0 0 0 0 1:-1 2:-1 3:-1 4:-1 5:-1 6:-1 7:-1 8:-1 9:1 10:1 11:-1 12:-1 13:-1 14:1 15:1 16:-1 17:-1 18:-1 19:-1 20:-1 21:1 22:1 23:-1 24:-1 25:-1 26:1 27:1 28:1 29:-1 30:-1 31:-1 32:-1 33:1 34:1 35:1 36:-1 37:1 38:1 39:-1 40:-1 41:-1 42:-1 43:-1 44:1 45:1 46:1 47:-1 48:-1 49:1 50:-1 51:-1 52:-1 53:-1 54:-1 55:1 56:1 57:1 58:1 59:-1 60:-1 61:1 62:-1 63:-1 64:-1 65:-1 66:1 67:1 68:-1 69:1 70:1 71:-1 72:-1 73:1 74:1 75:-1 76:-1 77:1 78:1 79:-1 80:-1 81:1 82:1 83:-1 84:-1 85:1 86:1 87:1 88:1 89:1 90:-1 91:-1 92:1 93:1 94:1 95:-1 96:-1 97:-1 98:-1 99:-1 100:-1 101:-1 102:-1 103:-1 104:-1 105:-1 106:-1 107:-1 108:-1 109:-1 110:-1 111:-1 112:-1 113:-1 114:-1 115:-1 116:-1 117:-1 118:-1 119:-1 120:-1 
0 0 0 0 0 0 0 0 0 0 0 0 0 0 0 0 0 0.05345336220489859 1:-1 2:-1 3:-1 4:-1 5:-1 6:-1 7:-1 8:-1 9:-1 10:-1 11:-1 12:-1 13:-1 14:-1 15:1 16:1 17:-1 18:-1 19:-1 20:-1 21:-1 22:1 23:1 24:-1 25:-1 26:1 27:1 28:1 29:-1 30:-1 31:-1 32:-1 33:1 34:1 35:1 36:-1 37:-1 38:-1 39:1 40:1 41:-1 42:-1 43:-1 44:-1 45:-1 46:1 47:1 48:1 49:-1 50:1 51:-1 52:-1 53:-1 54:-1 55:-1 56:1 57:1 58:1 59:1 60:-1 61:-1 62:1 63:-1 64:-1 65:-1 66:-1 67:1 68:1 69:-1 70:1 71:1 72:-1 73:1 74:1 75:-1 76:-1 77:1 78:1 79:-1 80:-1 81:1 82:1 83:-1 84:-1 85:1 86:1 87:1 88:1 89:1 90:-1 91:-1 92:1 93:1 94:1 95:-1 96:-1 97:-1 98:-1 99:-1 100:-1 101:-1 102:-1 103:-1 104:-1 105:-1 106:-1 107:-1 108:-1 109:-1 110:-1 111:-1 112:-1 113:-1 114:-1 115:-1 116:-1 117:-1 118:-1 119:-1 120:-1 
0 21.60207147021217 0 7.507061321407707 0 18.511511387618 0 0 0 0.4281200959127768 0 3.947440799029443 9.459009090786076 0 0 0 0 0 1:-1 2:-1 3:-1 4:-1 5:-1 6:-1 7:-1 8:-1 9:-1 10:-1 11:-1 12:-1 13:-1 14:1 15:1 16:-1 17:-1 18:-1 19:-1 20:-1 21:1 22:1 23:-1 24:-1 25:1 26:1 27:1 28:-1 29:-1 30:-1 31:-1 32:1 33:1 34:1 35:-1 36:-1 37:1 38:1 39:-1 40:-1 41:-1 42:-1 43:-1 44:1 45:1 46:1 47:-1 48:-1 49:1 50:-1 51:-1 52:-1 53:-1 54:-1 55:1 56:1 57:1 58:1 59:-1 60:-1 61:1 62:-1 63:-1 64:-1 65:-1 66:1 67:1 68:-1 69:1 70:1 71:-1 72:-1 73:-1 74:1 75:1 76:-1 77:-1 78:1 79:1 80:-1 81:-1 82:1 83:1 84:-1 85:-1 86:-1 87:1 88:1 89:1 90:1 91:-1 92:-1 93:1 94:1 95:1 96:-1 97:-1 98:-1 99:-1 100:-1 101:-1 102:-1 103:-1 104:-1 105:-1 106:-1 107:-1 108:-1 109:-1 110:-1 111:-1 112:-1 113:-1 114:-1 115:-1 116:-1 117:-1 118:-1 119:-1 120:-1 
0 0 0 0 0 0 0 0 0 0 0 0 0 0 0 0 0 8.830044194157765 1:-1 2:-1 3:-1 4:-1 5:-1 6:-1 7:-1 8:-1 9:-1 10:-1 11:-1 12:-1 13:-1 14:-1 15:-1 16:1 17:1 18:-1 19:-1 20:-1 21:-1 22:-1 23:1 24:1 25:-1 26:1 27:1 28:1 29:-1 30:-1 31:-1 32:-1 33:1 34:1 35:1 36:-1 37:-1 38:1 39:1 40:-1 41:-1 42:-1 43:-1 44:-1 45:1 46:1 47:1 48:-1 49:-1 50:1 51:-1 52:-1 53:-1 54:-1 55:-1 56:1 57:1 58:1 59:1 60:-1 61:1 62:-1 63:-1 64:-1 65:-1 66:1 67:1 68:-1 69:1 70:1 71:-1 72:-1 73:-1 74:1 75:1 76:-1 77:-1 78:1 79:1 80:-1 81:-1 82:1 83:1 84:-1 85:1 86:1 87:1 88:1 89:1 90:-1 91:-1 92:1 93:1 94:1 95:-1 96:-1 97:-1 98:-1 99:-1 100:-1 101:-1 102:-1 103:-1 104:-1 105:-1 106:-1 107:-1 108:-1 109:-1 110:-1 111:-1 112:-1 113:-1 114:-1 115:-1 116:-1 117:-1 118:-1 119:-1 120:-1 
0 0 0 0 3.657257428890712 0 10.12059108998088 11.76271182061892 0 0 0.7146238658104304 0 0 0 0 0 0 32 1:-1 2:-1 3:-1 4:-1 5:-1 6:-1 7:-1 8:-1 9:-1 10:-1 11:-1 12:-1 13:-1 14:-1 15:1 16:1 17:-1 18:-1 19:-1 20:-1 21:-1 22:1 23:1 24:-1 25:1 26:1 27:1 28:-1 29:-1 30:-1 31:-1 32:1 33:1 34:1 35:-1 36:-1 37:1 38:1 39:-1 40:-1 41:-1 42:-1 43:-1 44:1 45:1 46:1 47:-1 48:-1 49:1 50:-1 51:-1 52:-1 53:-1 54:-1 55:-1 56:1 57:1 58:1 59:-1 60:-1 61:1 62:-1 63:-1 64:-1 65:-1 66:1 67:1 68:-1 69:1 70:1 71:-1 72:-1 73:1 74:1 75:-1 76:-1 77:1 78:1 79:-1 80:-1 81:1 82:1 83:-1 84:-1 85:-1 86:1 87:1 88:1 89:1 90:-1 91:-1 92:1 93:1 94:1 95:-1 96:-1 97:-1 98:-1 99:-1 100:-1 101:-1 102:-1 103:-1 104:-1 105:-1 106:-1 107:-1 108:-1 109:-1 110:-1 111:-1 112:-1 113:-1 114:-1 115:-1 116:-1 117:-1 118:-1 119:-1 120:-1 
11.52369242630226 0.6360713174751713 3.181960280931 0.1197978920853841 9.732404144401755 0 0 4.863709299404922 0 0 0 11.35545967457984 0 0 4.260185148678201 20.32411683922562 0 4.4351674039488 1:-1 2:-1 3:-1 4:-1 5:-1 6:-1 7:-1 8:-1 9:-1 10:-1 11:-1 12:-1 13:-1 14:-1 15:1 16:1 17:-1 18:-1 19:-1 20:-1 21:-1 22:1 23:1 24:-1 25:-1 26:1 27:1 28:1 29:-1 30:-1 31:-1 32:-1 33:1 34:1 35:1 36:-1 37:-1 38:-1 39:1 40:1 41:-1 42:-1 43:-1 44:-1 45:-1 46:1 47:1 48:1 49:-1 50:1 51:-1 52:-1 53:-1 54:-1 55:-1 56:1 57:1 58:1 59:1 60:-1 61:-1 62:1 63:-1 64:-1 65:-1 66:-1 67:1 68:1 69:-1 70:1 71:1 72:-1 73:1 74:1 75:-1 76:-1 77:1 78:1 79:-1 80:-1 81:1 82:1 83:-1 84:-1 85:1 86:1 87:1 88:1 89:1 90:-1 91:-1 92:1 93:1 94:1 95:-1 96:-1 97:-1 98:-1 99:-1 100:-1 101:-1 102:-1 103:-1 104:-1 105:-1 106:-1 107:-1 108:-1 109:-1 110:-1 111:-1 112:-1 113:-1 114:-1 115:-1 116:-1 117:-1 118:-1 119:-1 120:-1 
0 0 0 10.88084425813005 0 0 0 0 0 0 0 14.06098952621129 11.04310736529627 9.633731097944322 0 0 6.545417376748251 0 1:-1 2:-1 3:-1 4:-1 5:-1 6:-1 7:-1 8:-1 9:-1 10:-1 11:-1 12:-1 13:-1 14:-1 15:1 16:1 17:-1 18:-1 19:-1 20:-1 21:-1 22:1 23:1 24:-1 25:1 26:1 27:1 28:-1 29:-1 30:-1 31:-1 32:1 33:1 34:1 35:-1 36:-1 37:1 38:1 39:-1 40:-1 41:-1 42:-1 43:-1 44:1 45:1 46:1 47:-1 48:-1 49:1 50:-1 51:-1 52:-1 53:-1 54:-1 55:1 56:1 57:1 58:1 59:-1 60:-1 61:1 62:-1 63:-1 64:-1 65:-1 66:1 67:1 68:-1 69:1 70:1 71:-1 72:-1 73:1 74:1 75:-1 76:-1 77:1 78:1 79:-1 80:-1 81:1 82:1 83:-1 84:-1 85:-1 86:1 87:1 88:1 89:1 90:-1 91:-1 92:1 93:1 94:1 95:-1 96:-1 97:-1 98:-1 99:-1 100:-1 101:-1 102:-1 103:-1 104:-1 105:-1 106:-1 107:-1 108:-1 109:-1 110:-1 111:-1 112:-1 113:-1 114:-1 115:-1 116:-1 117:-1 118:-1 119:-1 120:-1 
0 0 0 0 0 0 0 0 0 2.676708635614995 0 0 0 0 0 0 0 0 1:-1 2:-1 3:-1 4:-1 5:-1 6:-1 7:-1 8:-1 9:-1 10:-1 11:-1 12:-1 13:-1 14:-1 15:1 16:1 17:-1 18:-1 19:-1 20:-1 21:-1 22:1 23:1 24:-1 25:1 26:1 27:1 28:-1 29:-1 30:-1 31:-1 32:1 33:1 34:1 35:-1 36:-1 37:1 38:1 39:-1 40:-1 41:-1 42:-1 43:-1 44:1 45:1 46:1 47:-1 48:-1 49:1 50:-1 51:-1 52:-1 53:-1 54:-1 55:1 56:1 57:1 58:1 59:-1 60:-1 61:1 62:-1 63:-1 64:-1 65:-1 66:1 67:1 68:-1 69:1 70:1 71:-1 72:-1 73:1 74:1 75:-1 76:-1 77:1 78:1 79:-1 80:-1 81:1 82:1 83:-1 84:-1 85:1 86:1 87:1 88:1 89:1 90:-1 91:-1 92:1 93:1 94:1 95:-1 96:-1 97:-1 98:-1 99:-1 100:-1 101:-1 102:-1 103:-1 104:-1 105:-1 106:-1 107:-1 108:-1 109:-1 110:-1 111:-1 112:-1 113:-1 114:-1 115:-1 116:-1 117:-1 118:-1 119:-1 120:-1 
10.8385296358337 0 0 0 0 0 0 0 0 0 0 0 0 0 0 0 0 0 1:-1 2:-1 3:-1 4:-1 5:-1 6:-1 7:-1 8:-1 9:-1 10:-1 11:-1 12:-1 13:-1 14:1 15:1 16:-1 17:-1 18:-1 19:-1 20:-1 21:1 22:1 23:-1 24:-1 25:1 26:1 27:1 28:-1 29:-1 30:-1 31:-1 32:1 33:1 34:1 35:-1 36:-1 37:1 38:1 39:-1 40:-1 41:-1 42:-1 43:-1 44:1 45:1 46:1 47:-1 48:-1 49:1 50:-1 51:-1 52:-1 53:-1 54:-1 55:1 56:1 57:1 58:1 59:-1 60:-1 61:1 62:-1 63:-1 64:-1 65:-1 66:1 67:1 68:-1 69:1 70:1 71:-1 72:-1 73:-1 74:1 75:1 76:-1 77:-1 78:1 79:1 80:-1 81:-1 82:1 83:1 84:-1 85:1 86:1 87:1 88:1 89:1 90:-1 91:-1 92:1 93:1 94:1 95:-1 96:-1 97:-1 98:-1 99:-1 100:-1 101:-1 102:-1 103:-1 104:-1 105:-1 106:-1 107:-1 108:-1 109:-1 110:-1 111:-1 112:-1 113:-1 114:-1 115:-1 116:-1 117:-1 118:-1 119:-1 120:-1 
22.73877053135332 25.27992858577393 13.76195097835454 32 23.58138646937389 31.27557348631665 20.06733409346849 23.4643348737635 32 31.26700473304865 21.31282224699909 11.76479569238518 11.96339829915215 8.134360408618459 11.1402936103231 9.901472194465047 2.655974605261632 22.75525545822389 1:-1 2:-1 3:-1 4:-1 5:-1 6:-1 7:-1 8:-1 9:-1 10:-1 11:1 12:1 13:-1 14:-1 15:-1 16:-1 17:-1 18:-1 19:-1 20:-1 21:-1 22:1 23:1 24:1 25:-1 26:-1 27:1 28:1 29:-1 30:-1 31:-1 32:-1 33:1 34:1 35:1 36:-1 37:-1 38:-1 39:1 40:1 41:1 42:-1 43:-1 44:-1 45:-1 46:1 47:1 48:1 49:-1 50:1 51:1 52:-1 53:-1 54:-1 55:-1 56:1 57:-1 58:1 59:1 60:-1 61:-1 62:1 63:-1 64:-1 65:-1 66:-1 67:1 68:1 69:-1 70:1 71:1 72:-1 73:1 74:-1 75:-1 76:-1 77:1 78:1 79:-1 80:1 81:1 82:-1 83:-1 84:-1 85:1 86:1 87:-1 88:1 89:1 90:-1 91:-1 92:-1 93:-1 94:-1 95:-1 96:-1 97:1 98:1 99:1 100:-1 101:-1 102:-1 103:-1 104:-1 105:-1 106:-1 107:-1 108:-1 109:-1 110:-1 111:-1 112:-1 113:-1 114:-1 115:-1 116:-1 117:-1 118:-1 119:1 120:-1 
0 11.8600829719155 1.190667316923953 0 0 16.10992630559142 0 0 0 0 4.703632909206376 0.05583214995170643 0.6143922028790981 0 0 1.193141908480076 0 4.284037696043807 1:-1 2:-1 3:-1 4:-1 5:-1 6:-1 7:-1 8:-1 9:1 10:1 11:-1 12:-1 13:-1 14:-1 15:1 16:1 17:-1 18:-1 19:-1 20:-1 21:-1 22:1 23:1 24:-1 25:1 26:1 27:1 28:-1 29:-1 30:-1 31:-1 32:1 33:1 34:1 35:-1 36:-1 37:1 38:1 39:-1 40:-1 41:-1 42:-1 43:-1 44:1 45:1 46:1 47:-1 48:-1 49:1 50:-1 51:-1 52:-1 53:-1 54:-1 55:1 56:1 57:-1 58:1 59:-1 60:-1 61:1 62:-1 63:-1 64:-1 65:-1 66:1 67:1 68:-1 69:1 70:1 71:-1 72:-1 73:1 74:1 75:-1 76:-1 77:1 78:1 79:-1 80:-1 81:1 82:1 83:-1 84:-1 85:1 86:1 87:1 88:1 89:1 90:-1 91:-1 92:1 93:1 94:1 95:-1 96:-1 97:-1 98:-1 99:-1 100:-1 101:-1 102:-1 103:-1 104:-1 105:-1 106:-1 107:-1 108:-1 109:-1 110:-1 111:-1 112:-1 113:-1 114:-1 115:-1 116:-1 117:-1 118:-1 119:-1 120:-1 
1.468335515072017 0 0 0 0 0 0 0 0 0 0 0 0 0 0 0 0 0 1:-1 2:-1 3:-1 4:-1 5:-1 6:-1 7:-1 8:-1 9:-1 10:-1 11:-1 12:-1 13:-1 14:1 15:1 16:-1 17:-1 18:-1 19:-1 20:-1 21:1 22:1 23:-1 24:-1 25:1 26:1 27:1 28:-1 29:-1 30:-1 31:-1 32:1 33:1 34:1 35:-1 36:-1 37:1 38:1 39:-1 40:-1 41:-1 42:-1 43:-1 44:1 45:1 46:1 47:-1 48:-1 49:1 50:-1 51:-1 52:-1 53:-1 54:-1 55:1 56:1 57:1 58:1 59:-1 60:-1 61:1 62:-1 63:-1 64:-1 65:-1 66:1 67:1 68:-1 69:1 70:1 71:-1 72:-1 73:-1 74:1 75:1 76:-1 77:-1 78:1 79:1 80:-1 81:-1 82:1 83:1 84:-1 85:-1 86:1 87:1 88:1 89:1 90:1 91:-1 92:-1 93:1 94:1 95:1 96:-1 97:-1 98:-1 99:-1 100:-1 101:-1 102:-1 103:-1 104:-1 105:-1 106:-1 107:-1 108:-1 109:-1 110:-1 111:-1 112:-1 113:-1 114:-1 115:-1 116:-1 117:-1 118:-1 119:-1 120:-1 
0 0 0 6.547643793167587 0 0 0 0 0 0 0 0 0 0 0 0 0 0 1:-1 2:-1 3:-1 4:-1 5:-1 6:-1 7:-1 8:-1 9:-1 10:-1 11:-1 12:-1 13:-1 14:-1 15:1 16:1 17:-1 18:-1 19:-1 20:-1 21:-1 22:1 23:1 24:-1 25:-1 26:1 27:1 28:1 29:-1 30:-1 31:-1 32:-1 33:1 34:1 35:1 36:-1 37:-1 38:1 39:1 40:-1 41:-1 42:-1 43:-1 44:-1 45:1 46:1 47:1 48:-1 49:1 50:-1 51:-1 52:-1 53:-1 54:-1 55:1 56:1 57:1 58:1 59:-1 60:-1 61:-1 62:1 63:-1 64:-1 65:-1 66:-1 67:1 68:1 69:-1 70:1 71:1 72:-1 73:1 74:1 75:-1 76:-1 77:1 78:1 79:-1 80:-1 81:1 82:1 83:-1 84:-1 85:-1 86:1 87:1 88:1 89:1 90:1 91:-1 92:-1 93:1 94:1 95:1 96:-1 97:-1 98:-1 99:-1 100:-1 101:-1 102:-1 103:-1 104:-1 105:-1 106:-1 107:-1 108:-1 109:-1 110:-1 111:-1 112:-1 113:-1 114:-1 115:-1 116:-1 117:-1 118:-1 119:-1 120:-1 
9.81705747246953 0 16.47447629884095 0 0.4156306238846265 0 0 0 7.011510085528141 0 0 5.999146819796801 0 5.399130462437255 0 0 10.09068810681018 0 1:-1 2:-1 3:-1 4:-1 5:-1 6:-1 7:-1 8:-1 9:-1 10:1 11:1 12:-1 13:-1 14:-1 15:-1 16:-1 17:-1 18:-1 19:-1 20:1 21:1 22:1 23:-1 24:-1 25:-1 26:-1 27:1 28:1 29:-1 30:-1 31:-1 32:-1 33:1 34:1 35:1 36:-1 37:-1 38:1 39:1 40:1 41:-1 42:-1 43:-1 44:-1 45:1 46:1 47:1 48:-1 49:-1 50:1 51:1 52:-1 53:-1 54:-1 55:-1 56:1 57:-1 58:1 59:1 60:-1 61:-1 62:1 63:-1 64:-1 65:-1 66:-1 67:1 68:1 69:-1 70:1 71:1 72:-1 73:-1 74:1 75:-1 76:-1 77:-1 78:1 79:1 80:-1 81:1 82:1 83:1 84:-1 85:-1 86:1 87:1 88:-1 89:1 90:1 91:-1 92:-1 93:-1 94:-1 95:-1 96:-1 97:-1 98:1 99:1 100:1 101:-1 102:-1 103:-1 104:-1 105:-1 106:-1 107:-1 108:-1 109:-1 110:-1 111:-1 112:-1 113:-1 114:-1 115:-1 116:-1 117:-1 118:1 119:1 120:-1 
0 0 0 7.560625715451172 0 0 0 0 11.21010638589945 0 0 0 0 0 0 0 0 0 1:-1 2:-1 3:-1 4:-1 5:-1 6:-1 7:-1 8:-1 9:-1 10:-1 11:-1 12:-1 13:-1 14:-1 15:1 16:1 17:-1 18:-1 19:-1 20:-1 21:-1 22:1 23:1 24:-1 25:-1 26:1 27:1 28:1 29:-1 30:-1 31:-1 32:-1 33:1 34:1 35:1 36:-1 37:-1 38:1 39:1 40:-1 41:-1 42:-1 43:-1 44:-1 45:1 46:1 47:1 48:-1 49:-1 50:1 51:-1 52:-1 53:-1 54:-1 55:-1 56:1 57:1 58:1 59:1 60:-1 61:-1 62:1 63:-1 64:-1 65:-1 66:-1 67:1 68:1 69:-1 70:1 71:1 72:-1 73:1 74:1 75:-1 76:-1 77:1 78:1 79:-1 80:-1 81:1 82:1 83:-1 84:-1 85:-1 86:1 87:1 88:1 89:1 90:1 91:-1 92:-1 93:-1 94:1 95:1 96:-1 97:-1 98:-1 99:-1 100:-1 101:-1 102:-1 103:-1 104:-1 105:-1 106:-1 107:-1 108:-1 109:-1 110:-1 111:-1 112:-1 113:-1 114:-1 115:-1 116:-1 117:-1 118:-1 119:-1 120:-1 
0 0 0 0 0 0 0 0 0 0 0 0 0 0 0 0 0 0.280574891155993 1:-1 2:-1 3:-1 4:-1 5:-1 6:-1 7:-1 8:-1 9:-1 10:1 11:1 12:-1 13:-1 14:-1 15:-1 16:-1 17:-1 18:-1 19:-1 20:-1 21:1 22:1 23:1 24:-1 25:-1 26:-1 27:1 28:1 29:-1 30:-1 31:-1 32:-1 33:1 34:1 35:1 36:-1 37:-1 38:1 39:1 40:1 41:-1 42:-1 43:-1 44:-1 45:1 46:1 47:1 48:-1 49:-1 50:1 51:1 52:-1 53:-1 54:-1 55:-1 56:1 57:-1 58:1 59:1 60:-1 61:-1 62:1 63:-1 64:-1 65:-1 66:-1 67:1 68:1 69:-1 70:1 71:1 72:-1 73:-1 74:1 75:-1 76:-1 77:-1 78:1 79:1 80:-1 81:1 82:1 83:1 84:-1 85:-1 86:1 87:1 88:-1 89:1 90:1 91:-1 92:-1 93:-1 94:-1 95:-1 96:-1 97:1 98:1 99:1 100:-1 101:-1 102:-1 103:-1 104:-1 105:-1 106:-1 107:-1 108:-1 109:-1 110:-1 111:-1 112:-1 113:-1 114:-1 115:-1 116:-1 117:-1 118:1 119:1 120:-1 
0 0 0 32 0 0 0 0 31.99536030297962 16.08627108901917 1.532930211342398 5.612343900113221 11.47607296454233 0 0 10.45522047652588 0 0 1:-1 2:-1 3:-1 4:-1 5:-1 6:-1 7:-1 8:-1 9:-1 10:-1 11:-1 12:-1 13:-1 14:-1 15:-1 16:1 17:1 18:-1 19:-1 20:-1 21:-1 22:-1 23:1 24:1 25:-1 26:1 27:1 28:1 29:-1 30:-1 31:-1 32:-1 33:1 34:1 35:1 36:-1 37:-1 38:1 39:1 40:-1 41:-1 42:-1 43:-1 44:-1 45:1 46:1 47:1 48:-1 49:1 50:-1 51:-1 52:-1 53:-1 54:-1 55:1 56:1 57:1 58:1 59:-1 60:-1 61:-1 62:1 63:-1 64:-1 65:-1 66:-1 67:1 68:1 69:-1 70:1 71:1 72:-1 73:-1 74:1 75:1 76:-1 77:-1 78:1 79:1 80:-1 81:-1 82:1 83:1 84:-1 85:1 86:1 87:1 88:1 89:1 90:-1 91:-1 92:1 93:1 94:-1 95:-1 96:-1 97:-1 98:-1 99:-1 100:-1 101:-1 102:-1 103:-1 104:-1 105:-1 106:-1 107:-1 108:-1 109:-1 110:-1 111:-1 112:-1 113:-1 114:-1 115:-1 116:-1 117:-1 118:-1 119:-1 120:-1 
0 0 5.048852472473081 0 0 3.869722944955345 0 0 0 0 0 0 0 0 5.770790535687591 0 0 0 1:-1 2:-1 3:-1 4:-1 5:-1 6:-1 7:-1 8:-1 9:-1 10:-1 11:-1 12:-1 13:-1 14:-1 15:1 16:1 17:-1 18:-1 19:-1 20:-1 21:-1 22:1 23:1 24:-1 25:1 26:1 27:1 28:-1 29:-1 30:-1 31:-1 32:1 33:1 34:1 35:-1 36:-1 37:-1 38:1 39:1 40:-1 41:-1 42:-1 43:-1 44:-1 45:1 46:1 47:1 48:-1 49:-1 50:1 51:-1 52:-1 53:-1 54:-1 55:-1 56:1 57:1 58:1 59:1 60:-1 61:-1 62:-1 63:1 64:-1 65:-1 66:-1 67:-1 68:1 69:1 70:-1 71:1 72:1 73:-1 74:1 75:1 76:-1 77:-1 78:1 79:1 80:-1 81:-1 82:1 83:1 84:-1 85:-1 86:1 87:1 88:1 89:1 90:1 91:-1 92:-1 93:1 94:1 95:1 96:-1 97:-1 98:-1 99:-1 100:-1 101:-1 102:-1 103:-1 104:-1 105:-1 106:-1 107:-1 108:-1 109:-1 110:-1 111:-1 112:-1 113:-1 114:-1 115:-1 116:-1 117:-1 118:-1 119:-1 120:-1 
0 0 0 0 0 0 4.289735786610769 0 9.48717924463881 0 0 0 1.289596302728928 0 0 0 0 0 1:-1 2:-1 3:-1 4:-1 5:-1 6:-1 7:-1 8:-1 9:-1 10:-1 11:-1 12:-1 13:-1 14:-1 15:1 16:1 17:-1 18:-1 19:-1 20:-1 21:-1 22:1 23:1 24:-1 25:-1 26:1 27:1 28:1 29:-1 30:-1 31:-1 32:-1 33:1 34:1 35:1 36:-1 37:-1 38:1 39:1 40:-1 41:-1 42:-1 43:-1 44:-1 45:1 46:1 47:1 48:-1 49:1 50:-1 51:-1 52:-1 53:-1 54:-1 55:1 56:1 57:1 58:1 59:-1 60:-1 61:1 62:-1 63:-1 64:-1 65:-1 66:1 67:1 68:-1 69:1 70:1 71:-1 72:-1 73:1 74:1 75:-1 76:-1 77:1 78:1 79:-1 80:-1 81:1 82:1 83:-1 84:-1 85:1 86:1 87:1 88:1 89:1 90:-1 91:-1 92:1 93:1 94:1 95:-1 96:-1 97:-1 98:-1 99:-1 100:-1 101:-1 102:-1 103:-1 104:-1 105:-1 106:-1 107:-1 108:-1 109:-1 110:-1 111:-1 112:-1 113:-1 114:-1 115:-1 116:-1 117:-1 118:-1 119:-1 120:-1 
0.2845250804190021 0 0 0 8.506085214295903 0 0 0 0 0 0 0 0 0 0 0 0 0 1:-1 2:-1 3:-1 4:-1 5:-1 6:-1 7:-1 8:-1 9:-1 10:-1 11:-1 12:-1 13:-1 14:-1 15:1 16:1 17:-1 18:-1 19:-1 20:-1 21:-1 22:1 23:1 24:-1 25:-1 26:1 27:1 28:1 29:-1 30:-1 31:-1 32:-1 33:1 34:1 35:1 36:-1 37:-1 38:1 39:1 40:-1 41:-1 42:-1 43:-1 44:-1 45:1 46:1 47:1 48:-1 49:-1 50:1 51:-1 52:-1 53:-1 54:-1 55:-1 56:1 57:1 58:1 59:1 60:-1 61:1 62:-1 63:-1 64:-1 65:-1 66:1 67:1 68:-1 69:1 70:1 71:-1 72:-1 73:-1 74:1 75:1 76:-1 77:-1 78:1 79:1 80:-1 81:-1 82:1 83:1 84:-1 85:-1 86:1 87:1 88:1 89:1 90:1 91:-1 92:-1 93:1 94:1 95:1 96:-1 97:-1 98:-1 99:-1 100:-1 101:-1 102:-1 103:-1 104:-1 105:-1 106:-1 107:-1 108:-1 109:-1 110:-1 111:-1 112:-1 113:-1 114:-1 115:-1 116:-1 117:-1 118:-1 119:-1 120:-1 
30.41433668882148 6.932195656783452 11.73421327430593 0 16.34929159951465 0 7.288135144685122 4.993442909046806 24.19067916961257 0 2.301525079711825 19.8829987368227 0 17.92623567645684 17.65014029104764 5.189623029268041 7.781030256339098 28.89722028505786 1:-1 2:-1 3:-1 4:-1 5:-1 6:-1 7:-1 8:-1 9:-1 10:-1 11:-1 12:-1 13:-1 14:-1 15:-1 16:1 17:1 18:-1 19:-1 20:-1 21:-1 22:-1 23:1 24:1 25:-1 26:1 27:1 28:1 29:-1 30:-1 31:-1 32:-1 33:1 34:1 35:1 36:-1 37:-1 38:1 39:1 40:-1 41:-1 42:-1 43:-1 44:-1 45:1 46:1 47:1 48:-1 49:-1 50:1 51:-1 52:-1 53:-1 54:-1 55:-1 56:1 57:1 58:1 59:1 60:-1 61:1 62:-1 63:-1 64:-1 65:-1 66:1 67:1 68:-1 69:1 70:1 71:-1 72:-1 73:-1 74:1 75:1 76:-1 77:-1 78:1 79:1 80:-1 81:-1 82:1 83:1 84:-1 85:1 86:1 87:1 88:1 89:1 90:-1 91:-1 92:1 93:1 94:1 95:-1 96:-1 97:-1 98:-1 99:-1 100:-1 101:-1 102:-1 103:-1 104:-1 105:-1 106:-1 107:-1 108:-1 109:-1 110:-1 111:-1 112:-1 113:-1 114:-1 115:-1 116:-1 117:-1 118:-1 119:-1 120:-1 
2.353776265929071 0 0 0 0 0 0 0 0 0 0 0 0 2.38632610417995 0 0 0 0 1:-1 2:-1 3:-1 4:-1 5:-1 6:-1 7:-1 8:-1 9:-1 10:-1 11:-1 12:-1 13:-1 14:1 15:1 16:-1 17:-1 18:-1 19:-1 20:-1 21:1 22:1 23:-1 24:-1 25:-1 26:1 27:1 28:1 29:-1 30:-1 31:-1 32:-1 33:1 34:1 35:1 36:-1 37:1 38:1 39:-1 40:-1 41:-1 42:-1 43:-1 44:1 45:1 46:1 47:-1 48:-1 49:1 50:-1 51:-1 52:-1 53:-1 54:-1 55:1 56:1 57:1 58:1 59:-1 60:-1 61:1 62:-1 63:-1 64:-1 65:-1 66:1 67:1 68:-1 69:1 70:1 71:-1 72:-1 73:1 74:1 75:-1 76:-1 77:1 78:1 79:-1 80:-1 81:1 82:1 83:-1 84:-1 85:1 86:1 87:1 88:1 89:1 90:-1 91:-1 92:1 93:1 94:1 95:-1 96:-1 97:-1 98:-1 99:-1 100:-1 101:-1 102:-1 103:-1 104:-1 105:-1 106:-1 107:-1 108:-1 109:-1 110:-1 111:-1 112:-1 113:-1 114:-1 115:-1 116:-1 117:-1 118:-1 119:-1 120:-1 
0 0 0 11.23901757587064 0 0 0 0 0 14.87361772329917 0 0 0 0 0 0 0 0 1:-1 2:-1 3:-1 4:-1 5:-1 6:-1 7:-1 8:-1 9:-1 10:1 11:1 12:-1 13:-1 14:-1 15:-1 16:-1 17:-1 18:-1 19:-1 20:-1 21:1 22:1 23:1 24:-1 25:-1 26:-1 27:1 28:1 29:-1 30:-1 31:-1 32:-1 33:1 34:1 35:1 36:-1 37:-1 38:1 39:1 40:1 41:-1 42:-1 43:-1 44:-1 45:1 46:1 47:1 48:-1 49:-1 50:1 51:1 52:-1 53:-1 54:-1 55:-1 56:1 57:-1 58:1 59:1 60:-1 61:-1 62:1 63:-1 64:-1 65:-1 66:-1 67:1 68:1 69:-1 70:1 71:1 72:-1 73:-1 74:1 75:-1 76:-1 77:-1 78:1 79:1 80:-1 81:1 82:1 83:1 84:-1 85:-1 86:1 87:1 88:-1 89:1 90:1 91:-1 92:-1 93:-1 94:-1 95:-1 96:-1 97:-1 98:1 99:1 100:1 101:-1 102:-1 103:-1 104:-1 105:-1 106:-1 107:-1 108:-1 109:-1 110:-1 111:-1 112:-1 113:-1 114:-1 115:-1 116:-1 117:-1 118:-1 119:-1 120:-1 
0 0 0 0 1.648958779879096 0 0 0 0 1.844669157979481 0 15.19043525274804 0 0 0 0 0 0 1:-1 2:-1 3:-1 4:-1 5:-1 6:-1 7:-1 8:-1 9:-1 10:-1 11:-1 12:-1 13:-1 14:-1 15:1 16:1 17:-1 18:-1 19:-1 20:-1 21:-1 22:1 23:1 24:-1 25:-1 26:1 27:1 28:1 29:-1 30:-1 31:-1 32:-1 33:1 34:1 35:1 36:-1 37:1 38:1 39:-1 40:-1 41:-1 42:-1 43:-1 44:1 45:1 46:1 47:-1 48:-1 49:-1 50:1 51:-1 52:-1 53:-1 54:-1 55:-1 56:1 57:1 58:1 59:1 60:-1 61:-1 62:1 63:-1 64:-1 65:-1 66:-1 67:1 68:1 69:-1 70:1 71:1 72:-1 73:-1 74:1 75:1 76:-1 77:-1 78:1 79:1 80:-1 81:-1 82:1 83:1 84:-1 85:-1 86:1 87:1 88:1 89:1 90:1 91:-1 92:-1 93:1 94:1 95:1 96:-1 97:-1 98:-1 99:-1 100:-1 101:-1 102:-1 103:-1 104:-1 105:-1 106:-1 107:-1 108:-1 109:-1 110:-1 111:-1 112:-1 113:-1 114:-1 115:-1 116:-1 117:-1 118:-1 119:-1 120:-1 
-0 0 0 0 0 0 0 9.365218462691715 0 0 0 0 0 0 0 0 0 0 1:-1 2:-1 3:-1 4:-1 5:-1 6:-1 7:-1 8:-1 9:-1 10:-1 11:-1 12:-1 13:-1 14:-1 15:-1 16:-1 17:-1 18:-1 19:-1 20:1 21:1 22:-1 23:-1 24:-1 25:-1 26:1 27:1 28:1 29:1 30:1 31:1 32:1 33:1 34:1 35:1 36:-1 37:-1 38:-1 39:1 40:1 41:1 42:1 43:1 44:1 45:-1 46:-1 47:1 48:1 49:-1 50:1 51:-1 52:-1 53:-1 54:1 55:1 56:-1 57:-1 58:1 59:1 60:-1 61:-1 62:1 63:-1 64:-1 65:-1 66:1 67:1 68:-1 69:-1 70:1 71:1 72:-1 73:1 74:1 75:-1 76:1 77:1 78:1 79:-1 80:-1 81:1 82:1 83:-1 84:-1 85:1 86:1 87:1 88:1 89:1 90:1 91:1 92:1 93:1 94:1 95:-1 96:-1 97:-1 98:1 99:1 100:-1 101:-1 102:-1 103:1 104:1 105:1 106:-1 107:-1 108:-1 109:-1 110:-1 111:-1 112:-1 113:-1 114:-1 115:-1 116:-1 117:-1 118:-1 119:-1 120:-1 
-13.81232858178144 0 8.983864976938762 0 11.17607534583587 0 5.851744316272974 18.23912710945393 0 6.965235774271478 0 5.842388806004215 0 13.82394640035958 1.832218737292944 5.061588744726871 8.83219777996657 0 1:-1 2:-1 3:-1 4:-1 5:-1 6:-1 7:-1 8:1 9:-1 10:-1 11:-1 12:-1 13:-1 14:-1 15:-1 16:-1 17:-1 18:-1 19:1 20:1 21:1 22:1 23:-1 24:-1 25:-1 26:-1 27:-1 28:1 29:1 30:1 31:1 32:-1 33:1 34:1 35:-1 36:-1 37:1 38:1 39:1 40:1 41:1 42:1 43:-1 44:-1 45:1 46:1 47:-1 48:-1 49:1 50:1 51:1 52:-1 53:1 54:1 55:-1 56:-1 57:1 58:1 59:-1 60:-1 61:1 62:-1 63:-1 64:-1 65:1 66:1 67:-1 68:-1 69:1 70:1 71:-1 72:-1 73:-1 74:1 75:-1 76:-1 77:1 78:1 79:1 80:-1 81:1 82:1 83:1 84:-1 85:-1 86:1 87:1 88:-1 89:1 90:1 91:1 92:1 93:1 94:1 95:-1 96:-1 97:-1 98:1 99:1 100:1 101:-1 102:-1 103:-1 104:1 105:-1 106:-1 107:-1 108:-1 109:-1 110:-1 111:-1 112:1 113:1 114:-1 115:-1 116:-1 117:-1 118:-1 119:-1 120:-1 
-15.64596014962222 0 0 0 0 0 0 0 0 0 0 0 0 0 0 0 0 0 1:-1 2:-1 3:-1 4:-1 5:-1 6:-1 7:-1 8:-1 9:-1 10:1 11:1 12:-1 13:-1 14:-1 15:-1 16:-1 17:-1 18:-1 19:-1 20:1 21:1 22:-1 23:-1 24:-1 25:-1 26:1 27:1 28:1 29:1 30:1 31:1 32:1 33:1 34:1 35:1 36:-1 37:-1 38:1 39:1 40:1 41:1 42:1 43:1 44:-1 45:-1 46:1 47:1 48:-1 49:-1 50:1 51:-1 52:-1 53:-1 54:1 55:1 56:-1 57:-1 58:1 59:1 60:-1 61:-1 62:1 63:-1 64:-1 65:-1 66:1 67:1 68:-1 69:-1 70:1 71:1 72:-1 73:-1 74:1 75:1 76:-1 77:1 78:1 79:1 80:-1 81:-1 82:1 83:1 84:-1 85:-1 86:1 87:1 88:1 89:1 90:1 91:1 92:1 93:1 94:1 95:1 96:-1 97:-1 98:1 99:1 100:-1 101:-1 102:-1 103:1 104:-1 105:1 106:-1 107:-1 108:-1 109:-1 110:-1 111:-1 112:-1 113:-1 114:-1 115:-1 116:-1 117:-1 118:-1 119:-1 120:-1 
-5.983093737054674 0 20.57303952737563 0 22.24575108891794 0 5.945137036520177 23.76389705777228 0 14.10136188828851 11.79829180735071 31.46085476289615 5.582968625928129 32 30.71205988062033 15.52210812515924 15.76520107638307 10.85929616366647 1:-1 2:-1 3:-1 4:-1 5:-1 6:-1 7:1 8:-1 9:-1 10:-1 11:-1 12:-1 13:-1 14:-1 15:-1 16:-1 17:-1 18:1 19:1 20:1 21:1 22:-1 23:-1 24:-1 25:-1 26:-1 27:-1 28:1 29:1 30:1 31:1 32:-1 33:1 34:1 35:-1 36:-1 37:1 38:1 39:1 40:1 41:1 42:1 43:-1 44:-1 45:1 46:1 47:-1 48:-1 49:-1 50:1 51:1 52:1 53:-1 54:1 55:1 56:-1 57:-1 58:1 59:1 60:-1 61:-1 62:1 63:-1 64:-1 65:-1 66:1 67:1 68:-1 69:-1 70:1 71:1 72:-1 73:-1 74:-1 75:1 76:-1 77:-1 78:1 79:1 80:1 81:-1 82:1 83:1 84:1 85:-1 86:-1 87:1 88:1 89:-1 90:1 91:1 92:1 93:1 94:1 95:1 96:-1 97:-1 98:-1 99:-1 100:1 101:1 102:1 103:-1 104:-1 105:-1 106:1 107:-1 108:-1 109:-1 110:-1 111:-1 112:-1 113:-1 114:1 115:1 116:-1 117:-1 118:-1 119:-1 120:-1 
-0 0 0 0 32 0 0 0 0 0 0 0 0 0 0 0 0 17.56090519490847 1:-1 2:-1 3:-1 4:-1 5:-1 6:-1 7:-1 8:-1 9:-1 10:-1 11:-1 12:-1 13:-1 14:-1 15:-1 16:-1 17:-1 18:-1 19:-1 20:-1 21:1 22:1 23:-1 24:-1 25:-1 26:-1 27:1 28:1 29:1 30:1 31:1 32:1 33:1 34:1 35:1 36:1 37:-1 38:1 39:1 40:1 41:1 42:1 43:1 44:-1 45:-1 46:1 47:1 48:-1 49:-1 50:1 51:-1 52:-1 53:-1 54:1 55:1 56:-1 57:-1 58:1 59:1 60:-1 61:-1 62:1 63:-1 64:-1 65:-1 66:1 67:1 68:-1 69:-1 70:1 71:1 72:-1 73:1 74:1 75:-1 76:1 77:1 78:1 79:-1 80:-1 81:1 82:1 83:-1 84:-1 85:1 86:1 87:1 88:1 89:1 90:1 91:1 92:1 93:1 94:1 95:-1 96:-1 97:-1 98:1 99:1 100:-1 101:-1 102:-1 103:1 104:1 105:1 106:-1 107:-1 108:-1 109:-1 110:-1 111:-1 112:-1 113:-1 114:-1 115:-1 116:-1 117:-1 118:-1 119:-1 120:-1 
-0 0 0 0 0 0 1.38627388159735 3.596100958969666 0 0 0 0 0 4.976459160181639 1.308399129155961 0 0 2.021364496502183 1:-1 2:-1 3:-1 4:-1 5:1 6:-1 7:-1 8:-1 9:1 10:-1 11:-1 12:-1 13:-1 14:-1 15:-1 16:-1 17:-1 18:-1 19:1 20:1 21:1 22:1 23:-1 24:-1 25:-1 26:-1 27:-1 28:-1 29:1 30:1 31:1 32:1 33:-1 34:1 35:1 36:-1 37:-1 38:1 39:1 40:1 41:1 42:1 43:1 44:-1 45:-1 46:1 47:1 48:-1 49:1 50:1 51:1 52:-1 53:1 54:1 55:-1 56:-1 57:1 58:1 59:-1 60:-1 61:-1 62:1 63:-1 64:-1 65:-1 66:1 67:1 68:-1 69:-1 70:1 71:1 72:-1 73:1 74:-1 75:-1 76:1 77:1 78:1 79:-1 80:1 81:1 82:1 83:-1 84:-1 85:1 86:1 87:-1 88:1 89:1 90:1 91:1 92:1 93:1 94:-1 95:-1 96:-1 97:1 98:1 99:1 100:-1 101:-1 102:-1 103:1 104:-1 105:-1 106:-1 107:-1 108:-1 109:1 110:1 111:-1 112:-1 113:-1 114:-1 115:-1 116:1 117:1 118:-1 119:-1 120:-1 
-11.55965112969287 28.64189594910216 32 27.80806350079302 26.73653264361537 24.50621010595735 17.64190877213542 32 14.27397519874333 32 27.06733258923067 26.80164979003604 30.2795165111991 27.00139929503351 27.07173920554259 7.441321315692465 8.769751345376168 0 1:-1 2:-1 3:-1 4:-1 5:-1 6:-1 7:-1 8:-1 9:1 10:-1 11:-1 12:-1 13:-1 14:-1 15:-1 16:-1 17:-1 18:-1 19:-1 20:-1 21:1 22:1 23:1 24:1 25:-1 26:-1 27:-1 28:-1 29:1 30:1 31:1 32:1 33:-1 34:1 35:1 36:-1 37:-1 38:-1 39:1 40:1 41:1 42:1 43:1 44:1 45:-1 46:-1 47:1 48:1 49:-1 50:-1 51:1 52:1 53:1 54:-1 55:1 56:1 57:-1 58:-1 59:1 60:1 61:-1 62:1 63:-1 64:-1 65:-1 66:1 67:1 68:-1 69:-1 70:1 71:1 72:-1 73:-1 74:1 75:-1 76:-1 77:1 78:1 79:1 80:-1 81:1 82:1 83:1 84:-1 85:1 86:1 87:-1 88:1 89:1 90:1 91:1 92:1 93:1 94:-1 95:-1 96:-1 97:-1 98:1 99:1 100:1 101:-1 102:-1 103:-1 104:1 105:-1 106:-1 107:-1 108:-1 109:-1 110:1 111:1 112:-1 113:-1 114:-1 115:-1 116:-1 117:-1 118:-1 119:-1 120:-1 
-16.65715222676993 4.784554115009215 0 6.185070908048354 32 0 0 21.43786208249998 0.5804979711224931 12.11063356623684 0 0 0 0 0 0 0 16.27043627968705 1:-1 2:-1 3:-1 4:-1 5:-1 6:-1 7:-1 8:-1 9:1 10:-1 11:-1 12:-1 13:-1 14:-1 15:-1 16:-1 17:-1 18:-1 19:-1 20:1 21:1 22:1 23:1 24:-1 25:-1 26:-1 27:-1 28:1 29:1 30:1 31:1 32:-1 33:1 34:1 35:-1 36:-1 37:1 38:1 39:1 40:1 41:1 42:1 43:-1 44:-1 45:1 46:1 47:-1 48:-1 49:1 50:1 51:1 52:-1 53:1 54:1 55:-1 56:-1 57:1 58:1 59:-1 60:-1 61:1 62:-1 63:-1 64:-1 65:1 66:1 67:-1 68:-1 69:1 70:1 71:-1 72:-1 73:1 74:-1 75:-1 76:1 77:1 78:1 79:-1 80:1 81:1 82:1 83:-1 84:-1 85:1 86:1 87:-1 88:1 89:1 90:1 91:1 92:1 93:1 94:-1 95:-1 96:-1 97:1 98:1 99:1 100:-1 101:-1 102:-1 103:1 104:-1 105:-1 106:-1 107:-1 108:-1 109:-1 110:1 111:1 112:-1 113:-1 114:-1 115:-1 116:-1 117:-1 118:-1 119:-1 120:-1 
-0 0 0 0 0 0 0 0 0 0 0 0 0 0 0 0 0 14.24721854056434 1:-1 2:-1 3:-1 4:-1 5:-1 6:-1 7:-1 8:-1 9:-1 10:-1 11:-1 12:-1 13:-1 14:-1 15:-1 16:-1 17:-1 18:-1 19:-1 20:-1 21:1 22:1 23:-1 24:-1 25:-1 26:1 27:1 28:1 29:1 30:1 31:1 32:1 33:1 34:1 35:1 36:-1 37:-1 38:1 39:1 40:1 41:1 42:1 43:1 44:-1 45:-1 46:1 47:1 48:-1 49:-1 50:1 51:-1 52:-1 53:-1 54:1 55:1 56:-1 57:-1 58:1 59:1 60:-1 61:-1 62:1 63:-1 64:-1 65:-1 66:1 67:1 68:-1 69:-1 70:1 71:1 72:-1 73:1 74:1 75:-1 76:1 77:1 78:1 79:-1 80:-1 81:1 82:1 83:-1 84:-1 85:-1 86:1 87:1 88:1 89:1 90:1 91:1 92:1 93:1 94:1 95:1 96:-1 97:-1 98:-1 99:1 100:1 101:-1 102:-1 103:-1 104:1 105:1 106:1 107:-1 108:-1 109:-1 110:-1 111:-1 112:-1 113:-1 114:-1 115:-1 116:-1 117:-1 118:-1 119:-1 120:-1 
-0 0 0 3.214088856481243 23.02222778153881 14.33347990660426 0 32 0 0 14.48459692092886 0 8.286987425348016 0 0 0 6.002431916611774 0 1:-1 2:-1 3:-1 4:-1 5:-1 6:-1 7:-1 8:-1 9:-1 10:-1 11:-1 12:-1 13:-1 14:-1 15:-1 16:-1 17:-1 18:1 19:1 20:-1 21:-1 22:-1 23:-1 24:-1 25:1 26:1 27:1 28:1 29:1 30:1 31:1 32:1 33:1 34:-1 35:-1 36:-1 37:1 38:1 39:1 40:1 41:1 42:1 43:-1 44:-1 45:1 46:1 47:-1 48:-1 49:1 50:-1 51:-1 52:-1 53:1 54:1 55:-1 56:-1 57:1 58:1 59:-1 60:-1 61:1 62:-1 63:-1 64:-1 65:1 66:1 67:-1 68:-1 69:1 70:1 71:-1 72:-1 73:1 74:1 75:-1 76:1 77:1 78:1 79:-1 80:-1 81:-1 82:1 83:-1 84:-1 85:-1 86:1 87:1 88:1 89:1 90:1 91:1 92:1 93:1 94:1 95:1 96:-1 97:-1 98:1 99:1 100:-1 101:-1 102:-1 103:1 104:1 105:1 106:-1 107:-1 108:-1 109:-1 110:-1 111:-1 112:-1 113:-1 114:-1 115:-1 116:-1 117:-1 118:-1 119:-1 120:-1 
-0 0 28.8556510319283 25.32831465651547 32 1.469303675466648 0 0 13.91674477048321 11.29392747339736 0 0 6.225077434902865 4.708369027649852 13.96838377123948 0 3.735520543058762 32 1:-1 2:-1 3:-1 4:-1 5:-1 6:-1 7:-1 8:-1 9:-1 10:-1 11:-1 12:-1 13:-1 14:-1 15:-1 16:-1 17:-1 18:-1 19:-1 20:1 21:1 22:-1 23:-1 24:-1 25:-1 26:1 27:1 28:1 29:1 30:1 31:1 32:-1 33:1 34:1 35:1 36:-1 37:-1 38:1 39:-1 40:1 41:1 42:1 43:1 44:-1 45:-1 46:1 47:1 48:-1 49:1 50:-1 51:-1 52:-1 53:1 54:1 55:-1 56:-1 57:1 58:1 59:-1 60:-1 61:1 62:-1 63:-1 64:-1 65:1 66:1 67:-1 68:-1 69:1 70:1 71:-1 72:-1 73:1 74:1 75:-1 76:1 77:1 78:1 79:-1 80:-1 81:1 82:1 83:-1 84:-1 85:1 86:1 87:1 88:1 89:1 90:1 91:1 92:1 93:1 94:1 95:-1 96:-1 97:-1 98:1 99:1 100:-1 101:-1 102:-1 103:1 104:1 105:1 106:-1 107:-1 108:-1 109:-1 110:-1 111:-1 112:-1 113:-1 114:-1 115:-1 116:-1 117:-1 118:-1 119:-1 120:-1 
-0 15.17928889821462 2.148072176901959 0 0 0 8.157261971387989 16.33073082004701 3.418456136329542 0 0 13.27727934374644 5.366074209265076 7.121462093272504 0 6.308613905605866 6.899782133960117 0 1:-1 2:-1 3:-1 4:-1 5:-1 6:-1 7:1 8:-1 9:-1 10:-1 11:-1 12:-1 13:-1 14:-1 15:-1 16:-1 17:-1 18:1 19:1 20:1 21:1 22:-1 23:-1 24:-1 25:-1 26:-1 27:1 28:1 29:1 30:1 31:-1 32:1 33:1 34:-1 35:-1 36:-1 37:1 38:1 39:1 40:1 41:1 42:1 43:-1 44:-1 45:1 46:1 47:-1 48:-1 49:1 50:1 51:1 52:-1 53:1 54:1 55:-1 56:-1 57:1 58:1 59:-1 60:-1 61:-1 62:1 63:-1 64:-1 65:-1 66:1 67:1 68:-1 69:-1 70:1 71:1 72:-1 73:1 74:-1 75:-1 76:1 77:1 78:1 79:-1 80:1 81:1 82:1 83:-1 84:-1 85:-1 86:1 87:1 88:-1 89:1 90:1 91:1 92:1 93:1 94:1 95:-1 96:-1 97:-1 98:1 99:1 100:1 101:-1 102:-1 103:-1 104:1 105:-1 106:-1 107:-1 108:-1 109:-1 110:1 111:1 112:-1 113:-1 114:-1 115:-1 116:-1 117:1 118:1 119:-1 120:-1 
-15.90540292489953 0 0 1.642025821798582 0 0 0 0 12.15011392297472 0 0 0 0 0 0 0 0 11.22310779335749 1:-1 2:-1 3:-1 4:-1 5:-1 6:-1 7:-1 8:-1 9:-1 10:-1 11:-1 12:-1 13:-1 14:-1 15:-1 16:-1 17:-1 18:1 19:1 20:-1 21:-1 22:-1 23:-1 24:-1 25:1 26:1 27:1 28:1 29:1 30:1 31:1 32:1 33:1 34:-1 35:-1 36:-1 37:1 38:1 39:1 40:1 41:1 42:1 43:-1 44:-1 45:1 46:1 47:-1 48:-1 49:1 50:-1 51:-1 52:-1 53:1 54:1 55:-1 56:-1 57:1 58:1 59:-1 60:-1 61:-1 62:1 63:-1 64:-1 65:-1 66:1 67:1 68:-1 69:-1 70:1 71:1 72:-1 73:1 74:1 75:-1 76:1 77:1 78:1 79:-1 80:-1 81:1 82:1 83:-1 84:-1 85:1 86:1 87:1 88:1 89:1 90:1 91:1 92:1 93:1 94:1 95:-1 96:-1 97:-1 98:-1 99:1 100:1 101:-1 102:-1 103:-1 104:-1 105:1 106:1 107:-1 108:-1 109:-1 110:-1 111:-1 112:-1 113:-1 114:-1 115:-1 116:-1 117:-1 118:-1 119:-1 120:-1 
-12.55789046869288 0 10.41706304771025 2.124102531053604 32 0 2.17562101301455 0 11.3001792333578 0 24.97538104334306 0 2.858778975354829 1.414612196309923 0 21.50845103538411 0 0 1:-1 2:-1 3:-1 4:-1 5:-1 6:-1 7:-1 8:-1 9:-1 10:-1 11:-1 12:-1 13:-1 14:-1 15:-1 16:-1 17:-1 18:-1 19:1 20:1 21:-1 22:-1 23:-1 24:-1 25:1 26:1 27:1 28:1 29:1 30:1 31:1 32:1 33:1 34:1 35:-1 36:-1 37:-1 38:1 39:1 40:1 41:1 42:1 43:1 44:-1 45:-1 46:1 47:1 48:-1 49:-1 50:1 51:-1 52:-1 53:-1 54:1 55:1 56:-1 57:-1 58:1 59:1 60:-1 61:-1 62:-1 63:1 64:-1 65:-1 66:-1 67:1 68:1 69:-1 70:-1 71:1 72:1 73:-1 74:1 75:1 76:-1 77:1 78:1 79:1 80:-1 81:-1 82:1 83:1 84:-1 85:-1 86:1 87:1 88:1 89:1 90:1 91:1 92:1 93:1 94:1 95:1 96:-1 97:-1 98:-1 99:-1 100:1 101:1 102:-1 103:-1 104:-1 105:1 106:1 107:1 108:-1 109:-1 110:-1 111:-1 112:-1 113:-1 114:-1 115:-1 116:-1 117:-1 118:-1 119:-1 120:-1 
-0 0 0 0 0.03516909970661223 0 0 0 0 0 0 0 0 0 0 0 0 0 1:-1 2:-1 3:-1 4:-1 5:-1 6:-1 7:-1 8:-1 9:-1 10:-1 11:-1 12:-1 13:-1 14:-1 15:-1 16:-1 17:-1 18:-1 19:1 20:1 21:-1 22:-1 23:-1 24:-1 25:1 26:1 27:1 28:1 29:1 30:1 31:1 32:1 33:1 34:1 35:-1 36:-1 37:-1 38:1 39:1 40:1 41:1 42:1 43:1 44:-1 45:-1 46:1 47:1 48:-1 49:-1 50:1 51:-1 52:-1 53:-1 54:1 55:1 56:-1 57:-1 58:1 59:1 60:-1 61:-1 62:-1 63:1 64:-1 65:-1 66:-1 67:1 68:1 69:-1 70:-1 71:1 72:1 73:-1 74:1 75:1 76:-1 77:1 78:1 79:1 80:-1 81:-1 82:1 83:1 84:-1 85:-1 86:-1 87:1 88:1 89:1 90:1 91:1 92:1 93:1 94:1 95:1 96:1 97:-1 98:-1 99:-1 100:1 101:1 102:-1 103:-1 104:-1 105:1 106:1 107:1 108:-1 109:-1 110:-1 111:-1 112:-1 113:-1 114:-1 115:-1 116:-1 117:-1 118:-1 119:-1 120:-1 
-1.21572108365438 0 0 0 0 0 0 0 0 0 0 0 0 0 0 0 0 0.9803473994151204 1:-1 2:-1 3:-1 4:-1 5:-1 6:-1 7:-1 8:-1 9:1 10:-1 11:-1 12:-1 13:-1 14:-1 15:-1 16:-1 17:-1 18:-1 19:-1 20:1 21:1 22:1 23:1 24:-1 25:-1 26:-1 27:-1 28:-1 29:1 30:1 31:1 32:1 33:-1 34:1 35:1 36:-1 37:1 38:1 39:1 40:1 41:1 42:1 43:-1 44:-1 45:1 46:1 47:-1 48:-1 49:1 50:1 51:1 52:-1 53:1 54:1 55:-1 56:-1 57:1 58:1 59:-1 60:-1 61:-1 62:1 63:-1 64:-1 65:-1 66:1 67:1 68:-1 69:-1 70:1 71:1 72:-1 73:1 74:-1 75:-1 76:1 77:1 78:1 79:-1 80:1 81:1 82:1 83:-1 84:-1 85:1 86:1 87:-1 88:1 89:1 90:1 91:1 92:1 93:1 94:-1 95:-1 96:-1 97:-1 98:1 99:1 100:1 101:-1 102:-1 103:-1 104:1 105:-1 106:-1 107:-1 108:-1 109:-1 110:1 111:1 112:-1 113:-1 114:-1 115:-1 116:-1 117:-1 118:-1 119:-1 120:-1 
-0 6.774824013283201 0 0 0 0 0 0 0 0 0 0 0 0 0 0 0 0 1:-1 2:-1 3:-1 4:-1 5:-1 6:-1 7:-1 8:-1 9:-1 10:-1 11:-1 12:-1 13:-1 14:-1 15:-1 16:-1 17:-1 18:-1 19:1 20:1 21:-1 22:-1 23:-1 24:-1 25:1 26:1 27:1 28:1 29:1 30:1 31:1 32:1 33:1 34:1 35:-1 36:-1 37:-1 38:1 39:1 40:1 41:1 42:1 43:1 44:-1 45:-1 46:1 47:1 48:-1 49:-1 50:1 51:-1 52:-1 53:-1 54:1 55:1 56:-1 57:-1 58:1 59:1 60:-1 61:-1 62:1 63:-1 64:-1 65:-1 66:1 67:1 68:-1 69:-1 70:1 71:1 72:-1 73:-1 74:-1 75:1 76:1 77:-1 78:1 79:1 80:1 81:-1 82:-1 83:1 84:1 85:-1 86:1 87:1 88:1 89:1 90:1 91:1 92:1 93:1 94:1 95:1 96:-1 97:-1 98:-1 99:-1 100:1 101:1 102:-1 103:-1 104:-1 105:1 106:1 107:1 108:-1 109:-1 110:-1 111:-1 112:-1 113:-1 114:-1 115:-1 116:-1 117:-1 118:-1 119:-1 120:-1 
-0 0 0 0 14.8104481890731 0 10.29922177410052 11.08280456689427 0 0 0 13.30150704349511 5.320188591798963 17.33109861550893 19.99746217921225 0 0 0 1:-1 2:-1 3:-1 4:-1 5:-1 6:-1 7:-1 8:-1 9:-1 10:-1 11:-1 12:-1 13:-1 14:-1 15:-1 16:-1 17:-1 18:1 19:1 20:-1 21:-1 22:-1 23:-1 24:-1 25:1 26:1 27:1 28:1 29:1 30:1 31:1 32:1 33:1 34:-1 35:-1 36:-1 37:1 38:1 39:1 40:1 41:1 42:1 43:-1 44:-1 45:1 46:1 47:-1 48:-1 49:1 50:-1 51:-1 52:-1 53:1 54:1 55:-1 56:-1 57:1 58:1 59:-1 60:-1 61:1 62:-1 63:-1 64:-1 65:1 66:1 67:-1 68:-1 69:1 70:1 71:-1 72:-1 73:1 74:1 75:-1 76:1 77:1 78:1 79:-1 80:-1 81:1 82:1 83:-1 84:-1 85:-1 86:1 87:1 88:1 89:1 90:1 91:1 92:1 93:1 94:1 95:1 96:-1 97:-1 98:1 99:1 100:-1 101:-1 102:-1 103:1 104:1 105:1 106:-1 107:-1 108:-1 109:-1 110:-1 111:-1 112:-1 113:-1 114:-1 115:-1 116:-1 117:-1 118:-1 119:-1 120:-1 
-0 1.367440233149774 0 0 3.937226259174287 6.823901697219228 0 32 0 1.647117416245992 0 0.09619655714621711 0 0 0 0 0 0 1:-1 2:-1 3:-1 4:-1 5:-1 6:-1 7:-1 8:-1 9:-1 10:-1 11:-1 12:-1 13:-1 14:-1 15:-1 16:-1 17:-1 18:-1 19:-1 20:1 21:1 22:-1 23:-1 24:-1 25:-1 26:1 27:1 28:1 29:1 30:1 31:1 32:1 33:1 34:1 35:1 36:-1 37:-1 38:1 39:1 40:1 41:1 42:1 43:1 44:-1 45:-1 46:1 47:1 48:-1 49:-1 50:1 51:-1 52:-1 53:-1 54:1 55:1 56:-1 57:-1 58:1 59:1 60:-1 61:1 62:-1 63:-1 64:-1 65:1 66:1 67:-1 68:-1 69:1 70:1 71:-1 72:-1 73:-1 74:1 75:1 76:-1 77:1 78:1 79:1 80:-1 81:-1 82:1 83:1 84:-1 85:-1 86:-1 87:1 88:1 89:1 90:1 91:1 92:1 93:1 94:1 95:1 96:-1 97:-1 98:-1 99:1 100:-1 101:-1 102:-1 103:1 104:1 105:-1 106:-1 107:-1 108:-1 109:-1 110:-1 111:-1 112:-1 113:-1 114:-1 115:-1 116:-1 117:-1 118:-1 119:-1 120:-1 
-6.883122372687401 22.44601717231262 16.30149363292743 26.49378451692981 8.581166485831451 22.86033117666297 14.60243879131665 9.712747584005006 14.98492747014322 18.52717129212865 14.73333136805929 25.48171156222276 20.40450170400768 24.65665535313744 19.57356539978241 0 4.283864072323235 4.704379584842892 1:-1 2:-1 3:-1 4:-1 5:-1 6:-1 7:-1 8:-1 9:-1 10:-1 11:-1 12:-1 13:-1 14:-1 15:-1 16:-1 17:-1 18:-1 19:1 20:1 21:-1 22:-1 23:-1 24:-1 25:1 26:1 27:1 28:1 29:1 30:1 31:1 32:1 33:1 34:1 35:-1 36:-1 37:-1 38:1 39:1 40:1 41:1 42:1 43:1 44:-1 45:-1 46:1 47:1 48:-1 49:-1 50:1 51:-1 52:-1 53:-1 54:1 55:1 56:-1 57:-1 58:1 59:1 60:-1 61:-1 62:-1 63:1 64:-1 65:-1 66:-1 67:1 68:1 69:-1 70:-1 71:1 72:1 73:-1 74:1 75:1 76:-1 77:1 78:1 79:1 80:-1 81:-1 82:1 83:1 84:-1 85:-1 86:-1 87:1 88:1 89:1 90:1 91:1 92:1 93:1 94:1 95:1 96:1 97:-1 98:-1 99:-1 100:1 101:1 102:-1 103:-1 104:-1 105:1 106:1 107:1 108:-1 109:-1 110:-1 111:-1 112:-1 113:-1 114:-1 115:-1 116:-1 117:-1 118:-1 119:-1 120:-1 
-0 0 9.504350494132313 0 0.4889586713074661 0 0 14.37203964173028 0 0 0 0 0 0 0 0 0.5242977786399512 0 1:-1 2:-1 3:-1 4:-1 5:-1 6:-1 7:1 8:-1 9:-1 10:-1 11:-1 12:-1 13:-1 14:-1 15:-1 16:-1 17:-1 18:-1 19:1 20:1 21:1 22:1 23:-1 24:-1 25:-1 26:-1 27:-1 28:1 29:1 30:1 31:1 32:-1 33:1 34:1 35:-1 36:-1 37:-1 38:1 39:1 40:1 41:1 42:1 43:1 44:-1 45:-1 46:1 47:1 48:-1 49:-1 50:1 51:1 52:1 53:-1 54:1 55:1 56:-1 57:-1 58:1 59:1 60:-1 61:1 62:-1 63:-1 64:-1 65:1 66:1 67:-1 68:-1 69:1 70:1 71:-1 72:-1 73:-1 74:1 75:-1 76:-1 77:1 78:1 79:1 80:-1 81:1 82:1 83:1 84:-1 85:-1 86:1 87:1 88:-1 89:1 90:1 91:1 92:1 93:1 94:1 95:-1 96:-1 97:1 98:1 99:1 100:-1 101:-1 102:-1 103:1 104:-1 105:-1 106:-1 107:-1 108:-1 109:-1 110:1 111:1 112:-1 113:-1 114:-1 115:-1 116:-1 117:1 118:1 119:-1 120:-1 
-32 32 27.53082727602224 31.11679813791778 10.40679952894238 0 32 24.41297677185015 32 19.19629056515744 32 32 32 32 32 32 29.29870637073902 26.7504789249257 1:-1 2:-1 3:-1 4:-1 5:-1 6:1 7:-1 8:-1 9:-1 10:-1 11:-1 12:-1 13:-1 14:-1 15:-1 16:-1 17:1 18:1 19:1 20:1 21:-1 22:-1 23:-1 24:-1 25:-1 26:1 27:1 28:1 29:1 30:-1 31:1 32:1 33:-1 34:-1 35:-1 36:-1 37:1 38:1 39:1 40:1 41:1 42:-1 43:-1 44:1 45:1 46:-1 47:-1 48:-1 49:1 50:1 51:-1 52:1 53:1 54:-1 55:-1 56:1 57:1 58:-1 59:-1 60:-1 61:1 62:-1 63:-1 64:-1 65:1 66:1 67:-1 68:-1 69:1 70:1 71:-1 72:-1 73:-1 74:-1 75:1 76:1 77:1 78:-1 79:1 80:1 81:1 82:-1 83:-1 84:-1 85:1 86:1 87:-1 88:1 89:1 90:1 91:1 92:1 93:1 94:-1 95:-1 96:-1 97:1 98:1 99:1 100:-1 101:-1 102:-1 103:1 104:-1 105:-1 106:-1 107:-1 108:-1 109:-1 110:-1 111:1 112:1 113:-1 114:-1 115:-1 116:-1 117:-1 118:-1 119:-1 120:-1 
-0 0 0 0 0 0 0 5.463285708402494 0 0 0 0 0 0 0 0 0 0 1:-1 2:-1 3:-1 4:-1 5:-1 6:-1 7:-1 8:-1 9:-1 10:-1 11:-1 12:-1 13:-1 14:-1 15:-1 16:-1 17:-1 18:-1 19:1 20:1 21:-1 22:-1 23:-1 24:-1 25:-1 26:1 27:1 28:1 29:1 30:1 31:1 32:1 33:1 34:1 35:1 36:-1 37:-1 38:1 39:1 40:1 41:1 42:1 43:1 44:-1 45:-1 46:1 47:1 48:-1 49:1 50:-1 51:-1 52:-1 53:1 54:1 55:-1 56:-1 57:1 58:1 59:-1 60:-1 61:-1 62:1 63:-1 64:-1 65:-1 66:1 67:1 68:-1 69:-1 70:1 71:1 72:-1 73:1 74:1 75:-1 76:1 77:1 78:1 79:-1 80:-1 81:-1 82:1 83:-1 84:-1 85:1 86:1 87:1 88:1 89:1 90:1 91:1 92:1 93:1 94:1 95:-1 96:-1 97:-1 98:1 99:1 100:-1 101:-1 102:-1 103:1 104:1 105:1 106:-1 107:-1 108:-1 109:-1 110:-1 111:-1 112:-1 113:-1 114:-1 115:-1 116:-1 117:-1 118:-1 119:-1 120:-1 
-0 14.73675208568449 0 0 0 0 19.54090186559984 0 0 0 15.12252409509642 0 0 16.94062963960115 0 9.684778665945643 0 0 1:-1 2:-1 3:-1 4:-1 5:-1 6:-1 7:-1 8:-1 9:-1 10:-1 11:-1 12:-1 13:-1 14:-1 15:-1 16:-1 17:-1 18:-1 19:-1 20:1 21:1 22:-1 23:-1 24:-1 25:-1 26:1 27:1 28:1 29:1 30:1 31:1 32:1 33:1 34:1 35:-1 36:-1 37:-1 38:1 39:1 40:1 41:1 42:1 43:1 44:-1 45:-1 46:1 47:1 48:-1 49:1 50:-1 51:-1 52:-1 53:1 54:1 55:-1 56:-1 57:1 58:1 59:-1 60:-1 61:-1 62:-1 63:-1 64:-1 65:-1 66:1 67:-1 68:-1 69:1 70:1 71:-1 72:-1 73:1 74:1 75:-1 76:1 77:1 78:1 79:-1 80:-1 81:1 82:1 83:-1 84:-1 85:1 86:1 87:1 88:1 89:1 90:1 91:1 92:1 93:1 94:1 95:-1 96:-1 97:-1 98:1 99:1 100:-1 101:-1 102:-1 103:1 104:1 105:1 106:-1 107:-1 108:-1 109:-1 110:-1 111:-1 112:-1 113:-1 114:-1 115:-1 116:-1 117:-1 118:-1 119:-1 120:-1 
-1.235989468798757 0 0 0 4.991183092786677 0 0 0 0 0 0 0 0 0 0 0 0 15.70801771667256 1:-1 2:-1 3:-1 4:-1 5:-1 6:-1 7:-1 8:1 9:-1 10:-1 11:-1 12:-1 13:-1 14:-1 15:-1 16:-1 17:-1 18:-1 19:-1 20:1 21:1 22:1 23:1 24:-1 25:-1 26:-1 27:-1 28:-1 29:1 30:1 31:1 32:1 33:-1 34:1 35:1 36:-1 37:1 38:1 39:1 40:1 41:1 42:1 43:-1 44:-1 45:1 46:1 47:-1 48:-1 49:-1 50:1 51:1 52:1 53:-1 54:1 55:1 56:-1 57:-1 58:1 59:1 60:-1 61:-1 62:1 63:-1 64:-1 65:-1 66:1 67:1 68:-1 69:-1 70:1 71:1 72:-1 73:-1 74:1 75:-1 76:-1 77:1 78:1 79:1 80:-1 81:1 82:1 83:1 84:-1 85:-1 86:1 87:1 88:-1 89:1 90:1 91:1 92:1 93:1 94:1 95:-1 96:-1 97:-1 98:1 99:1 100:1 101:-1 102:-1 103:-1 104:1 105:-1 106:-1 107:-1 108:-1 109:-1 110:-1 111:1 112:1 113:-1 114:-1 115:-1 116:-1 117:-1 118:-1 119:-1 120:-1 
-0 0 0 0 13.46458563816045 3.359089855668485 0 0 5.973688495675861 0.8235745719551439 0 0 0 0 0 0 0 0 1:-1 2:-1 3:-1 4:-1 5:-1 6:-1 7:-1 8:-1 9:1 10:-1 11:-1 12:-1 13:-1 14:-1 15:-1 16:-1 17:-1 18:-1 19:-1 20:1 21:1 22:1 23:1 24:-1 25:-1 26:-1 27:-1 28:-1 29:1 30:1 31:1 32:1 33:-1 34:1 35:1 36:-1 37:-1 38:1 39:1 40:1 41:1 42:1 43:1 44:-1 45:-1 46:1 47:1 48:-1 49:-1 50:1 51:1 52:1 53:-1 54:1 55:1 56:-1 57:-1 58:1 59:1 60:-1 61:-1 62:1 63:-1 64:-1 65:-1 66:1 67:1 68:-1 69:-1 70:1 71:1 72:-1 73:1 74:-1 75:-1 76:1 77:1 78:1 79:-1 80:1 81:1 82:1 83:-1 84:-1 85:1 86:1 87:-1 88:1 89:1 90:1 91:1 92:1 93:1 94:-1 95:-1 96:-1 97:1 98:1 99:1 100:-1 101:-1 102:-1 103:1 104:-1 105:-1 106:-1 107:-1 108:-1 109:-1 110:1 111:1 112:-1 113:-1 114:-1 115:-1 116:-1 117:1 118:1 119:-1 120:-1 
-7.407627534147671 0 0 5.985471110000047 19.05924420232119 20.41163316806788 0 12.71560835186335 2.591646722546957 0 8.757866504793368 0 0 0 0 0 0 15.6968541363479 1:-1 2:-1 3:-1 4:-1 5:-1 6:-1 7:-1 8:-1 9:-1 10:-1 11:-1 12:-1 13:-1 14:-1 15:-1 16:-1 17:-1 18:-1 19:1 20:1 21:-1 22:-1 23:-1 24:-1 25:1 26:1 27:1 28:1 29:1 30:1 31:1 32:1 33:1 34:1 35:-1 36:-1 37:1 38:1 39:1 40:1 41:1 42:1 43:-1 44:-1 45:1 46:1 47:-1 48:-1 49:1 50:-1 51:-1 52:-1 53:1 54:1 55:-1 56:-1 57:1 58:1 59:-1 60:-1 61:-1 62:1 63:-1 64:-1 65:-1 66:1 67:1 68:-1 69:-1 70:1 71:1 72:-1 73:-1 74:-1 75:1 76:1 77:-1 78:1 79:1 80:1 81:-1 82:-1 83:1 84:1 85:-1 86:-1 87:1 88:1 89:1 90:1 91:1 92:1 93:1 94:1 95:1 96:1 97:-1 98:-1 99:-1 100:-1 101:1 102:1 103:-1 104:-1 105:-1 106:1 107:1 108:1 109:-1 110:-1 111:-1 112:-1 113:-1 114:-1 115:-1 116:-1 117:-1 118:-1 119:-1 120:-1 
-0 0 0.3989131983644473 0 8.628762674200377 0 0 0 0 0 0 0 0 0 0 0 0 0 1:-1 2:-1 3:-1 4:-1 5:-1 6:-1 7:-1 8:-1 9:-1 10:1 11:1 12:-1 13:-1 14:-1 15:-1 16:-1 17:-1 18:-1 19:-1 20:1 21:1 22:-1 23:-1 24:-1 25:-1 26:-1 27:1 28:1 29:1 30:1 31:1 32:1 33:1 34:1 35:1 36:1 37:-1 38:1 39:1 40:1 41:1 42:1 43:1 44:-1 45:-1 46:1 47:1 48:-1 49:-1 50:1 51:-1 52:-1 53:-1 54:1 55:1 56:-1 57:-1 58:1 59:1 60:-1 61:-1 62:1 63:-1 64:-1 65:-1 66:1 67:1 68:-1 69:-1 70:1 71:1 72:-1 73:-1 74:1 75:1 76:-1 77:1 78:1 79:1 80:-1 81:-1 82:1 83:1 84:-1 85:1 86:1 87:1 88:1 89:1 90:1 91:1 92:1 93:1 94:1 95:-1 96:-1 97:-1 98:1 99:1 100:-1 101:-1 102:-1 103:1 104:1 105:1 106:-1 107:-1 108:-1 109:-1 110:-1 111:-1 112:-1 113:-1 114:-1 115:-1 116:-1 117:-1 118:-1 119:-1 120:-1 
-0 0 6.192820731291678 0 0 0 0 3.269736151064893 0 0 0 0 0 0 0 0 0 0 1:-1 2:-1 3:-1 4:-1 5:-1 6:-1 7:-1 8:1 9:-1 10:-1 11:-1 12:-1 13:-1 14:-1 15:-1 16:-1 17:-1 18:-1 19:1 20:1 21:1 22:1 23:-1 24:-1 25:-1 26:-1 27:-1 28:1 29:1 30:1 31:1 32:-1 33:1 34:1 35:-1 36:-1 37:-1 38:1 39:1 40:1 41:1 42:1 43:1 44:-1 45:-1 46:1 47:1 48:-1 49:1 50:1 51:1 52:-1 53:1 54:1 55:-1 56:-1 57:1 58:1 59:-1 60:-1 61:-1 62:1 63:-1 64:-1 65:-1 66:1 67:1 68:-1 69:-1 70:1 71:1 72:-1 73:-1 74:1 75:-1 76:-1 77:1 78:1 79:1 80:-1 81:1 82:1 83:1 84:-1 85:-1 86:1 87:1 88:-1 89:1 90:1 91:1 92:1 93:1 94:1 95:-1 96:-1 97:-1 98:1 99:1 100:1 101:-1 102:-1 103:-1 104:1 105:-1 106:-1 107:-1 108:-1 109:-1 110:-1 111:1 112:1 113:-1 114:-1 115:-1 116:-1 117:-1 118:1 119:1 120:-1 
-0 6.469425895210444 0 0 0 19.65814073091831 0 0 0 0 9.905225234325666 0 0 5.731278459229279 0 4.58819697680838 0 0 1:-1 2:-1 3:-1 4:-1 5:-1 6:-1 7:-1 8:-1 9:1 10:1 11:-1 12:-1 13:-1 14:-1 15:-1 16:-1 17:-1 18:-1 19:1 20:1 21:-1 22:-1 23:-1 24:-1 25:-1 26:1 27:1 28:1 29:1 30:1 31:1 32:1 33:1 34:1 35:1 36:-1 37:1 38:1 39:1 40:1 41:1 42:1 43:-1 44:-1 45:1 46:1 47:-1 48:-1 49:1 50:-1 51:-1 52:-1 53:1 54:1 55:-1 56:-1 57:1 58:1 59:-1 60:-1 61:1 62:-1 63:-1 64:-1 65:1 66:1 67:-1 68:-1 69:1 70:1 71:-1 72:-1 73:1 74:1 75:-1 76:1 77:1 78:1 79:-1 80:-1 81:1 82:1 83:-1 84:-1 85:1 86:1 87:1 88:1 89:1 90:1 91:1 92:1 93:1 94:1 95:-1 96:-1 97:-1 98:1 99:1 100:-1 101:-1 102:-1 103:1 104:1 105:1 106:-1 107:-1 108:-1 109:-1 110:-1 111:-1 112:-1 113:-1 114:-1 115:-1 116:-1 117:-1 118:-1 119:-1 120:-1 
-0 0 0 0 6.545907960238954 0 0 21.25935261524841 0 0 0 0 0 0 0 0 0 0 1:-1 2:-1 3:-1 4:-1 5:-1 6:-1 7:-1 8:-1 9:-1 10:-1 11:-1 12:-1 13:-1 14:-1 15:-1 16:-1 17:-1 18:-1 19:-1 20:1 21:1 22:-1 23:-1 24:-1 25:-1 26:1 27:1 28:1 29:1 30:1 31:1 32:1 33:1 34:1 35:1 36:-1 37:-1 38:1 39:1 40:1 41:1 42:1 43:1 44:-1 45:-1 46:1 47:1 48:-1 49:1 50:-1 51:-1 52:-1 53:1 54:1 55:-1 56:-1 57:1 58:1 59:-1 60:-1 61:1 62:-1 63:-1 64:-1 65:1 66:1 67:-1 68:-1 69:1 70:1 71:-1 72:-1 73:1 74:1 75:-1 76:1 77:1 78:1 79:-1 80:-1 81:1 82:1 83:-1 84:-1 85:1 86:1 87:1 88:1 89:1 90:1 91:1 92:1 93:1 94:1 95:-1 96:-1 97:-1 98:1 99:1 100:-1 101:-1 102:-1 103:1 104:1 105:1 106:-1 107:-1 108:-1 109:-1 110:-1 111:-1 112:-1 113:-1 114:-1 115:-1 116:-1 117:-1 118:-1 119:-1 120:-1 
-0 0 0 2.195788624950869 0 8.180024922351025 0 0 3.249286151277575 0 0 0 0 0 0 0 0 0 1:-1 2:-1 3:-1 4:-1 5:-1 6:-1 7:-1 8:-1 9:-1 10:-1 11:-1 12:-1 13:-1 14:-1 15:-1 16:-1 17:-1 18:-1 19:-1 20:1 21:1 22:-1 23:-1 24:-1 25:1 26:1 27:1 28:1 29:1 30:1 31:1 32:1 33:1 34:1 35:-1 36:-1 37:-1 38:1 39:1 40:1 41:1 42:1 43:1 44:-1 45:-1 46:1 47:1 48:-1 49:-1 50:1 51:-1 52:-1 53:-1 54:1 55:1 56:-1 57:-1 58:1 59:1 60:-1 61:-1 62:-1 63:1 64:-1 65:-1 66:-1 67:1 68:1 69:-1 70:-1 71:1 72:1 73:-1 74:1 75:1 76:-1 77:1 78:1 79:1 80:-1 81:-1 82:1 83:1 84:-1 85:-1 86:1 87:1 88:1 89:1 90:1 91:1 92:1 93:1 94:1 95:1 96:-1 97:-1 98:-1 99:1 100:1 101:-1 102:-1 103:-1 104:1 105:1 106:1 107:-1 108:-1 109:-1 110:-1 111:-1 112:-1 113:-1 114:-1 115:-1 116:-1 117:-1 118:-1 119:-1 120:-1 
-22.74761712120266 0 0 0 0 0 0 8.215465368361725 4.910485999106462 10.28046061012702 0 0 0 0 0 0 0 22.39496403654114 1:-1 2:-1 3:-1 4:-1 5:-1 6:-1 7:-1 8:-1 9:1 10:-1 11:-1 12:-1 13:-1 14:-1 15:-1 16:-1 17:-1 18:-1 19:-1 20:1 21:1 22:1 23:1 24:-1 25:-1 26:-1 27:-1 28:-1 29:-1 30:1 31:1 32:1 33:1 34:-1 35:1 36:1 37:-1 38:1 39:1 40:1 41:1 42:1 43:1 44:-1 45:-1 46:1 47:1 48:-1 49:-1 50:1 51:1 52:1 53:-1 54:1 55:1 56:-1 57:-1 58:1 59:1 60:-1 61:-1 62:1 63:-1 64:-1 65:-1 66:1 67:1 68:-1 69:-1 70:1 71:1 72:-1 73:-1 74:1 75:-1 76:-1 77:1 78:1 79:1 80:-1 81:1 82:1 83:1 84:-1 85:1 86:1 87:-1 88:1 89:1 90:1 91:1 92:1 93:1 94:-1 95:-1 96:-1 97:-1 98:1 99:1 100:1 101:-1 102:-1 103:-1 104:1 105:-1 106:-1 107:-1 108:-1 109:-1 110:1 111:1 112:-1 113:-1 114:-1 115:-1 116:-1 117:1 118:1 119:-1 120:-1 
-1.787348221088733 0 0 0 0 0 0 0 0 0 0 0 0 0 0 0 0 0 1:-1 2:-1 3:-1 4:-1 5:-1 6:-1 7:-1 8:-1 9:-1 10:-1 11:-1 12:-1 13:-1 14:-1 15:-1 16:-1 17:-1 18:-1 19:-1 20:1 21:1 22:-1 23:-1 24:-1 25:1 26:1 27:1 28:1 29:1 30:1 31:1 32:1 33:1 34:1 35:-1 36:-1 37:1 38:1 39:1 40:1 41:1 42:1 43:-1 44:-1 45:1 46:1 47:-1 48:-1 49:-1 50:1 51:-1 52:-1 53:-1 54:1 55:1 56:-1 57:-1 58:1 59:1 60:-1 61:-1 62:1 63:-1 64:-1 65:-1 66:1 67:1 68:-1 69:-1 70:1 71:1 72:-1 73:-1 74:1 75:1 76:-1 77:1 78:1 79:1 80:-1 81:-1 82:1 83:1 84:-1 85:-1 86:-1 87:1 88:1 89:1 90:1 91:1 92:1 93:1 94:1 95:1 96:-1 97:-1 98:-1 99:1 100:1 101:-1 102:-1 103:-1 104:1 105:1 106:1 107:-1 108:-1 109:-1 110:-1 111:-1 112:-1 113:-1 114:-1 115:-1 116:-1 117:-1 118:-1 119:-1 120:-1 
-14.19023237989624 18.71138975030975 3.730855854533171 16.11744931305486 8.157920999606137 11.70283783498744 7.668492509333283 32 0 1.468810486881864 27.50778228156051 20.64997544131152 0 0 0 20.92925543060701 2.229897933759434 0.3921607232888152 1:-1 2:-1 3:-1 4:-1 5:-1 6:-1 7:-1 8:-1 9:-1 10:-1 11:-1 12:-1 13:-1 14:-1 15:-1 16:-1 17:-1 18:-1 19:-1 20:-1 21:1 22:1 23:-1 24:-1 25:-1 26:-1 27:1 28:1 29:1 30:1 31:1 32:1 33:1 34:1 35:1 36:-1 37:-1 38:-1 39:1 40:1 41:1 42:1 43:1 44:1 45:-1 46:-1 47:1 48:1 49:-1 50:1 51:-1 52:-1 53:-1 54:1 55:1 56:-1 57:-1 58:1 59:1 60:-1 61:-1 62:-1 63:-1 64:-1 65:-1 66:-1 67:1 68:-1 69:-1 70:1 71:1 72:-1 73:1 74:1 75:-1 76:1 77:1 78:1 79:-1 80:-1 81:1 82:1 83:-1 84:-1 85:1 86:1 87:1 88:1 89:1 90:1 91:1 92:1 93:1 94:1 95:-1 96:-1 97:-1 98:1 99:1 100:-1 101:-1 102:-1 103:1 104:1 105:1 106:-1 107:-1 108:-1 109:-1 110:-1 111:-1 112:-1 113:-1 114:-1 115:-1 116:-1 117:-1 118:-1 119:-1 120:-1 
-0 6.127801626747989 0 0 0 0 0 0 0 0 0 0 0 0 0 0 0 0 1:-1 2:-1 3:-1 4:-1 5:-1 6:-1 7:-1 8:-1 9:-1 10:-1 11:-1 12:-1 13:-1 14:-1 15:-1 16:-1 17:-1 18:-1 19:1 20:1 21:-1 22:-1 23:-1 24:-1 25:1 26:1 27:1 28:1 29:1 30:1 31:1 32:1 33:1 34:1 35:-1 36:-1 37:1 38:1 39:1 40:1 41:1 42:1 43:-1 44:-1 45:1 46:1 47:-1 48:-1 49:1 50:-1 51:-1 52:-1 53:1 54:1 55:-1 56:-1 57:1 58:1 59:-1 60:-1 61:1 62:-1 63:-1 64:-1 65:1 66:1 67:-1 68:-1 69:1 70:1 71:-1 72:-1 73:-1 74:1 75:1 76:-1 77:1 78:1 79:1 80:-1 81:-1 82:1 83:1 84:-1 85:-1 86:1 87:1 88:1 89:1 90:1 91:1 92:1 93:1 94:1 95:1 96:-1 97:-1 98:-1 99:1 100:1 101:-1 102:-1 103:-1 104:1 105:1 106:1 107:-1 108:-1 109:-1 110:-1 111:-1 112:-1 113:-1 114:-1 115:-1 116:-1 117:-1 118:-1 119:-1 120:-1 
-0 25.90535721133436 8.338849442080189 12.15279990703135 24.45037550995899 27.12793395740294 29.60879653122064 29.79439562569277 8.170637334391078 21.30332157634397 30.67713524289377 1.752108111312432 31.31521752427332 17.01152126399373 5.532042780130755 25.5470166036663 13.29818954631203 0 1:-1 2:-1 3:1 4:-1 5:-1 6:-1 7:1 8:-1 9:-1 10:-1 11:-1 12:-1 13:-1 14:-1 15:-1 16:-1 17:-1 18:1 19:1 20:1 21:1 22:-1 23:-1 24:-1 25:-1 26:-1 27:-1 28:1 29:1 30:1 31:1 32:-1 33:1 34:1 35:-1 36:-1 37:1 38:1 39:1 40:1 41:1 42:1 43:-1 44:-1 45:1 46:1 47:-1 48:-1 49:-1 50:1 51:1 52:1 53:-1 54:1 55:1 56:-1 57:-1 58:1 59:1 60:-1 61:-1 62:1 63:-1 64:-1 65:-1 66:1 67:1 68:-1 69:-1 70:1 71:1 72:-1 73:-1 74:-1 75:-1 76:1 77:-1 78:-1 79:1 80:1 81:1 82:-1 83:1 84:1 85:-1 86:-1 87:-1 88:1 89:1 90:-1 91:1 92:1 93:1 94:1 95:1 96:1 97:-1 98:-1 99:-1 100:1 101:1 102:1 103:-1 104:-1 105:-1 106:1 107:-1 108:-1 109:-1 110:-1 111:-1 112:-1 113:-1 114:-1 115:1 116:1 117:-1 118:-1 119:-1 120:-1 
-0 0 0 0 0 0 0 12.74230213304642 0 0 0 0 0 0 4.893108551890146 0 0 0 1:-1 2:-1 3:-1 4:-1 5:-1 6:-1 7:-1 8:-1 9:1 10:-1 11:-1 12:-1 13:-1 14:-1 15:-1 16:-1 17:-1 18:-1 19:1 20:1 21:1 22:1 23:-1 24:-1 25:-1 26:-1 27:-1 28:-1 29:1 30:1 31:1 32:1 33:-1 34:1 35:1 36:-1 37:-1 38:1 39:1 40:1 41:1 42:1 43:1 44:-1 45:-1 46:1 47:1 48:-1 49:1 50:1 51:1 52:-1 53:1 54:1 55:-1 56:-1 57:1 58:1 59:-1 60:-1 61:-1 62:1 63:-1 64:-1 65:-1 66:1 67:1 68:-1 69:-1 70:1 71:1 72:-1 73:-1 74:1 75:-1 76:-1 77:1 78:1 79:1 80:-1 81:1 82:1 83:1 84:-1 85:-1 86:1 87:1 88:-1 89:1 90:1 91:1 92:1 93:1 94:1 95:-1 96:-1 97:-1 98:1 99:1 100:1 101:-1 102:-1 103:-1 104:1 105:-1 106:-1 107:-1 108:-1 109:-1 110:-1 111:1 112:1 113:-1 114:-1 115:-1 116:-1 117:-1 118:1 119:1 120:-1 
-0 6.863473228848958 0 0 15.81256121776354 4.008077334815772 0 4.668610524397042 0 0 0 0 0.7410185269729238 0 0 0 0 15.70652418673197 1:-1 2:-1 3:-1 4:-1 5:-1 6:-1 7:-1 8:-1 9:-1 10:-1 11:-1 12:-1 13:-1 14:-1 15:-1 16:-1 17:-1 18:-1 19:1 20:1 21:-1 22:-1 23:-1 24:-1 25:1 26:1 27:1 28:1 29:1 30:1 31:1 32:1 33:1 34:1 35:-1 36:-1 37:1 38:1 39:1 40:1 41:1 42:1 43:-1 44:-1 45:-1 46:1 47:-1 48:-1 49:1 50:-1 51:-1 52:-1 53:1 54:1 55:-1 56:-1 57:1 58:1 59:-1 60:-1 61:1 62:-1 63:-1 64:-1 65:1 66:1 67:-1 68:-1 69:1 70:1 71:-1 72:-1 73:-1 74:1 75:1 76:-1 77:1 78:1 79:1 80:-1 81:-1 82:1 83:1 84:-1 85:-1 86:-1 87:1 88:1 89:1 90:1 91:1 92:1 93:1 94:1 95:1 96:-1 97:-1 98:-1 99:1 100:-1 101:-1 102:-1 103:1 104:1 105:-1 106:-1 107:-1 108:-1 109:-1 110:-1 111:-1 112:-1 113:-1 114:-1 115:-1 116:-1 117:-1 118:-1 119:-1 120:-1 
-9.254388070252308 0 0 0 0 0 0 0 0 0 0 0 0 0 0 0 0 0 1:-1 2:-1 3:-1 4:-1 5:-1 6:-1 7:-1 8:-1 9:-1 10:-1 11:-1 12:-1 13:-1 14:-1 15:-1 16:-1 17:-1 18:-1 19:-1 20:1 21:1 22:-1 23:-1 24:-1 25:-1 26:1 27:1 28:1 29:1 30:1 31:1 32:1 33:1 34:1 35:1 36:-1 37:1 38:1 39:1 40:1 41:1 42:1 43:-1 44:-1 45:1 46:1 47:-1 48:-1 49:-1 50:1 51:-1 52:-1 53:-1 54:1 55:1 56:-1 57:-1 58:1 59:1 60:-1 61:-1 62:1 63:-1 64:-1 65:-1 66:1 67:1 68:-1 69:-1 70:1 71:1 72:-1 73:1 74:1 75:-1 76:1 77:1 78:1 79:-1 80:-1 81:1 82:1 83:-1 84:-1 85:-1 86:1 87:1 88:1 89:1 90:1 91:1 92:1 93:1 94:1 95:1 96:-1 97:-1 98:-1 99:1 100:1 101:-1 102:-1 103:-1 104:1 105:1 106:1 107:-1 108:-1 109:-1 110:-1 111:-1 112:-1 113:-1 114:-1 115:-1 116:-1 117:-1 118:-1 119:-1 120:-1 
-0 -0 0 0 0 0 0 0 0 0 0 3.58245441710062 0 0 0 0 0 0 1:-1 2:-1 3:-1 4:1 5:-1 6:-1 7:-1 8:-1 9:1 10:1 11:-1 12:-1 13:-1 14:-1 15:-1 16:1 17:1 18:-1 19:-1 20:-1 21:1 22:1 23:-1 24:-1 25:-1 26:-1 27:1 28:1 29:-1 30:-1 31:1 32:1 33:1 34:-1 35:-1 36:-1 37:-1 38:-1 39:1 40:1 41:1 42:1 43:1 44:1 45:1 46:-1 47:-1 48:-1 49:-1 50:-1 51:-1 52:-1 53:1 54:1 55:-1 56:-1 57:-1 58:-1 59:-1 60:-1 61:-1 62:-1 63:-1 64:-1 65:1 66:1 67:-1 68:-1 69:-1 70:-1 71:-1 72:-1 73:-1 74:-1 75:1 76:1 77:1 78:1 79:1 80:1 81:1 82:-1 83:-1 84:-1 85:-1 86:-1 87:1 88:1 89:1 90:-1 91:1 92:1 93:1 94:-1 95:-1 96:-1 97:-1 98:1 99:1 100:-1 101:-1 102:-1 103:1 104:1 105:-1 106:-1 107:-1 108:-1 109:-1 110:1 111:-1 112:-1 113:-1 114:-1 115:1 116:1 117:-1 118:-1 119:-1 120:-1 
-2.887145634350394 -0 0 0 0 8.762259130622274 5.572619290406669 8.205522129630094 1.592606829266646 0 1.648362024612183 2.913780167484088 3.620978183119583 12.20667373856639 10.03359387828297 0 12.94915053762674 14.69382552561776 1:-1 2:-1 3:-1 4:1 5:-1 6:-1 7:-1 8:-1 9:1 10:1 11:-1 12:-1 13:-1 14:-1 15:-1 16:1 17:1 18:-1 19:-1 20:-1 21:1 22:1 23:-1 24:-1 25:-1 26:-1 27:1 28:1 29:-1 30:-1 31:1 32:1 33:1 34:-1 35:-1 36:-1 37:-1 38:-1 39:-1 40:1 41:1 42:1 43:1 44:1 45:1 46:1 47:-1 48:-1 49:-1 50:-1 51:-1 52:-1 53:1 54:1 55:-1 56:-1 57:-1 58:-1 59:-1 60:-1 61:-1 62:-1 63:-1 64:-1 65:-1 66:1 67:1 68:-1 69:-1 70:-1 71:-1 72:-1 73:-1 74:-1 75:-1 76:1 77:1 78:1 79:1 80:1 81:1 82:1 83:-1 84:-1 85:-1 86:-1 87:1 88:1 89:1 90:-1 91:1 92:1 93:1 94:-1 95:-1 96:-1 97:-1 98:-1 99:-1 100:1 101:1 102:-1 103:-1 104:-1 105:1 106:1 107:-1 108:-1 109:-1 110:-1 111:-1 112:1 113:-1 114:-1 115:-1 116:-1 117:1 118:1 119:-1 120:-1 
-3.298319346671084 -0 0 0 0 0 0 0 0 0 32 7.588685091653391 17.05324349724521 0 0 8.191111128315463 0 0 1:-1 2:-1 3:1 4:-1 5:-1 6:-1 7:-1 8:1 9:1 10:-1 11:-1 12:-1 13:-1 14:-1 15:-1 16:1 17:1 18:-1 19:-1 20:-1 21:1 22:1 23:-1 24:-1 25:-1 26:-1 27:1 28:1 29:-1 30:-1 31:1 32:1 33:1 34:-1 35:-1 36:-1 37:-1 38:-1 39:-1 40:1 41:1 42:1 43:1 44:1 45:1 46:1 47:-1 48:-1 49:-1 50:-1 51:-1 52:-1 53:-1 54:1 55:1 56:-1 57:-1 58:-1 59:-1 60:-1 61:-1 62:-1 63:-1 64:-1 65:-1 66:-1 67:1 68:1 69:-1 70:-1 71:-1 72:-1 73:-1 74:-1 75:-1 76:1 77:1 78:1 79:1 80:1 81:1 82:1 83:-1 84:-1 85:-1 86:-1 87:-1 88:1 89:1 90:1 91:-1 92:1 93:1 94:1 95:-1 96:-1 97:-1 98:-1 99:-1 100:1 101:1 102:-1 103:-1 104:-1 105:1 106:1 107:-1 108:-1 109:-1 110:-1 111:-1 112:1 113:-1 114:-1 115:-1 116:-1 117:1 118:1 119:-1 120:-1 
-0 -1.587937028241441 0 0 0 0 0 8.51587018766449 0 0 0 0 0 0 0 0 0 0 1:-1 2:-1 3:-1 4:1 5:-1 6:-1 7:-1 8:-1 9:1 10:1 11:-1 12:-1 13:-1 14:-1 15:1 16:1 17:-1 18:-1 19:-1 20:1 21:1 22:-1 23:-1 24:-1 25:-1 26:-1 27:1 28:1 29:-1 30:-1 31:1 32:1 33:1 34:-1 35:-1 36:-1 37:-1 38:-1 39:1 40:1 41:1 42:1 43:1 44:1 45:1 46:-1 47:-1 48:-1 49:-1 50:-1 51:-1 52:-1 53:1 54:1 55:-1 56:-1 57:-1 58:-1 59:-1 60:-1 61:-1 62:-1 63:-1 64:-1 65:1 66:1 67:-1 68:-1 69:-1 70:-1 71:-1 72:-1 73:-1 74:-1 75:1 76:1 77:1 78:1 79:1 80:1 81:1 82:-1 83:-1 84:-1 85:-1 86:-1 87:1 88:1 89:1 90:-1 91:1 92:1 93:1 94:-1 95:-1 96:-1 97:-1 98:1 99:1 100:-1 101:-1 102:-1 103:1 104:1 105:-1 106:-1 107:-1 108:-1 109:-1 110:1 111:-1 112:-1 113:-1 114:-1 115:1 116:1 117:-1 118:-1 119:-1 120:-1 
-0 -0 0 7.053423349160809 0 0 0 0 0 0 0 0 0 0 0.04417366519591313 0 0 0 1:-1 2:-1 3:-1 4:1 5:-1 6:-1 7:-1 8:-1 9:1 10:1 11:-1 12:-1 13:-1 14:-1 15:1 16:1 17:-1 18:-1 19:-1 20:1 21:1 22:-1 23:-1 24:-1 25:-1 26:-1 27:-1 28:1 29:1 30:-1 31:-1 32:1 33:1 34:1 35:-1 36:-1 37:-1 38:-1 39:-1 40:1 41:1 42:1 43:1 44:1 45:1 46:1 47:-1 48:-1 49:-1 50:-1 51:-1 52:-1 53:-1 54:1 55:1 56:-1 57:-1 58:-1 59:-1 60:-1 61:-1 62:-1 63:-1 64:-1 65:-1 66:1 67:1 68:-1 69:-1 70:-1 71:-1 72:-1 73:-1 74:-1 75:-1 76:1 77:1 78:1 79:1 80:1 81:1 82:1 83:-1 84:-1 85:-1 86:-1 87:-1 88:1 89:1 90:1 91:-1 92:1 93:1 94:1 95:-1 96:-1 97:-1 98:-1 99:-1 100:1 101:1 102:-1 103:-1 104:-1 105:1 106:1 107:-1 108:-1 109:-1 110:-1 111:-1 112:1 113:-1 114:-1 115:-1 116:-1 117:1 118:1 119:-1 120:-1 
-6.888399687146677 -23.28342673995275 6.699314665274321 3.309715766070173 9.890723182909573 21.39349673760215 21.70422298025715 23.25245332603903 6.56700131892495 0 30.14946149952758 6.709001070329735 3.827676654192703 10.64813493280062 16.6096389940351 0 11.49313153944337 0 1:-1 2:-1 3:1 4:-1 5:-1 6:-1 7:-1 8:1 9:1 10:-1 11:-1 12:-1 13:-1 14:1 15:1 16:-1 17:-1 18:-1 19:1 20:1 21:-1 22:-1 23:-1 24:-1 25:-1 26:1 27:1 28:-1 29:-1 30:1 31:1 32:1 33:-1 34:-1 35:-1 36:-1 37:-1 38:-1 39:1 40:1 41:1 42:1 43:1 44:1 45:1 46:-1 47:-1 48:-1 49:-1 50:-1 51:-1 52:1 53:1 54:-1 55:-1 56:-1 57:-1 58:-1 59:-1 60:-1 61:-1 62:-1 63:-1 64:-1 65:1 66:1 67:-1 68:-1 69:-1 70:-1 71:-1 72:-1 73:-1 74:-1 75:1 76:1 77:1 78:1 79:1 80:1 81:1 82:-1 83:-1 84:-1 85:-1 86:-1 87:-1 88:1 89:1 90:1 91:-1 92:1 93:1 94:1 95:-1 96:-1 97:-1 98:-1 99:1 100:1 101:-1 102:-1 103:-1 104:1 105:1 106:-1 107:-1 108:-1 109:-1 110:-1 111:-1 112:1 113:-1 114:-1 115:-1 116:-1 117:1 118:1 119:-1 120:-1 
-0 -0 6.271779496411522 0 12.65716132971513 0 0 0 0 7.542632527493074 0 0 8.630202456735175 0 0 0 0 7.741573384753171 1:-1 2:-1 3:-1 4:1 5:-1 6:-1 7:-1 8:-1 9:1 10:1 11:-1 12:-1 13:-1 14:-1 15:1 16:1 17:-1 18:-1 19:-1 20:1 21:1 22:-1 23:-1 24:-1 25:-1 26:-1 27:-1 28:1 29:1 30:-1 31:-1 32:1 33:1 34:1 35:-1 36:-1 37:-1 38:-1 39:-1 40:1 41:1 42:1 43:1 44:1 45:1 46:1 47:-1 48:-1 49:-1 50:-1 51:-1 52:-1 53:1 54:1 55:-1 56:-1 57:-1 58:-1 59:-1 60:-1 61:-1 62:-1 63:-1 64:-1 65:-1 66:1 67:1 68:-1 69:-1 70:-1 71:-1 72:-1 73:-1 74:-1 75:-1 76:1 77:1 78:1 79:1 80:1 81:1 82:1 83:-1 84:-1 85:-1 86:-1 87:-1 88:1 89:1 90:1 91:-1 92:1 93:1 94:1 95:-1 96:-1 97:-1 98:-1 99:-1 100:1 101:1 102:-1 103:-1 104:-1 105:1 106:1 107:-1 108:-1 109:-1 110:-1 111:-1 112:1 113:-1 114:-1 115:-1 116:-1 117:1 118:1 119:-1 120:-1 
-0 -6.924668761961737 5.179560322694288 0 0.3897037105350189 9.938268120584159 9.472616607947659 1.39917135428437 0 0 1.914059079884239 0 0 0 0 5.50187998119781 0 0 1:-1 2:-1 3:-1 4:1 5:-1 6:-1 7:-1 8:-1 9:1 10:1 11:-1 12:-1 13:-1 14:-1 15:-1 16:1 17:1 18:-1 19:-1 20:-1 21:1 22:1 23:-1 24:-1 25:-1 26:-1 27:-1 28:1 29:1 30:-1 31:-1 32:1 33:1 34:1 35:-1 36:-1 37:-1 38:-1 39:-1 40:1 41:1 42:1 43:1 44:1 45:1 46:1 47:-1 48:-1 49:-1 50:-1 51:-1 52:-1 53:-1 54:1 55:1 56:-1 57:-1 58:-1 59:-1 60:-1 61:-1 62:-1 63:-1 64:-1 65:-1 66:1 67:-1 68:-1 69:-1 70:-1 71:-1 72:-1 73:-1 74:-1 75:-1 76:1 77:1 78:1 79:1 80:1 81:1 82:1 83:-1 84:-1 85:-1 86:-1 87:-1 88:1 89:1 90:1 91:-1 92:1 93:1 94:1 95:-1 96:-1 97:-1 98:-1 99:1 100:1 101:-1 102:-1 103:-1 104:1 105:1 106:-1 107:-1 108:-1 109:-1 110:-1 111:1 112:-1 113:-1 114:-1 115:-1 116:1 117:1 118:-1 119:-1 120:-1 
-2.930734702007984 -0 0 12.37853788140818 0 0 2.151018473927748 0 7.581551027706754 0 0 0 0 0 5.718997472544745 0 0 0 1:-1 2:-1 3:-1 4:-1 5:1 6:-1 7:-1 8:-1 9:-1 10:1 11:1 12:-1 13:-1 14:-1 15:-1 16:-1 17:1 18:1 19:-1 20:-1 21:1 22:1 23:1 24:-1 25:-1 26:-1 27:-1 28:1 29:1 30:-1 31:-1 32:1 33:1 34:1 35:-1 36:-1 37:-1 38:-1 39:-1 40:1 41:1 42:1 43:1 44:-1 45:-1 46:-1 47:-1 48:-1 49:-1 50:-1 51:-1 52:-1 53:-1 54:1 55:1 56:-1 57:-1 58:-1 59:-1 60:-1 61:-1 62:-1 63:-1 64:-1 65:1 66:1 67:1 68:1 69:1 70:-1 71:-1 72:-1 73:-1 74:-1 75:1 76:1 77:1 78:1 79:1 80:1 81:1 82:-1 83:-1 84:-1 85:-1 86:-1 87:1 88:1 89:1 90:-1 91:-1 92:1 93:1 94:-1 95:-1 96:-1 97:-1 98:1 99:1 100:-1 101:-1 102:-1 103:-1 104:1 105:-1 106:-1 107:-1 108:-1 109:-1 110:1 111:-1 112:-1 113:-1 114:-1 115:-1 116:-1 117:-1 118:-1 119:-1 120:-1 
-7.52041422037732 -0 0 0 0 0 0 0 0 0 0 0 0.2085239126676683 0 0 0 0 0 1:-1 2:-1 3:-1 4:1 5:-1 6:-1 7:-1 8:-1 9:1 10:1 11:-1 12:-1 13:-1 14:-1 15:-1 16:1 17:1 18:-1 19:-1 20:-1 21:1 22:1 23:-1 24:-1 25:-1 26:-1 27:-1 28:1 29:1 30:-1 31:-1 32:1 33:1 34:1 35:-1 36:-1 37:-1 38:-1 39:-1 40:1 41:1 42:1 43:1 44:1 45:1 46:1 47:-1 48:-1 49:-1 50:-1 51:-1 52:-1 53:-1 54:1 55:1 56:-1 57:-1 58:-1 59:-1 60:-1 61:-1 62:-1 63:-1 64:-1 65:-1 66:1 67:1 68:-1 69:-1 70:-1 71:-1 72:-1 73:-1 74:-1 75:-1 76:1 77:1 78:1 79:1 80:1 81:1 82:1 83:-1 84:-1 85:-1 86:-1 87:-1 88:1 89:1 90:1 91:-1 92:1 93:1 94:1 95:-1 96:-1 97:-1 98:-1 99:1 100:1 101:-1 102:-1 103:-1 104:1 105:1 106:-1 107:-1 108:-1 109:-1 110:-1 111:1 112:-1 113:-1 114:-1 115:-1 116:1 117:1 118:-1 119:-1 120:-1 
-0 -0 0 3.808571244395458 0 0 0 0 0 3.511400865010986 0 8.186821806282113 0.6705418185042072 8.212113690723117 0 0 0 0 1:-1 2:-1 3:1 4:-1 5:-1 6:-1 7:-1 8:1 9:1 10:-1 11:-1 12:-1 13:-1 14:-1 15:-1 16:1 17:1 18:-1 19:-1 20:-1 21:1 22:1 23:-1 24:-1 25:-1 26:-1 27:1 28:1 29:-1 30:-1 31:1 32:1 33:1 34:-1 35:-1 36:-1 37:-1 38:-1 39:-1 40:1 41:1 42:1 43:1 44:1 45:1 46:1 47:-1 48:-1 49:-1 50:-1 51:-1 52:-1 53:-1 54:1 55:1 56:-1 57:-1 58:-1 59:-1 60:-1 61:-1 62:-1 63:-1 64:-1 65:1 66:1 67:-1 68:-1 69:-1 70:-1 71:-1 72:-1 73:-1 74:-1 75:1 76:1 77:1 78:1 79:1 80:1 81:1 82:-1 83:-1 84:-1 85:-1 86:1 87:1 88:1 89:-1 90:1 91:1 92:1 93:-1 94:-1 95:-1 96:-1 97:-1 98:-1 99:1 100:1 101:-1 102:-1 103:-1 104:1 105:1 106:-1 107:-1 108:-1 109:-1 110:1 111:-1 112:-1 113:-1 114:-1 115:1 116:1 117:-1 118:-1 119:-1 120:-1 
-0 -0 6.69719113185745 0 0 0 0 3.302065615430265 6.340002961006097 22.16878393461492 28.11855068945344 6.894680382029297 0 2.646946985317221 0 17.39841669978915 0 0 1:-1 2:-1 3:1 4:-1 5:-1 6:-1 7:-1 8:1 9:1 10:-1 11:-1 12:-1 13:-1 14:-1 15:1 16:1 17:-1 18:-1 19:-1 20:1 21:1 22:-1 23:-1 24:-1 25:-1 26:-1 27:1 28:1 29:-1 30:-1 31:1 32:1 33:1 34:-1 35:-1 36:-1 37:-1 38:-1 39:1 40:1 41:1 42:1 43:1 44:1 45:1 46:-1 47:-1 48:-1 49:-1 50:-1 51:-1 52:1 53:1 54:-1 55:-1 56:-1 57:-1 58:-1 59:-1 60:-1 61:-1 62:-1 63:-1 64:-1 65:1 66:1 67:-1 68:-1 69:-1 70:-1 71:-1 72:-1 73:-1 74:1 75:1 76:1 77:1 78:1 79:1 80:1 81:-1 82:-1 83:-1 84:-1 85:-1 86:-1 87:1 88:1 89:1 90:-1 91:1 92:1 93:1 94:-1 95:-1 96:-1 97:-1 98:-1 99:1 100:1 101:-1 102:-1 103:-1 104:1 105:1 106:-1 107:-1 108:-1 109:-1 110:-1 111:-1 112:1 113:-1 114:-1 115:-1 116:-1 117:1 118:1 119:-1 120:-1 
-6.845464551448802 -22.35572658593532 0 0 0 0 0 12.37556072469909 0 0 0 0 9.608647059348471 0 7.966518340401672 0 0 0 1:-1 2:-1 3:-1 4:1 5:-1 6:-1 7:-1 8:-1 9:1 10:1 11:-1 12:-1 13:-1 14:-1 15:-1 16:1 17:1 18:-1 19:-1 20:1 21:1 22:1 23:-1 24:-1 25:-1 26:-1 27:-1 28:1 29:1 30:-1 31:-1 32:1 33:1 34:1 35:-1 36:-1 37:-1 38:-1 39:-1 40:1 41:1 42:1 43:1 44:-1 45:-1 46:-1 47:-1 48:-1 49:-1 50:-1 51:-1 52:-1 53:-1 54:1 55:1 56:-1 57:-1 58:-1 59:-1 60:-1 61:-1 62:-1 63:-1 64:-1 65:-1 66:1 67:1 68:1 69:1 70:1 71:-1 72:-1 73:-1 74:-1 75:-1 76:1 77:1 78:1 79:1 80:1 81:1 82:1 83:-1 84:-1 85:-1 86:-1 87:-1 88:1 89:1 90:1 91:-1 92:-1 93:1 94:1 95:-1 96:-1 97:-1 98:-1 99:1 100:1 101:-1 102:-1 103:-1 104:1 105:1 106:-1 107:-1 108:-1 109:-1 110:-1 111:1 112:-1 113:-1 114:-1 115:-1 116:-1 117:-1 118:-1 119:-1 120:-1 
-0 -2.519005419231148 0 0 0.6681891443367309 12.98617596184602 0 0 0 0 0 0 0 0 0 23.37531781851117 27.64935218950765 0 1:-1 2:-1 3:1 4:-1 5:-1 6:-1 7:-1 8:1 9:1 10:-1 11:-1 12:-1 13:-1 14:-1 15:-1 16:1 17:1 18:-1 19:-1 20:1 21:1 22:1 23:-1 24:-1 25:-1 26:-1 27:-1 28:1 29:1 30:-1 31:-1 32:1 33:1 34:1 35:-1 36:-1 37:-1 38:-1 39:1 40:1 41:1 42:1 43:-1 44:-1 45:-1 46:-1 47:-1 48:-1 49:-1 50:-1 51:-1 52:-1 53:1 54:1 55:-1 56:-1 57:-1 58:-1 59:-1 60:-1 61:-1 62:-1 63:-1 64:-1 65:1 66:1 67:1 68:1 69:1 70:-1 71:-1 72:-1 73:-1 74:1 75:1 76:1 77:1 78:1 79:1 80:1 81:-1 82:-1 83:-1 84:-1 85:-1 86:1 87:1 88:1 89:-1 90:-1 91:1 92:1 93:-1 94:-1 95:-1 96:-1 97:-1 98:1 99:1 100:-1 101:-1 102:-1 103:1 104:1 105:-1 106:-1 107:-1 108:-1 109:-1 110:1 111:-1 112:-1 113:-1 114:-1 115:1 116:1 117:-1 118:-1 119:-1 120:-1 
-0 -0 2.323704716123728 4.179175029705227 0 0 0 0 0 0 0 0 0 0 0 0 0 4.009046624890261 1:-1 2:-1 3:-1 4:1 5:-1 6:-1 7:-1 8:-1 9:1 10:1 11:-1 12:-1 13:-1 14:-1 15:-1 16:1 17:1 18:-1 19:-1 20:-1 21:1 22:1 23:-1 24:-1 25:-1 26:-1 27:-1 28:1 29:1 30:-1 31:-1 32:1 33:-1 34:1 35:-1 36:-1 37:-1 38:-1 39:-1 40:1 41:1 42:1 43:1 44:1 45:1 46:1 47:-1 48:-1 49:-1 50:-1 51:-1 52:-1 53:-1 54:1 55:1 56:-1 57:-1 58:-1 59:-1 60:-1 61:-1 62:-1 63:-1 64:-1 65:1 66:1 67:-1 68:-1 69:-1 70:-1 71:-1 72:-1 73:-1 74:-1 75:-1 76:1 77:1 78:1 79:1 80:1 81:1 82:1 83:-1 84:-1 85:-1 86:-1 87:-1 88:1 89:1 90:1 91:-1 92:1 93:1 94:1 95:-1 96:-1 97:-1 98:-1 99:1 100:1 101:-1 102:-1 103:-1 104:1 105:1 106:-1 107:-1 108:-1 109:-1 110:-1 111:-1 112:1 113:-1 114:-1 115:-1 116:-1 117:1 118:1 119:-1 120:-1 
-0 -0 0 0 0 0 3.631168628406246 0 0 0 0 0 0 0 0 0 0 0 1:-1 2:-1 3:1 4:-1 5:-1 6:-1 7:-1 8:1 9:1 10:-1 11:-1 12:-1 13:-1 14:-1 15:1 16:1 17:-1 18:-1 19:1 20:1 21:1 22:-1 23:-1 24:-1 25:-1 26:-1 27:1 28:1 29:-1 30:-1 31:1 32:1 33:1 34:-1 35:-1 36:-1 37:-1 38:-1 39:1 40:1 41:1 42:1 43:-1 44:-1 45:-1 46:-1 47:-1 48:-1 49:-1 50:-1 51:-1 52:-1 53:1 54:1 55:-1 56:-1 57:-1 58:-1 59:-1 60:-1 61:-1 62:-1 63:-1 64:1 65:1 66:1 67:1 68:1 69:-1 70:-1 71:-1 72:-1 73:-1 74:-1 75:1 76:1 77:1 78:1 79:1 80:1 81:1 82:-1 83:-1 84:-1 85:-1 86:-1 87:1 88:1 89:1 90:-1 91:-1 92:1 93:1 94:-1 95:-1 96:-1 97:-1 98:-1 99:1 100:1 101:-1 102:-1 103:-1 104:1 105:1 106:-1 107:-1 108:-1 109:-1 110:-1 111:1 112:-1 113:-1 114:-1 115:-1 116:-1 117:-1 118:-1 119:-1 120:-1 
-22.26351588810771 -32 27.41873048277678 29.76779689376605 32 0 17.27352517650278 16.12048144888673 23.46867724467636 12.18868863651039 19.67700857247618 14.24093996016026 30.23582117079007 30.91938013766539 23.00859034727831 0 0 32 1:-1 2:-1 3:1 4:-1 5:-1 6:-1 7:-1 8:1 9:1 10:-1 11:-1 12:-1 13:-1 14:-1 15:-1 16:1 17:1 18:-1 19:-1 20:1 21:1 22:1 23:-1 24:-1 25:-1 26:-1 27:-1 28:1 29:1 30:-1 31:-1 32:1 33:1 34:1 35:-1 36:-1 37:-1 38:-1 39:1 40:1 41:1 42:1 43:-1 44:-1 45:-1 46:-1 47:-1 48:-1 49:-1 50:-1 51:-1 52:-1 53:1 54:1 55:-1 56:-1 57:-1 58:-1 59:-1 60:-1 61:-1 62:-1 63:-1 64:-1 65:1 66:1 67:1 68:1 69:1 70:-1 71:-1 72:-1 73:-1 74:1 75:1 76:1 77:1 78:1 79:1 80:1 81:-1 82:-1 83:-1 84:-1 85:-1 86:1 87:1 88:1 89:-1 90:-1 91:1 92:1 93:-1 94:-1 95:-1 96:-1 97:-1 98:1 99:1 100:-1 101:-1 102:-1 103:1 104:1 105:-1 106:-1 107:-1 108:-1 109:-1 110:1 111:-1 112:-1 113:-1 114:-1 115:-1 116:-1 117:-1 118:-1 119:-1 120:-1 
-0 -0 0 0 5.613080737878457 3.839895085003572 5.287054285536549 0 0 0 6.54423798522669 0 0 12.171568671856 4.275210729044672 0 1.122260611338732 0 1:-1 2:-1 3:-1 4:1 5:-1 6:-1 7:-1 8:-1 9:1 10:1 11:-1 12:-1 13:-1 14:-1 15:-1 16:1 17:1 18:-1 19:-1 20:1 21:1 22:1 23:-1 24:-1 25:-1 26:-1 27:-1 28:1 29:1 30:-1 31:-1 32:1 33:1 34:1 35:-1 36:-1 37:-1 38:-1 39:-1 40:1 41:1 42:1 43:1 44:-1 45:-1 46:-1 47:-1 48:-1 49:-1 50:-1 51:-1 52:-1 53:1 54:1 55:-1 56:-1 57:-1 58:-1 59:-1 60:-1 61:-1 62:-1 63:-1 64:-1 65:-1 66:1 67:1 68:1 69:1 70:1 71:-1 72:-1 73:-1 74:-1 75:1 76:1 77:1 78:1 79:1 80:1 81:1 82:-1 83:-1 84:-1 85:-1 86:-1 87:-1 88:1 89:1 90:1 91:-1 92:-1 93:1 94:1 95:-1 96:-1 97:-1 98:-1 99:-1 100:1 101:1 102:-1 103:-1 104:-1 105:1 106:1 107:-1 108:-1 109:-1 110:-1 111:-1 112:-1 113:1 114:-1 115:-1 116:-1 117:-1 118:-1 119:-1 120:-1 
-5.612602695880542 -0 10.62144684593045 19.48669847793649 0 13.52492780914088 12.74320506331422 0 13.02603500143422 12.32923817194277 23.71776810398112 11.33196867184762 2.682476996574337 15.13742355651349 0 8.894689483007529 1.411706760134749 1.407400082480859 1:-1 2:-1 3:-1 4:1 5:-1 6:-1 7:-1 8:-1 9:1 10:1 11:-1 12:-1 13:-1 14:-1 15:-1 16:1 17:1 18:-1 19:-1 20:1 21:1 22:1 23:-1 24:-1 25:-1 26:-1 27:-1 28:1 29:1 30:-1 31:-1 32:1 33:1 34:1 35:-1 36:-1 37:-1 38:-1 39:-1 40:1 41:1 42:1 43:-1 44:-1 45:-1 46:-1 47:-1 48:-1 49:-1 50:-1 51:-1 52:-1 53:-1 54:1 55:1 56:-1 57:-1 58:-1 59:-1 60:-1 61:-1 62:-1 63:-1 64:-1 65:-1 66:1 67:1 68:1 69:1 70:1 71:-1 72:-1 73:-1 74:-1 75:1 76:1 77:1 78:1 79:1 80:1 81:1 82:-1 83:-1 84:-1 85:-1 86:-1 87:-1 88:1 89:1 90:1 91:-1 92:-1 93:-1 94:1 95:-1 96:-1 97:-1 98:-1 99:-1 100:1 101:1 102:-1 103:-1 104:-1 105:1 106:1 107:-1 108:-1 109:-1 110:-1 111:1 112:-1 113:-1 114:-1 115:-1 116:-1 117:-1 118:-1 119:-1 120:-1 
-0 -0 5.889981584533274 0 1.106377750890537 0 0 0 0 0 0 0 4.404330854145755 0 0 0 0 0 1:-1 2:-1 3:-1 4:1 5:-1 6:-1 7:-1 8:-1 9:1 10:1 11:-1 12:-1 13:-1 14:-1 15:1 16:1 17:-1 18:-1 19:-1 20:1 21:1 22:-1 23:-1 24:-1 25:-1 26:-1 27:1 28:1 29:-1 30:-1 31:1 32:1 33:1 34:-1 35:-1 36:-1 37:-1 38:-1 39:1 40:1 41:1 42:1 43:1 44:1 45:1 46:-1 47:-1 48:-1 49:-1 50:-1 51:-1 52:-1 53:1 54:1 55:-1 56:-1 57:-1 58:-1 59:-1 60:-1 61:-1 62:-1 63:-1 64:-1 65:1 66:1 67:-1 68:-1 69:-1 70:-1 71:-1 72:-1 73:-1 74:-1 75:-1 76:1 77:1 78:1 79:1 80:1 81:1 82:1 83:-1 84:-1 85:-1 86:-1 87:-1 88:1 89:1 90:1 91:-1 92:1 93:1 94:1 95:-1 96:-1 97:-1 98:-1 99:-1 100:1 101:1 102:-1 103:-1 104:-1 105:1 106:1 107:-1 108:-1 109:-1 110:-1 111:-1 112:1 113:-1 114:-1 115:-1 116:-1 117:1 118:1 119:-1 120:-1 
-0 -0 7.79816465529994 0 0 0 0 0 0 0 0 0 0 0 0 0 0 0 1:-1 2:1 3:-1 4:-1 5:-1 6:-1 7:1 8:1 9:-1 10:-1 11:-1 12:-1 13:-1 14:-1 15:1 16:1 17:-1 18:-1 19:-1 20:1 21:1 22:-1 23:-1 24:-1 25:-1 26:-1 27:1 28:1 29:-1 30:-1 31:1 32:1 33:1 34:-1 35:-1 36:-1 37:-1 38:-1 39:1 40:1 41:1 42:1 43:1 44:1 45:1 46:-1 47:-1 48:-1 49:-1 50:-1 51:-1 52:-1 53:1 54:1 55:-1 56:-1 57:-1 58:-1 59:-1 60:-1 61:-1 62:-1 63:-1 64:-1 65:1 66:1 67:-1 68:-1 69:-1 70:-1 71:-1 72:-1 73:-1 74:-1 75:-1 76:1 77:1 78:1 79:1 80:1 81:1 82:1 83:-1 84:-1 85:-1 86:-1 87:-1 88:1 89:1 90:1 91:-1 92:1 93:1 94:1 95:-1 96:-1 97:-1 98:-1 99:-1 100:1 101:1 102:-1 103:-1 104:-1 105:1 106:1 107:-1 108:-1 109:-1 110:-1 111:-1 112:1 113:-1 114:-1 115:-1 116:-1 117:1 118:1 119:-1 120:-1 
-0 -0 0 0 0 0 0 0 0 0 0 0 0 3.157194246442198 0 0 0 0 1:-1 2:-1 3:-1 4:1 5:-1 6:-1 7:-1 8:-1 9:1 10:1 11:-1 12:-1 13:-1 14:-1 15:-1 16:1 17:1 18:-1 19:-1 20:-1 21:1 22:1 23:-1 24:-1 25:-1 26:-1 27:-1 28:1 29:1 30:-1 31:-1 32:1 33:1 34:1 35:-1 36:-1 37:-1 38:-1 39:-1 40:1 41:1 42:1 43:1 44:1 45:1 46:1 47:-1 48:-1 49:-1 50:-1 51:-1 52:-1 53:-1 54:1 55:1 56:-1 57:-1 58:-1 59:-1 60:-1 61:-1 62:-1 63:-1 64:-1 65:1 66:1 67:-1 68:-1 69:-1 70:-1 71:-1 72:-1 73:-1 74:-1 75:1 76:1 77:1 78:1 79:1 80:1 81:1 82:-1 83:-1 84:-1 85:-1 86:-1 87:1 88:1 89:1 90:-1 91:1 92:1 93:1 94:-1 95:-1 96:-1 97:-1 98:-1 99:1 100:1 101:-1 102:-1 103:-1 104:1 105:1 106:-1 107:-1 108:-1 109:-1 110:-1 111:-1 112:1 113:-1 114:-1 115:-1 116:-1 117:1 118:1 119:-1 120:-1 
-0 -7.442137032828507 0 13.29126138437693 0 0 0 0 9.146734378777847 0 5.692479443526054 0 0 0.7778310826795678 0 15.2890316817011 1.014547341086438 0 1:-1 2:1 3:-1 4:-1 5:-1 6:-1 7:1 8:1 9:-1 10:-1 11:-1 12:-1 13:-1 14:1 15:1 16:-1 17:-1 18:-1 19:1 20:1 21:-1 22:-1 23:-1 24:-1 25:-1 26:1 27:1 28:-1 29:-1 30:1 31:1 32:1 33:-1 34:-1 35:-1 36:-1 37:-1 38:-1 39:1 40:1 41:1 42:1 43:1 44:1 45:1 46:-1 47:-1 48:-1 49:-1 50:-1 51:-1 52:-1 53:1 54:1 55:-1 56:-1 57:-1 58:-1 59:-1 60:-1 61:-1 62:-1 63:-1 64:-1 65:-1 66:1 67:1 68:-1 69:-1 70:-1 71:-1 72:-1 73:-1 74:-1 75:1 76:1 77:1 78:1 79:1 80:1 81:1 82:-1 83:-1 84:-1 85:-1 86:-1 87:1 88:1 89:1 90:-1 91:1 92:1 93:1 94:-1 95:-1 96:-1 97:-1 98:-1 99:-1 100:1 101:1 102:-1 103:-1 104:-1 105:1 106:1 107:-1 108:-1 109:-1 110:-1 111:1 112:-1 113:-1 114:-1 115:-1 116:1 117:1 118:-1 119:-1 120:-1 
-26.76203920543824 -32 15.19923353190613 14.20892635838605 7.00696823615253 9.42000341441501 19.21936771026707 0 17.59377724510918 0 0.8591740440324358 32 19.16501194741652 21.85984424486133 20.37953102650148 32 13.02990283142625 12.08244526517403 1:-1 2:1 3:-1 4:-1 5:-1 6:-1 7:1 8:1 9:-1 10:-1 11:-1 12:-1 13:-1 14:1 15:1 16:-1 17:-1 18:1 19:1 20:1 21:-1 22:-1 23:-1 24:-1 25:-1 26:-1 27:1 28:1 29:-1 30:-1 31:1 32:1 33:1 34:-1 35:-1 36:-1 37:-1 38:-1 39:1 40:1 41:1 42:1 43:-1 44:-1 45:-1 46:-1 47:-1 48:-1 49:-1 50:-1 51:-1 52:-1 53:-1 54:1 55:1 56:-1 57:-1 58:-1 59:-1 60:-1 61:-1 62:-1 63:-1 64:-1 65:-1 66:1 67:1 68:1 69:1 70:1 71:-1 72:-1 73:-1 74:-1 75:-1 76:1 77:1 78:1 79:1 80:1 81:1 82:1 83:-1 84:-1 85:-1 86:-1 87:-1 88:1 89:1 90:1 91:-1 92:-1 93:1 94:1 95:-1 96:-1 97:-1 98:-1 99:-1 100:1 101:1 102:-1 103:-1 104:-1 105:1 106:1 107:-1 108:-1 109:-1 110:-1 111:-1 112:1 113:-1 114:-1 115:-1 116:-1 117:-1 118:-1 119:-1 120:-1 
-0 -0 0 0 0 0 0 0 0 0.4774387127919303 0 0 0 0 0 0 0 0 1:-1 2:-1 3:-1 4:1 5:-1 6:-1 7:-1 8:-1 9:1 10:1 11:-1 12:-1 13:-1 14:-1 15:-1 16:1 17:1 18:-1 19:-1 20:-1 21:1 22:1 23:-1 24:-1 25:-1 26:-1 27:-1 28:1 29:1 30:-1 31:-1 32:1 33:1 34:1 35:-1 36:-1 37:-1 38:-1 39:1 40:1 41:1 42:1 43:1 44:1 45:1 46:-1 47:-1 48:-1 49:-1 50:-1 51:-1 52:-1 53:1 54:1 55:-1 56:-1 57:-1 58:-1 59:-1 60:-1 61:-1 62:-1 63:-1 64:-1 65:1 66:1 67:-1 68:-1 69:-1 70:-1 71:-1 72:-1 73:-1 74:-1 75:1 76:1 77:1 78:1 79:1 80:1 81:1 82:-1 83:-1 84:-1 85:-1 86:-1 87:1 88:1 89:1 90:-1 91:1 92:1 93:-1 94:-1 95:-1 96:-1 97:-1 98:-1 99:1 100:1 101:-1 102:-1 103:-1 104:1 105:1 106:-1 107:-1 108:-1 109:-1 110:-1 111:1 112:-1 113:-1 114:-1 115:-1 116:1 117:1 118:-1 119:-1 120:-1 
-2.951246422966743 -4.083365117144432 0 24.98245139064083 0 4.089946903407965 0 0 4.087644516714346 11.32044578233775 9.419560817517047 0 1.24068864596452 0 0 0 6.181595784440901 0 1:-1 2:1 3:-1 4:-1 5:-1 6:-1 7:1 8:1 9:-1 10:-1 11:-1 12:-1 13:-1 14:1 15:1 16:-1 17:-1 18:-1 19:1 20:1 21:-1 22:-1 23:-1 24:-1 25:-1 26:-1 27:1 28:1 29:-1 30:-1 31:1 32:1 33:1 34:-1 35:-1 36:-1 37:-1 38:-1 39:1 40:1 41:1 42:1 43:1 44:1 45:1 46:-1 47:-1 48:-1 49:-1 50:-1 51:-1 52:-1 53:-1 54:1 55:1 56:-1 57:-1 58:-1 59:-1 60:-1 61:-1 62:-1 63:-1 64:-1 65:-1 66:1 67:1 68:-1 69:-1 70:-1 71:-1 72:-1 73:-1 74:-1 75:-1 76:1 77:1 78:1 79:1 80:-1 81:1 82:-1 83:-1 84:-1 85:-1 86:-1 87:-1 88:1 89:1 90:1 91:-1 92:1 93:1 94:1 95:-1 96:-1 97:-1 98:-1 99:-1 100:1 101:1 102:-1 103:-1 104:-1 105:1 106:1 107:-1 108:-1 109:-1 110:-1 111:-1 112:-1 113:1 114:-1 115:-1 116:-1 117:-1 118:1 119:1 120:-1 
-7.112166162622566 -17.24546634820797 0 0 0.6691459112745909 0 0 7.348435951889015 0 0 14.60756013384279 7.469459694827989 25.37944325258868 9.195368188249406 0 2.929351393969254 0 7.720453413439697 1:-1 2:-1 3:1 4:-1 5:-1 6:-1 7:-1 8:1 9:1 10:-1 11:-1 12:-1 13:-1 14:-1 15:1 16:1 17:-1 18:-1 19:-1 20:1 21:1 22:-1 23:-1 24:-1 25:-1 26:1 27:1 28:-1 29:-1 30:1 31:1 32:1 33:-1 34:-1 35:-1 36:-1 37:-1 38:-1 39:1 40:1 41:1 42:1 43:1 44:1 45:1 46:-1 47:-1 48:-1 49:-1 50:-1 51:-1 52:-1 53:1 54:1 55:-1 56:-1 57:-1 58:-1 59:-1 60:-1 61:-1 62:-1 63:-1 64:-1 65:-1 66:1 67:1 68:-1 69:-1 70:-1 71:-1 72:-1 73:-1 74:-1 75:-1 76:1 77:1 78:1 79:1 80:1 81:1 82:1 83:-1 84:-1 85:-1 86:-1 87:1 88:1 89:1 90:-1 91:1 92:1 93:1 94:-1 95:-1 96:-1 97:-1 98:-1 99:-1 100:1 101:1 102:-1 103:-1 104:-1 105:1 106:1 107:-1 108:-1 109:-1 110:-1 111:1 112:-1 113:-1 114:-1 115:-1 116:1 117:1 118:-1 119:-1 120:-1 
-0 -0 4.183404564456174 14.04906127663911 5.940284173097332 4.462525948524455 12.24958449726691 0.6248782747610855 10.3511317128818 0 0 0.7734481752118141 32 18.96038304776682 0.2266750016055603 0 5.208397397145053 21.62395148533306 1:-1 2:1 3:-1 4:-1 5:-1 6:-1 7:1 8:1 9:-1 10:-1 11:-1 12:-1 13:-1 14:1 15:1 16:-1 17:-1 18:1 19:1 20:1 21:-1 22:-1 23:-1 24:-1 25:-1 26:1 27:1 28:-1 29:-1 30:1 31:1 32:1 33:-1 34:-1 35:-1 36:-1 37:-1 38:-1 39:1 40:1 41:1 42:1 43:-1 44:-1 45:-1 46:-1 47:-1 48:-1 49:-1 50:-1 51:-1 52:-1 53:1 54:1 55:-1 56:-1 57:-1 58:-1 59:-1 60:-1 61:-1 62:-1 63:-1 64:-1 65:1 66:1 67:1 68:1 69:1 70:-1 71:-1 72:-1 73:-1 74:-1 75:1 76:1 77:1 78:1 79:1 80:1 81:1 82:-1 83:-1 84:-1 85:-1 86:-1 87:-1 88:1 89:1 90:1 91:-1 92:-1 93:1 94:1 95:-1 96:-1 97:-1 98:-1 99:1 100:1 101:-1 102:-1 103:-1 104:1 105:1 106:-1 107:-1 108:-1 109:-1 110:-1 111:1 112:-1 113:-1 114:-1 115:-1 116:-1 117:-1 118:-1 119:-1 120:-1 
-0.5906854670761917 -8.566487145704269 4.10328548102807 0 7.711550001224552 11.35344210985298 0 0 0.09779453353999684 0 9.725560863930754 8.971000810989001 0.5886519572710971 21.17427065124681 6.562715809496544 0 0 0 1:-1 2:1 3:-1 4:-1 5:-1 6:-1 7:1 8:1 9:-1 10:-1 11:-1 12:-1 13:-1 14:1 15:1 16:-1 17:-1 18:-1 19:1 20:1 21:-1 22:-1 23:-1 24:-1 25:-1 26:1 27:1 28:-1 29:-1 30:1 31:1 32:1 33:-1 34:-1 35:-1 36:-1 37:-1 38:-1 39:1 40:1 41:1 42:1 43:1 44:1 45:1 46:-1 47:-1 48:-1 49:-1 50:-1 51:-1 52:-1 53:1 54:1 55:-1 56:-1 57:-1 58:-1 59:-1 60:-1 61:-1 62:-1 63:-1 64:-1 65:-1 66:1 67:1 68:-1 69:-1 70:-1 71:-1 72:-1 73:-1 74:-1 75:1 76:1 77:1 78:1 79:1 80:1 81:1 82:-1 83:-1 84:-1 85:-1 86:-1 87:-1 88:1 89:1 90:1 91:-1 92:1 93:1 94:1 95:-1 96:-1 97:-1 98:-1 99:-1 100:1 101:1 102:-1 103:-1 104:-1 105:1 106:1 107:-1 108:-1 109:-1 110:-1 111:-1 112:-1 113:1 114:-1 115:-1 116:-1 117:-1 118:1 119:1 120:-1 
-0 -0 0 0 0 0 0 25.6329032379838 0 0 0 0 0 0 0 0 0 0 1:-1 2:1 3:-1 4:-1 5:-1 6:-1 7:1 8:1 9:-1 10:-1 11:-1 12:-1 13:-1 14:1 15:1 16:-1 17:-1 18:-1 19:1 20:1 21:-1 22:-1 23:-1 24:-1 25:-1 26:-1 27:1 28:1 29:-1 30:-1 31:1 32:1 33:1 34:-1 35:-1 36:-1 37:-1 38:-1 39:1 40:1 41:1 42:1 43:1 44:1 45:1 46:-1 47:-1 48:-1 49:-1 50:-1 51:-1 52:-1 53:1 54:1 55:-1 56:-1 57:-1 58:-1 59:-1 60:-1 61:-1 62:-1 63:-1 64:-1 65:-1 66:1 67:1 68:-1 69:-1 70:-1 71:-1 72:-1 73:-1 74:-1 75:-1 76:1 77:1 78:1 79:1 80:1 81:1 82:1 83:-1 84:-1 85:-1 86:-1 87:-1 88:1 89:1 90:1 91:-1 92:1 93:1 94:1 95:-1 96:-1 97:-1 98:-1 99:-1 100:1 101:1 102:-1 103:-1 104:-1 105:1 106:1 107:-1 108:-1 109:-1 110:-1 111:-1 112:-1 113:1 114:-1 115:-1 116:-1 117:-1 118:1 119:1 120:-1 
-0 -0 0 0 0 0 0 0 0 0 0 0 0 0 0 0 0.1951554049849571 0 1:-1 2:-1 3:-1 4:1 5:-1 6:-1 7:-1 8:-1 9:1 10:1 11:-1 12:-1 13:-1 14:-1 15:-1 16:1 17:1 18:-1 19:-1 20:-1 21:1 22:1 23:-1 24:-1 25:-1 26:-1 27:-1 28:1 29:1 30:-1 31:-1 32:1 33:1 34:1 35:-1 36:-1 37:-1 38:-1 39:-1 40:1 41:1 42:1 43:1 44:1 45:1 46:1 47:-1 48:-1 49:-1 50:-1 51:-1 52:-1 53:-1 54:1 55:1 56:-1 57:-1 58:-1 59:-1 60:-1 61:-1 62:-1 63:-1 64:-1 65:1 66:1 67:-1 68:-1 69:-1 70:-1 71:-1 72:-1 73:-1 74:-1 75:1 76:1 77:1 78:1 79:1 80:1 81:1 82:-1 83:-1 84:-1 85:-1 86:-1 87:1 88:1 89:1 90:-1 91:1 92:1 93:1 94:-1 95:-1 96:-1 97:-1 98:-1 99:1 100:1 101:-1 102:-1 103:-1 104:1 105:1 106:-1 107:-1 108:-1 109:-1 110:-1 111:1 112:-1 113:-1 114:-1 115:-1 116:1 117:1 118:-1 119:-1 120:-1 
-0 -0 0 0 0 0 0 0 0 0 0 0 0 0 0 0 16.21730462552888 0 1:-1 2:-1 3:-1 4:1 5:-1 6:-1 7:-1 8:-1 9:1 10:1 11:-1 12:-1 13:-1 14:-1 15:-1 16:1 17:1 18:-1 19:-1 20:1 21:1 22:1 23:-1 24:-1 25:-1 26:-1 27:-1 28:1 29:1 30:-1 31:-1 32:1 33:1 34:1 35:-1 36:-1 37:-1 38:-1 39:1 40:1 41:1 42:1 43:-1 44:-1 45:-1 46:-1 47:-1 48:-1 49:-1 50:-1 51:-1 52:-1 53:-1 54:1 55:1 56:-1 57:-1 58:-1 59:-1 60:-1 61:-1 62:-1 63:-1 64:-1 65:1 66:1 67:1 68:1 69:1 70:-1 71:-1 72:-1 73:-1 74:-1 75:1 76:1 77:1 78:1 79:1 80:1 81:1 82:-1 83:-1 84:-1 85:-1 86:-1 87:1 88:1 89:1 90:-1 91:-1 92:1 93:1 94:-1 95:-1 96:-1 97:-1 98:-1 99:1 100:1 101:-1 102:-1 103:-1 104:1 105:1 106:-1 107:-1 108:-1 109:-1 110:-1 111:1 112:-1 113:-1 114:-1 115:-1 116:1 117:1 118:-1 119:-1 120:-1 
-17.09139338841964 -32 17.08824431355469 30.65436596464141 25.91769464664425 32 21.35743486103825 31.9338515830501 6.314370703258304 28.06274544616248 32 20.84263097111752 32 32 18.39606589851049 19.51570973432463 10.73896154780373 28.39514934574997 1:-1 2:-1 3:-1 4:-1 5:1 6:-1 7:-1 8:-1 9:-1 10:1 11:1 12:-1 13:-1 14:-1 15:-1 16:-1 17:1 18:1 19:-1 20:-1 21:-1 22:1 23:1 24:-1 25:-1 26:-1 27:-1 28:1 29:1 30:-1 31:-1 32:1 33:1 34:1 35:-1 36:-1 37:-1 38:-1 39:-1 40:1 41:1 42:1 43:1 44:1 45:1 46:1 47:-1 48:-1 49:-1 50:-1 51:-1 52:-1 53:-1 54:1 55:1 56:-1 57:-1 58:-1 59:-1 60:-1 61:-1 62:-1 63:-1 64:-1 65:1 66:1 67:-1 68:-1 69:-1 70:-1 71:-1 72:-1 73:-1 74:-1 75:1 76:1 77:1 78:1 79:1 80:1 81:1 82:-1 83:-1 84:-1 85:-1 86:-1 87:1 88:1 89:1 90:-1 91:1 92:1 93:1 94:-1 95:-1 96:-1 97:-1 98:1 99:1 100:-1 101:-1 102:-1 103:1 104:1 105:-1 106:-1 107:-1 108:-1 109:-1 110:1 111:-1 112:-1 113:-1 114:-1 115:1 116:1 117:-1 118:-1 119:-1 120:-1 
-12.00717540806429 -0 -18.62314552671263 0 19.76836059728682 32 5.656916799245393 24.15462379425233 2.212772303914198 0 32 2.537831821968716 16.55313426454218 8.066298852954093 7.664114441482597 10.99543577496485 0 0 1:-1 2:-1 3:-1 4:-1 5:-1 6:-1 7:-1 8:-1 9:1 10:1 11:1 12:-1 13:-1 14:-1 15:-1 16:-1 17:-1 18:-1 19:1 20:1 21:1 22:1 23:1 24:1 25:-1 26:-1 27:-1 28:-1 29:-1 30:1 31:1 32:1 33:-1 34:-1 35:-1 36:1 37:-1 38:-1 39:-1 40:-1 41:1 42:1 43:-1 44:-1 45:-1 46:-1 47:1 48:1 49:-1 50:-1 51:1 52:-1 53:1 54:1 55:-1 56:-1 57:-1 58:-1 59:1 60:1 61:-1 62:-1 63:1 64:-1 65:1 66:1 67:-1 68:-1 69:-1 70:-1 71:1 72:1 73:1 74:1 75:-1 76:-1 77:1 78:1 79:-1 80:-1 81:-1 82:1 83:1 84:-1 85:-1 86:1 87:1 88:1 89:1 90:1 91:1 92:1 93:1 94:1 95:1 96:-1 97:1 98:1 99:1 100:1 101:1 102:1 103:1 104:1 105:1 106:1 107:1 108:-1 109:-1 110:-1 111:-1 112:-1 113:-1 114:-1 115:-1 116:-1 117:-1 118:1 119:1 120:-1 
-0 -0 -0 0 0 0 11.56696997866261 0 0 0 0 0 0 0 0 0 0 0 1:-1 2:-1 3:-1 4:-1 5:-1 6:-1 7:1 8:1 9:1 10:1 11:1 12:-1 13:-1 14:-1 15:-1 16:1 17:1 18:1 19:1 20:-1 21:1 22:1 23:-1 24:-1 25:-1 26:-1 27:-1 28:1 29:1 30:-1 31:-1 32:-1 33:1 34:1 35:-1 36:-1 37:-1 38:-1 39:-1 40:1 41:1 42:-1 43:-1 44:-1 45:-1 46:1 47:1 48:-1 49:-1 50:-1 51:1 52:1 53:-1 54:-1 55:-1 56:-1 57:1 58:1 59:-1 60:-1 61:1 62:-1 63:1 64:1 65:-1 66:-1 67:-1 68:-1 69:1 70:1 71:-1 72:-1 73:-1 74:1 75:-1 76:1 77:1 78:1 79:-1 80:-1 81:1 82:1 83:1 84:-1 85:1 86:1 87:-1 88:-1 89:1 90:1 91:1 92:1 93:1 94:1 95:1 96:-1 97:1 98:1 99:1 100:1 101:1 102:1 103:1 104:-1 105:1 106:1 107:-1 108:-1 109:1 110:1 111:1 112:1 113:-1 114:-1 115:-1 116:-1 117:-1 118:-1 119:-1 120:-1 
-0 -0 -0 0 0 0.07894344787809313 0 0 0 0 0.2066216676531501 0 0 0 0 0 0 0 1:-1 2:-1 3:-1 4:-1 5:-1 6:-1 7:-1 8:1 9:1 10:1 11:-1 12:-1 13:-1 14:-1 15:-1 16:-1 17:-1 18:1 19:1 20:1 21:1 22:1 23:1 24:1 25:-1 26:-1 27:-1 28:-1 29:1 30:1 31:1 32:-1 33:-1 34:-1 35:1 36:1 37:-1 38:-1 39:-1 40:-1 41:1 42:1 43:-1 44:-1 45:-1 46:-1 47:1 48:1 49:-1 50:-1 51:1 52:-1 53:1 54:1 55:-1 56:-1 57:-1 58:-1 59:1 60:1 61:-1 62:1 63:-1 64:1 65:1 66:-1 67:-1 68:-1 69:-1 70:1 71:1 72:-1 73:-1 74:1 75:1 76:-1 77:-1 78:1 79:1 80:-1 81:-1 82:-1 83:1 84:1 85:1 86:1 87:1 88:1 89:1 90:1 91:1 92:1 93:1 94:1 95:1 96:-1 97:-1 98:1 99:1 100:1 101:1 102:1 103:1 104:1 105:1 106:1 107:1 108:1 109:-1 110:-1 111:-1 112:-1 113:-1 114:-1 115:-1 116:-1 117:-1 118:1 119:1 120:-1 
-5.494696780137261 -7.353205569888388 -0 0 0 0 0 0 0 0 0 0 0 0 0 0 0 0 1:-1 2:-1 3:-1 4:-1 5:-1 6:1 7:1 8:1 9:-1 10:-1 11:-1 12:-1 13:-1 14:-1 15:-1 16:-1 17:1 18:1 19:1 20:1 21:1 22:1 23:1 24:-1 25:-1 26:-1 27:1 28:1 29:1 30:-1 31:-1 32:-1 33:1 34:1 35:-1 36:-1 37:-1 38:-1 39:-1 40:1 41:1 42:-1 43:-1 44:-1 45:-1 46:1 47:1 48:-1 49:-1 50:1 51:-1 52:1 53:1 54:-1 55:-1 56:-1 57:-1 58:1 59:1 60:-1 61:-1 62:-1 63:1 64:-1 65:-1 66:1 67:-1 68:-1 69:-1 70:-1 71:1 72:1 73:1 74:1 75:-1 76:-1 77:1 78:1 79:-1 80:-1 81:-1 82:1 83:1 84:-1 85:1 86:1 87:1 88:1 89:1 90:1 91:1 92:1 93:1 94:1 95:1 96:-1 97:1 98:1 99:1 100:1 101:1 102:1 103:1 104:1 105:1 106:1 107:1 108:-1 109:-1 110:-1 111:-1 112:-1 113:-1 114:-1 115:-1 116:-1 117:-1 118:1 119:1 120:-1 
-0 -0 -0 0 0 2.045286568268326 0 0 0 0 0 0 0 0 0 0 0 0 1:-1 2:-1 3:-1 4:-1 5:-1 6:-1 7:1 8:1 9:1 10:1 11:1 12:-1 13:-1 14:-1 15:-1 16:-1 17:1 18:1 19:1 20:1 21:-1 22:1 23:1 24:-1 25:-1 26:-1 27:-1 28:1 29:1 30:-1 31:-1 32:-1 33:1 34:1 35:-1 36:-1 37:-1 38:-1 39:-1 40:1 41:1 42:-1 43:-1 44:-1 45:-1 46:1 47:1 48:-1 49:-1 50:-1 51:-1 52:1 53:1 54:-1 55:-1 56:-1 57:-1 58:1 59:1 60:-1 61:-1 62:-1 63:1 64:-1 65:1 66:1 67:-1 68:-1 69:-1 70:-1 71:1 72:1 73:-1 74:-1 75:1 76:-1 77:1 78:1 79:1 80:-1 81:-1 82:1 83:1 84:1 85:1 86:1 87:-1 88:-1 89:1 90:1 91:1 92:1 93:1 94:1 95:1 96:-1 97:-1 98:1 99:1 100:1 101:1 102:1 103:1 104:1 105:1 106:-1 107:1 108:1 109:1 110:1 111:1 112:1 113:-1 114:-1 115:-1 116:-1 117:-1 118:-1 119:-1 120:-1 
-0 -0 -0 0 0 0 2.956500060228569 0 0 0 0 0 0 3.276798606367046 0 19.50509871954003 0 0 1:-1 2:-1 3:-1 4:-1 5:-1 6:1 7:1 8:1 9:-1 10:-1 11:-1 12:-1 13:-1 14:-1 15:-1 16:1 17:1 18:1 19:1 20:1 21:1 22:1 23:-1 24:-1 25:-1 26:-1 27:1 28:1 29:1 30:-1 31:-1 32:-1 33:1 34:1 35:-1 36:-1 37:-1 38:-1 39:1 40:1 41:-1 42:-1 43:-1 44:-1 45:1 46:1 47:-1 48:-1 49:1 50:-1 51:1 52:1 53:-1 54:-1 55:-1 56:-1 57:1 58:1 59:-1 60:-1 61:1 62:-1 63:1 64:1 65:-1 66:-1 67:-1 68:-1 69:1 70:1 71:-1 72:-1 73:1 74:1 75:-1 76:-1 77:1 78:1 79:-1 80:-1 81:-1 82:1 83:1 84:-1 85:1 86:1 87:1 88:1 89:1 90:1 91:1 92:1 93:1 94:1 95:1 96:-1 97:1 98:1 99:1 100:1 101:1 102:1 103:1 104:1 105:1 106:1 107:1 108:-1 109:-1 110:-1 111:-1 112:-1 113:-1 114:-1 115:-1 116:-1 117:-1 118:1 119:1 120:-1 
